tree
version=v3
num_class=1
num_tree_per_iteration=1
label_index=0
max_feature_idx=29
objective=regression
feature_names=Column_0 Column_1 Column_2 Column_3 Column_4 Column_5 Column_6 Column_7 Column_8 Column_9 Column_10 Column_11 Column_12 Column_13 Column_14 Column_15 Column_16 Column_17 Column_18 Column_19 Column_20 Column_21 Column_22 Column_23 Column_24 Column_25 Column_26 Column_27 Column_28 Column_29
feature_infos=[0:1] [0:1] [0:0.99999999000000017] [0:1] [0:6.5555553734567944] [-1.0000000100000002:200000000] [0:2.9999999700000006] [-5.2451614541069747:1.608133784543873] [-8.1770475469435535:10.610828593320583] [-141.85724418374571:200000000] [0:0.99186166944386589] [0:0.98507462679215851] [0:0.99728462107998361] [0:1] [0:1] [0.0026533401735377772:0.99933839713680184] [-1.5813217482255806:0.99999995661783314] [-1.5164312620476641:0.99999995216435011] [-2.486148622824973:0.99999997653770456] [-67.349752544749236:0.99999998969650683] [-2.243892506958844:0.99999997392144047] [-3.8882150056618037:0.9999999830753078] [-6.1618931819661338:0.99999998612545249] [-709.00242773248942:0.99999998997175144] [0:1] [0:15] [0:1] [-0.016799122095108032:1.0000002384185791] [0:1] [-0.06792193456735042:1]
tree_sizes=878 904 827 821 912 819 906 822 907 826 907 907 913 914 830 914 830 919 843 921 838 923 836 925 1016 1016 1021 1020 927 1105 1109 1025 1020 1102 1101 1021 1381 1028 933 1205 843 1117 1030 1109 1026 1115 850 1024 852 1286 1020 927 1106 1016 939 1017 1103 852 1026 938 766 941 759 932 854 1112 1027 936 1028 763 1120 1116 1033 930 1032 1026 944 757 1115 942 942 938 1117 1031 1114 588 855 1117 760 1198 668 850 1027 1025 1030 1204 1113 767 1022 765 847 852 1020 940 937 1214 766 766 1122 1025 860 1300 1111 765 852 1026 1194 846 765 844 942 1209 848 1211 759 947 1211 769 763 857 1027 854 1036 937 766 1388 946 947 1028 1035 1039 1036 674 849 943 1036 1293 758 846 763 856 945 1211 938 859 1025 1032 765 1129 1021 1016 1383 851 939 1118 1124 939 682 1027 776 855 1116 941 1029 678 1040 1117 679 858 1024 939 1025 850 935 1114 944 1121 680 1119 1033 1030 862 1115 932 1026 937 950 935 769 769 1116 678 1123 1115 766 1131 1209 1036 1124 952 947 768 1217 1045 1207 1126 1034 591 1132 1219 1042 767 856 769 1399 1219 853 852 1210 1041 1037 1126 1304 767 1024 1398 1133 767 1223 932 1303 678 1126 1127 1121 1043 1218 1131 1131 1132 1032 1127 1135 937 766 1305 1031 1025 1030 766 861 947 853 1041 947 1226 851 679 1307 944 1129 1130 955 1221 866 775 1040 946 770 687 1123 1042 1216 861 683 945 862 774 1038 1214 683 770 949 946 769 775 1130 678 944 1218

Tree=0
num_leaves=9
num_cat=0
split_feature=28 29 12 26 14 14 10 29
split_gain=29.556 13.3934 5.67764 3.20958 0.433531 0.577002 0.25 0.152896
threshold=1.0000000180025095e-35 0.74035187819516279 0.59999999968000006 1.0000000180025095e-35 0.50211958871786344 0.29908357868137853 0.18531289991359615 0.65289576690791795
decision_type=2 2 2 2 2 2 2 2
left_child=1 4 3 -3 5 -1 -2 -6
right_child=6 2 -4 -5 7 -7 -8 -9
leaf_value=0.13931676963687439 0.2371428580511184 0.22464285786485388 0.14359446956036462 0.17969604868445596 0.13766233708822367 0.15714285685902551 0.22214285782760101 0.14623376578737649
leaf_weight=46 25 24 31 47 385 30 20 22
leaf_count=46 25 24 31 47 385 30 20 22
internal_value=0.152381 0.146374 0.1793 0.194889 0.13942 0.146353 0.230476 0.138126
internal_weight=0 585 102 71 483 76 45 407
internal_count=630 585 102 71 483 76 45 407
is_linear=0
shrinkage=1


Tree=1
num_leaves=9
num_cat=0
split_feature=28 29 4 15 14 14 15 29
split_gain=23.9404 10.8486 4.85069 3.06304 0.35116 0.467372 0.24059 0.123846
threshold=1.0000000180025095e-35 0.74035187819516279 0.78780972482103706 0.38366570931116201 0.50211958871786344 0.29908357868137853 0.33967727810592657 0.65289576690791795
decision_type=2 2 2 2 2 2 2 2
left_child=1 4 3 -3 5 -1 -2 -6
right_child=6 2 -4 -5 7 -7 -8 -9
leaf_value=-0.011757763766724131 0.076825713396072401 0.056238340168464476 -0.0095568276445070904 0.014583088361447859 -0.013246753111288145 0.004285713434219361 0.062110713347792626 -0.0055324673652648931
leaf_weight=46 25 41 30 31 385 30 20 22
leaf_count=46 25 41 30 31 385 30 20 22
internal_value=0 -0.00540659 0.0242269 0.0383034 -0.0116646 -0.00542481 0.0702857 -0.0128298
internal_weight=0 585 102 72 483 76 45 407
internal_count=630 585 102 72 483 76 45 407
is_linear=0
shrinkage=0.1


Tree=2
num_leaves=8
num_cat=0
split_feature=28 29 12 26 27 13 15
split_gain=19.3917 8.78738 4.11144 2.43788 0.305941 0.222954 0.204625
threshold=1.0000000180025095e-35 0.74035187819516279 0.59999999968000006 1.0000000180025095e-35 0.70985320210456859 0.78372587585626052 0.25375731200843171
decision_type=2 2 2 2 2 2 2
left_child=1 4 3 -3 6 -2 -1
right_child=5 2 -4 -5 -6 -7 -8
leaf_value=-0.0075980110951359321 0.06955288124084473 0.061001553200185299 -0.0085798280854378975 0.021829062890499198 0.0013066119026570093 0.055387466996908191 -0.012323480412097914
leaf_weight=126 25 24 31 47 21 20 336
leaf_count=126 25 24 31 47 21 20 336
internal_value=0 -0.00486593 0.0218042 0.0350705 -0.0104981 0.0632571 -0.0110347
internal_weight=0 585 102 71 483 45 462
internal_count=630 585 102 71 483 45 462
is_linear=0
shrinkage=0.1


Tree=3
num_leaves=8
num_cat=0
split_feature=27 29 10 4 14 13 19
split_gain=15.8099 8.38113 3.89899 2.28235 0.482989 0.512877 0.132594
threshold=0.89328050613403331 0.75503614331334101 0.078873623578155694 0.8946433133317363 0.50211958871786344 0.33225934819254471 -4.4320946851419523
decision_type=2 2 2 2 2 2 2
left_child=1 4 -3 -4 5 -1 -6
right_child=-2 2 3 -5 6 -7 -8
leaf_value=-0.010162289403378964 0.063419205675253998 0.05526230965669339 0.021845515018159692 -0.015113293565809727 -0.0042013664862939294 0.0060607467042772395 -0.011330610872563268
leaf_weight=40 37 26 55 24 28 38 382
leaf_count=40 37 26 55 24 28 38 382
internal_value=0 -0.00395702 0.0216724 0.0106175 -0.00947155 -0.00225876 -0.0108437
internal_weight=0 593 105 79 488 78 410
internal_count=630 593 105 79 488 78 410
is_linear=0
shrinkage=0.1


Tree=4
num_leaves=9
num_cat=0
split_feature=28 29 4 10 24 15 15 29
split_gain=12.9503 5.73583 3.07554 2.27293 0.255959 0.739763 0.190567 0.0915585
threshold=1.0000000180025095e-35 0.74035187819516279 0.29845696060403204 0.32134199426105153 0.028571823002379832 0.2989638007173368 0.33967727810592657 0.58165028294249466
decision_type=2 2 2 2 2 2 2 2
left_child=1 4 3 -3 7 -6 -2 -1
right_child=6 2 -4 -5 5 -7 -8 -9
leaf_value=-0.010602652768294018 0.057514678478240967 0.046458354350682851 -0.0075380710941372504 0.010063325427472592 0.0072243886420855653 -0.009467952064377198 0.044418467581272131 -0.0060573964451368046
leaf_weight=300 25 37 33 32 37 94 20 52
leaf_count=300 25 37 33 32 37 94 20 52
internal_value=0 -0.00397647 0.0175709 0.0295795 -0.00852684 -0.00475332 0.0516941 -0.00993119
internal_weight=0 585 102 69 483 131 45 352
internal_count=630 585 102 69 483 131 45 352
is_linear=0
shrinkage=0.1


Tree=5
num_leaves=8
num_cat=0
split_feature=27 29 10 4 14 16 19
split_gain=10.8502 5.60608 2.98813 2.33375 0.475787 0.54999 0.101733
threshold=0.89328050613403331 0.8096346163026017 0.62651661140341075 0.29845696060403204 0.50211958871786344 0.87361199184093097 -4.4320946851419523
decision_type=2 2 2 2 2 2 2
left_child=1 4 3 -3 5 -1 -6
right_child=-2 2 -4 -5 6 -7 -8
leaf_value=0.0048609719856789243 0.052538137943358036 0.039982323520458662 -0.014308894532067434 0.001128808612173254 -0.0030757775796311244 -0.012929062008857729 -0.009317180498973612
leaf_weight=57 37 52 21 22 28 25 388
leaf_count=57 37 52 21 22 28 25 388
internal_value=0 -0.0032781 0.0189835 0.0284313 -0.00752478 -0.000562819 -0.00889709
internal_weight=0 593 95 74 498 82 416
internal_count=630 593 95 74 498 82 416
is_linear=0
shrinkage=0.1


Tree=6
num_leaves=9
num_cat=0
split_feature=27 29 4 26 29 15 26 29
split_gain=9.05852 3.60276 3.3687 1.45473 1.0276 0.20225 0.503068 0.0917746
threshold=0.78638306260108959 0.81735605509147347 0.29845696060403204 0.73863636363636376 0.75503614331334101 0.44573041784831252 0.80000000596046461 0.63780970498017775
decision_type=2 2 2 2 2 2 2 2
left_child=1 5 3 -3 -2 6 -1 -7
right_child=4 2 -4 -5 -6 7 -8 -9
leaf_value=0.00079997339910203294 0.022274399486680828 0.043557994812726979 -0.011488215048466961 0.010989030015965302 0.049469262090596287 -0.0084512483959476789 -0.0089413764087233963 -0.015493115074932576
leaf_weight=91 24 32 31 24 33 248 127 20
leaf_count=91 24 32 31 24 33 248 127 20
internal_value=0 -0.00378197 0.0149593 0.0295999 0.0380188 -0.00713689 -0.00487503 -0.00897676
internal_weight=0 573 87 56 57 486 218 268
internal_count=630 573 87 56 57 486 218 268
is_linear=0
shrinkage=0.1


Tree=7
num_leaves=8
num_cat=0
split_feature=27 29 10 4 14 23 19
split_gain=7.34252 3.68411 2.17287 1.06881 0.362735 0.458217 0.0797874
threshold=0.89328050613403331 0.8096346163026017 0.084791200408808151 0.8946433133317363 0.50211958871786344 0.78463583197139319 -4.4320946851419523
decision_type=2 2 2 2 2 2 2
left_child=1 4 -3 -4 5 -1 -6
right_child=-2 2 3 -5 6 -7 -8
leaf_value=0.0060741878437752632 0.043219392686276829 0.0399870616885332 0.015155363778273265 -0.010976008201638859 -0.002182143766965185 -0.0091694086790084835 -0.0077095177370248395
leaf_weight=49 37 26 45 24 28 33 388
leaf_count=49 37 26 45 24 28 33 388
internal_value=0 -0.00269666 0.0153498 0.00606619 -0.00613925 -6.04303e-05 -0.00733748
internal_weight=0 593 95 69 498 82 416
internal_count=630 593 95 69 498 82 416
is_linear=0
shrinkage=0.1


Tree=8
num_leaves=9
num_cat=0
split_feature=27 29 4 29 13 15 26 22
split_gain=6.1168 2.41065 3.04419 0.70976 0.543464 0.229832 0.942774 0.0681642
threshold=0.78638306260108959 0.89043071778507488 0.29845696060403204 0.75503614331334101 0.82592838806281055 0.22379116166377702 0.80000000596046461 0.36246417565330807
decision_type=2 2 2 2 2 2 2 2
left_child=1 5 4 -2 -3 6 -1 -7
right_child=3 2 -4 -5 -6 7 -8 -9
leaf_value=0.0086269899606704718 0.018156601674854757 0.041440135370130131 -0.010152265333360243 0.040757759683059926 0.018900818526744842 -0.005675174855509179 -0.0096995842293836187 -0.0083855441317726414
leaf_weight=50 24 23 31 33 20 229 64 156
leaf_count=50 24 23 31 33 20 229 64 156
internal_value=0 -0.00310779 0.0137354 0.0312415 0.0309567 -0.00560558 -0.00166161 -0.0067734
internal_weight=0 573 74 57 43 499 114 385
internal_count=630 573 74 57 43 499 114 385
is_linear=0
shrinkage=0.1


Tree=9
num_leaves=8
num_cat=0
split_feature=27 29 4 10 15 26 27
split_gain=4.96914 2.48517 1.7323 0.467018 0.255305 0.709514 0.0782952
threshold=0.89328050613403331 0.89043071778507488 0.29845696060403204 0.14691097065892827 0.22379116166377702 0.80000000596046461 0.69160857796669017
decision_type=2 2 2 2 2 2 2
left_child=1 4 3 -3 5 -1 -6
right_child=-2 2 -4 -5 6 -7 -8
leaf_value=0.0077954526438757223 0.035554688524555518 0.039036938995122915 -0.0021022934573037286 0.018142902462378794 -0.0062826394945620853 -0.0077141388047199987 0.00013841526582837106
leaf_weight=54 37 20 35 23 376 65 20
leaf_count=54 37 20 35 23 376 65 20
internal_value=0 -0.00221842 0.014416 0.0278611 -0.0047378 -0.000676173 -0.00595834
internal_weight=0 593 78 43 515 119 396
internal_count=630 593 78 43 515 119 396
is_linear=0
shrinkage=0.1


Tree=10
num_leaves=9
num_cat=0
split_feature=27 29 4 21 13 15 26 27
split_gain=4.16808 1.54893 2.08258 0.900074 0.412658 0.181503 0.686098 0.0723579
threshold=0.76841348409652721 0.89043071778507488 0.29845696060403204 0.38059076988924984 0.82592838806281055 0.22379116166377702 0.80000000596046461 0.4554999321699143
decision_type=2 2 2 2 2 2 2 2
left_child=1 5 4 -2 -3 6 -1 -7
right_child=3 2 -4 -5 -6 7 -8 -9
leaf_value=0.007888082290689151 0.033965455301297014 0.034210020822027454 -0.0089268090503831065 0.0086689586666497311 0.014569626301527023 -0.0049671017536611272 -0.007981433961836119 -0.0082463235305301075
leaf_weight=48 39 23 31 22 20 297 63 87
leaf_count=48 39 23 31 22 20 297 63 87
internal_value=0 -0.00266322 0.010831 0.0248421 0.025075 -0.00468053 -0.00111894 -0.00571005
internal_weight=0 569 74 61 43 495 111 384
internal_count=630 569 74 61 43 495 111 384
is_linear=0
shrinkage=0.1


Tree=11
num_leaves=9
num_cat=0
split_feature=27 29 4 15 11 19 29 29
split_gain=3.38101 1.23557 1.68689 0.544154 0.359351 0.129479 0.438005 0.106648
threshold=0.78638306260108959 0.89043071778507488 0.29845696060403204 0.40288005489647349 0.16666666656250001 0.99999821974765679 0.58165028294249466 0.60313524042809652
decision_type=2 2 2 2 2 2 2 2
left_child=1 5 4 -2 -3 6 -1 -7
right_child=3 2 -4 -5 -6 7 -8 -9
leaf_value=-0.0047170496534775291 0.031559422070329843 0.031498938121578911 -0.0080341281910096454 0.011769871599972248 0.013210669159889221 -0.0056881307491234373 0.0044223407824193275 -0.013884137570858003
leaf_weight=340 33 22 31 24 21 77 62 20
leaf_count=340 33 22 31 24 21 77 62 20
internal_value=0 -0.00231054 0.00974787 0.023227 0.0225675 -0.00409876 -0.00330749 -0.00737803
internal_weight=0 573 74 57 43 499 402 97
internal_count=630 573 74 57 43 499 402 97
is_linear=0
shrinkage=0.1


Tree=12
num_leaves=9
num_cat=0
split_feature=27 29 26 15 12 14 13 27
split_gain=2.82559 1.43066 1.25188 0.592231 0.399219 0.161766 0.359647 0.117938
threshold=0.89328050613403331 0.75503614331334101 0.73863636363636376 0.35049093443491314 0.40042194071981346 0.50211958871786344 0.33225934819254471 0.6557653844356538
decision_type=2 2 2 2 2 2 2 2
left_child=1 5 3 -3 -4 6 -1 -7
right_child=-2 2 4 -5 -6 7 -8 -9
leaf_value=-0.0063953820988535892 0.026810845813235725 0.028807383691591606 0.0090832024812698368 0.0067357367463409899 -0.0085542586716738627 -0.004286178044428688 0.0071897494557656748 -0.011009885889611075
leaf_weight=40 37 31 21 20 33 382 38 28
leaf_count=40 37 31 21 20 33 382 38 28
internal_value=0 -0.00167285 0.00891619 0.0201518 -0.00169525 -0.00395123 0.000223015 -0.00474536
internal_weight=0 593 105 51 54 488 78 410
internal_count=630 593 105 51 54 488 78 410
is_linear=0
shrinkage=0.1


Tree=13
num_leaves=9
num_cat=0
split_feature=27 29 4 10 10 15 26 14
split_gain=2.29387 0.830755 1.26546 0.656556 0.281151 0.132303 0.507932 0.0738915
threshold=0.76841348409652721 0.89043071778507488 0.29845696060403204 0.18834981681599114 0.14691097065892827 0.22379116166377702 0.80000000596046461 0.76941683135269068
decision_type=2 2 2 2 2 2 2 2
left_child=1 5 4 -2 -3 6 -1 -7
right_child=3 2 -4 -5 -6 7 -8 -9
leaf_value=0.0073375045477102208 0.028975251416365307 0.027681484669446945 -0.0074946809439889852 0.0082232886985425021 0.011469920303510584 -0.0068761858581141994 -0.0063169229066088088 -0.0035757160512730479
leaf_weight=48 30 20 31 31 23 88 63 296
leaf_count=48 30 20 31 31 23 88 63 296
internal_value=0 -0.00197571 0.00790679 0.0184292 0.0190102 -0.0034531 -0.000412306 -0.00433207
internal_weight=0 569 74 61 43 495 111 384
internal_count=630 569 74 61 43 495 111 384
is_linear=0
shrinkage=0.1


Tree=14
num_leaves=8
num_cat=0
split_feature=27 29 15 26 14 14 27
split_gain=1.91528 0.972297 1.05592 0.913036 0.127325 0.308603 0.11642
threshold=0.89328050613403331 0.75503614331334101 0.798801534788946 1.0000000180025095e-35 0.50211958871786344 0.29908357868137853 0.69160857796669017
decision_type=2 2 2 2 2 2 2
left_child=1 4 3 -3 5 -1 -6
right_child=-2 2 -4 -5 6 -7 -8
leaf_value=-0.0046606149920757787 0.022073531674372183 0.030089349265802992 -0.011582708520733793 0.0062736145531137781 -0.0035685455752177534 0.0081927719856462172 -0.011212558157387234
leaf_weight=47 37 22 23 60 389 31 21
leaf_count=47 37 22 23 60 389 31 21
internal_value=0 -0.00137727 0.00735219 0.0126632 -0.00325553 0.000447782 -0.00396007
internal_weight=0 593 105 82 488 78 410
internal_count=630 593 105 82 488 78 410
is_linear=0
shrinkage=0.1


Tree=15
num_leaves=9
num_cat=0
split_feature=27 29 4 21 13 20 29 29
split_gain=1.58978 0.550527 0.953582 0.53365 0.215521 0.102674 0.594412 0.0841716
threshold=0.76841348409652721 0.89043071778507488 0.29845696060403204 0.38059076988924984 0.82592838806281055 0.71690279011073244 0.58165028294249466 0.64485796894572245
decision_type=2 2 2 2 2 2 2 2
left_child=1 5 4 -2 -3 6 -1 -7
right_child=3 2 -4 -5 -6 7 -8 -9
leaf_value=-0.0033172743993913328 0.022367211641409462 0.02264040248549503 -0.0069694376190102868 0.0028889742764559661 0.0084465648978948593 -0.0038150723123935616 0.010325244462324515 -0.0097100412794228277
leaf_weight=283 39 23 31 22 20 147 36 29
leaf_count=283 39 23 31 22 20 147 36 29
internal_value=0 -0.00164478 0.00640011 0.0153423 0.0160386 -0.00284745 -0.00177768 -0.0047864
internal_weight=0 569 74 61 43 495 319 176
internal_count=630 569 74 61 43 495 319 176
is_linear=0
shrinkage=0.1


Tree=16
num_leaves=8
num_cat=0
split_feature=27 29 15 26 12 24 27
split_gain=1.31465 0.757526 0.8363 0.723358 0.115636 0.193357 0.0919107
threshold=0.92028209567070018 0.75503614331334101 0.798801534788946 0.70714285714285718 0.6217782710071893 0.028571823002379832 0.59509629011154186
decision_type=2 2 2 2 2 2 2
left_child=1 4 3 -3 5 -1 -6
right_child=-2 2 -4 -5 6 -7 -8
leaf_value=-0.0028737741418301925 0.019125750134972967 0.021366439740124504 -0.010364862028306918 0.0027221634336139847 -0.0038534032514966699 0.003337216703937604 -0.010836393310732786
leaf_weight=219 34 38 23 46 184 65 21
leaf_count=219 34 38 23 46 184 65 21
internal_value=0 -0.00109107 0.0065304 0.0111565 -0.00275875 -0.00145224 -0.00456873
internal_weight=0 596 107 84 489 284 205
internal_count=630 596 107 84 489 284 205
is_linear=0
shrinkage=0.1


Tree=17
num_leaves=9
num_cat=0
split_feature=27 11 29 29 4 15 26 14
split_gain=1.06947 0.437614 0.364167 0.726313 0.315408 0.0824304 0.374206 0.0543032
threshold=0.76841348409652721 0.33333333250000002 0.89043071778507488 0.99830336704133549 0.78780972482103706 0.25375731200843171 0.80000000596046461 0.76941683135269068
decision_type=2 2 2 2 2 2 2 2
left_child=2 -2 5 -4 -5 6 -1 -7
right_child=1 -3 3 4 -6 7 -8 -9
leaf_value=0.0057740129025305731 0.022410794290212487 0.0052834577645574296 0.020932927514825547 0.0071219357848167422 -0.0083315009650375173 -0.0055413900212246325 -0.0047517930484624422 -0.0024988401255014192
leaf_weight=59 26 35 21 25 28 74 79 283
leaf_count=59 26 35 21 25 28 74 79 283
internal_value=0 0.0125836 -0.00134904 0.00519402 -0.00104214 -0.00232719 -0.00025163 -0.00312951
internal_weight=0 61 569 74 53 495 138 357
internal_count=630 61 569 74 53 495 138 357
is_linear=0
shrinkage=0.1


Tree=18
num_leaves=8
num_cat=0
split_feature=27 29 15 26 12 4 29
split_gain=0.903342 0.527461 0.623129 0.532287 0.0957386 0.158274 0.0860999
threshold=0.93937718868255626 0.75503614331334101 0.798801534788946 1.0000000180025095e-35 0.6217782710071893 0.96546117320222213 0.57333099695823131
decision_type=2 2 2 2 2 2 2
left_child=1 4 3 -3 5 -1 -6
right_child=-2 2 -4 -5 6 -7 -8
leaf_value=0.00072336702311955655 0.016105939651077445 0.022777085581963716 -0.0091677652459348676 0.0047094754519916718 -0.0032235187909036588 -0.0041575496902091884 -0.0098447891312058687
leaf_weight=178 33 22 23 63 183 106 22
leaf_count=178 33 22 23 63 183 106 22
internal_value=0 -0.000890278 0.00543458 0.0093858 -0.00228718 -0.00109838 -0.00393409
internal_weight=0 597 108 85 489 284 205
internal_count=630 597 108 85 489 284 205
is_linear=0
shrinkage=0.1


Tree=19
num_leaves=9
num_cat=0
split_feature=27 21 29 4 10 20 16 29
split_gain=0.735396 0.359871 0.235668 0.547384 0.151744 0.0765018 0.726339 0.172434
threshold=0.76841348409652721 0.38059076988924984 0.89043071778507488 0.29845696060403204 0.14691097065892827 0.30214767715583873 4.0381602026910424e-20 0.70425097496719757
decision_type=2 2 2 2 2 2 2 2
left_child=2 -2 5 4 -4 6 -1 -7
right_child=1 -3 3 -5 -6 7 -8 -9
leaf_value=-0.002481973034788526 0.016203569573087571 0.00020817423408681698 0.017817947901785376 -0.0059844773262739187 0.0059079822638760451 -0.0023071590922293527 0.014432821688907489 -0.011201923415763305
leaf_weight=272 39 22 20 31 23 170 28 25
leaf_count=272 39 22 20 31 23 170 28 25
internal_value=0 0.0104347 -0.00111866 0.00414492 0.0114475 -0.00190554 -0.000903259 -0.00344751
internal_weight=0 61 569 74 43 495 300 195
internal_count=630 61 569 74 43 495 300 195
is_linear=0
shrinkage=0.1


Tree=20
num_leaves=8
num_cat=0
split_feature=27 29 10 25 16 29 27
split_gain=0.617044 0.372889 0.4892 0.520804 0.079147 0.295985 0.079487
threshold=0.93937718868255626 0.75503614331334101 0.078873623578155694 11.500000000000002 0.68311925187414757 0.58165028294249466 0.61946111917495739
decision_type=2 2 2 2 2 2 2
left_child=1 4 -3 -4 5 -1 -6
right_child=-2 2 3 -5 6 -7 -8
leaf_value=-0.0019689497400974948 0.013311226812727523 0.016534472199586724 -0.0043340947286322198 0.013181475161885224 -0.0028807977664756538 0.0084567508660256859 -0.0096086071536410616
leaf_weight=295 33 26 58 24 144 30 20
leaf_count=295 33 26 58 24 144 30 20
internal_value=0 -0.000735796 0.00458217 0.000792414 -0.00191032 -0.00100658 -0.00370126
internal_weight=0 597 108 82 489 325 164
internal_count=630 597 108 82 489 325 164
is_linear=0
shrinkage=0.1


Tree=21
num_leaves=9
num_cat=0
split_feature=27 11 2 29 4 15 29 15
split_gain=0.517698 0.315694 0.16622 0.262506 0.572566 0.100502 0.0860506 0.0136116
threshold=0.76841348409652721 0.33333333250000002 1.0000000180025095e-35 0.89043071778507488 0.29845696060403204 0.25375731200843171 0.59534627635635451 0.37444867571742252
decision_type=2 2 2 2 2 2 2 2
left_child=2 -2 3 5 -5 -1 7 -4
right_child=1 -3 6 4 -6 -7 -8 -9
leaf_value=0.0013390203789609147 0.017101768046044387 0.0025546460172959739 -0.0051511777173879605 0.013223103601485493 -0.0054217232125146056 -0.0021303461949655866 -0.010537027727280344 -0.0021372788553234447
leaf_weight=116 26 35 23 40 28 298 21 43
leaf_count=116 26 35 23 40 28 298 21 43
internal_value=0 0.00875506 -0.000938592 -0.00021245 0.00554582 -0.00115825 -0.00496158 -0.00318758
internal_weight=0 61 569 482 68 414 87 66
internal_count=630 61 569 482 68 414 87 66
is_linear=0
shrinkage=0.1


Tree=22
num_leaves=8
num_cat=0
split_feature=27 29 15 26 22 18 27
split_gain=0.422854 0.250101 0.440104 0.333648 0.0722283 0.356167 0.115116
threshold=0.93937718868255626 0.75503614331334101 0.798801534788946 0.72077922077922085 0.12074643762924268 0.091039165810704828 0.6557653844356538
decision_type=2 2 2 2 2 2 2
left_child=1 4 3 -3 5 -1 -6
right_child=-2 2 -4 -5 6 -7 -8
leaf_value=-0.0015384646838522901 0.011019324525400546 0.013557135295577167 -0.0085257478301291878 0.0010189309991388159 -0.0021990427688531882 0.011996582658251837 -0.010011838199127288
leaf_weight=262 33 41 23 44 185 21 21
leaf_count=262 33 41 23 44 185 21 21
internal_value=0 -0.000609108 0.00374614 0.00706677 -0.001571 -0.000534097 -0.00299549
internal_weight=0 597 108 85 489 283 206
internal_count=630 597 108 85 489 283 206
is_linear=0
shrinkage=0.1


Tree=23
num_leaves=9
num_cat=0
split_feature=27 11 9 10 26 29 4 27
split_gain=0.362296 0.240267 0.157113 0.254878 0.205014 0.123961 0.0711928 0.0112528
threshold=0.76841348409652721 0.15686274786605639 0.2902965257966274 0.034607874158358469 0.80000000596046461 0.74821439413260471 0.99999989928972099 0.27175201475620275
decision_type=2 2 2 2 2 2 2 2
left_child=2 -2 3 -1 -5 -3 -4 -8
right_child=1 5 6 4 -6 -7 7 -9
leaf_value=0.0096781028825789692 0.015985755642343846 -0.0027901998534798625 -0.0095004240907728688 0.0015059698750523644 -0.0026587908999379829 0.0083435735711827868 -0.0044616465181620286 -0.0012981896822684971
leaf_weight=25 21 20 25 225 249 20 22 23
leaf_count=25 21 20 25 225 249 20 22 23
internal_value=0 0.00732407 -0.000785182 -0.000162812 -0.000681847 0.00277669 -0.00522179 -0.00284477
internal_weight=0 61 569 499 474 40 70 45
internal_count=630 61 569 499 474 40 70 45
is_linear=0
shrinkage=0.1


Tree=24
num_leaves=10
num_cat=0
split_feature=29 10 23 20 12 24 14 12 13
split_gain=0.301097 0.502782 0.267792 0.584886 0.227943 0.104411 0.0609243 0.0597378 0.0530021
threshold=0.63780970498017775 0.80675093460749558 1.7290571056252263e-24 0.30214767715583873 0.47987117533021645 0.095585755709272066 0.43093096080761428 0.11546123198170032 0.12000057217684736
decision_type=2 2 2 2 2 2 2 2 2
left_child=5 2 4 -4 -2 6 8 -8 -1
right_child=1 -3 3 -5 -6 -7 7 -9 -10
leaf_value=-0.0008764549228362739 -0.0034175407019488161 -0.0085832965355527036 0.020131842268165202 0.0031842512565032977 0.0095533352158963681 0.0056860228418372577 0.003017454683140386 -0.0016327369204441377 -0.0074387881133588969
leaf_weight=20 42 29 32 56 20 20 30 349 32
leaf_count=20 42 29 32 56 20 20 30 349 32
internal_value=0 0.00347012 0.00580045 0.00934701 0.000766613 -0.00137728 -0.00170504 -0.00126465 -0.00491481
internal_weight=0 179 150 88 62 451 431 379 52
internal_count=630 179 150 88 62 451 431 379 52
is_linear=0
shrinkage=0.1


Tree=25
num_leaves=10
num_cat=0
split_feature=29 10 13 13 21 24 14 12 13
split_gain=0.243888 0.407254 0.268394 0.495914 0.235138 0.0845725 0.0493487 0.0486198 0.0429317
threshold=0.63780970498017775 0.80675093460749558 0.85924730077570899 0.99999969464649585 0.75610309267740161 0.095585755709272066 0.43093096080761428 0.39004996898463767 0.12000057217684736
decision_type=2 2 2 2 2 2 2 2 2
left_child=5 2 4 -4 -2 6 8 -8 -1
right_child=1 -3 3 -5 -6 -7 7 -9 -10
leaf_value=-0.00078880954999476687 -0.0013145622321065855 -0.0077249669758924127 0.018115051960838693 7.7263277920859837e-05 0.010623113904148341 0.0051174204144626857 0.00035858937369177011 -0.0019952561464673317 -0.0066949093306902796
leaf_weight=20 66 29 35 27 22 20 138 241 32
leaf_count=20 66 29 35 27 22 20 138 241 32
internal_value=0 0.00312311 0.0052204 0.0102599 0.00166986 -0.00123955 -0.00153454 -0.00113818 -0.00442333
internal_weight=0 179 150 62 88 451 431 379 52
internal_count=630 179 150 62 88 451 431 379 52
is_linear=0
shrinkage=0.1


Tree=26
num_leaves=10
num_cat=0
split_feature=19 27 2 29 12 29 14 26 20
split_gain=0.222556 0.36532 0.184164 0.308762 0.183874 0.126616 0.0736602 0.0170901 0.00249013
threshold=0.99999851718600341 0.76841348409652721 1.0000000180025095e-35 0.58165028294249466 0.22086720863502893 0.57333099695823131 0.92583626188482271 0.86607142857142871 0.99997222631777416
decision_type=2 2 2 2 2 2 2 2 2
left_child=1 2 3 -1 -3 7 -4 -2 -9
right_child=5 4 6 -5 -6 -7 -8 8 -10
leaf_value=-0.00098465259574169006 -0.0039476829758357439 0.0014258075095269652 -0.0094456463282271714 0.0051227428110587041 0.013468218920752407 -0.0089581040011064428 -0.0025810501640619438 -0.0012462684094186574 0.00027611704215153371
leaf_weight=283 21 21 22 117 32 37 54 21 22
leaf_count=283 21 21 22 117 32 37 54 21 22
internal_value=0 0.000821263 -5.56233e-05 0.000801761 0.0086967 -0.00430147 -0.00456817 -0.00160935 -0.000467374
internal_weight=0 529 476 400 53 101 76 64 43
internal_count=630 529 476 400 53 101 76 64 43
is_linear=0
shrinkage=0.1


Tree=27
num_leaves=10
num_cat=0
split_feature=19 27 6 26 12 29 26 26 20
split_gain=0.18027 0.295909 0.162762 0.448806 0.148938 0.102559 0.0966434 0.0138429 0.00201701
threshold=0.99999851718600341 0.76841348409652721 0.90812792006384735 0.80000000596046461 0.22086720863502893 0.57333099695823131 0.75961538461538469 0.86607142857142871 0.99997222631777416
decision_type=2 2 2 2 2 2 2 2 2
left_child=1 2 3 -1 -3 7 -4 -2 -9
right_child=5 4 6 -5 -6 -7 -8 8 -10
leaf_value=0.0056158102339181563 -0.0035529146317068287 0.0012832268695568754 -0.0050056385478101581 -0.002435938448677994 0.012121396698057653 -0.0080622936290613307 -0.00048096505538002232 -0.0011216415436051431 0.00024850533703680747
leaf_weight=136 21 21 77 141 32 37 122 21 22
leaf_count=136 21 21 77 141 32 37 122 21 22
internal_value=0 0.000739137 -5.0061e-05 0.00151727 0.00782703 -0.00387132 -0.00223172 -0.00144842 -0.000420636
internal_weight=0 529 476 277 53 101 199 64 43
internal_count=630 529 476 277 53 101 199 64 43
is_linear=0
shrinkage=0.1


Tree=28
num_leaves=9
num_cat=0
split_feature=2 29 19 19 19 29 17 25
split_gain=0.177583 0.197527 0.369793 0.476004 0.136121 0.0668897 0.0439244 0.010183
threshold=1.0000000180025095e-35 0.58165028294249466 0.99999851718600341 0.4345106617800491 -4.4320946851419523 0.57333099695823131 -1.051192785552834 7.5000000000000009
decision_type=2 2 2 2 2 2 2 2
left_child=1 4 3 -3 -1 7 -6 -2
right_child=5 2 -4 -5 6 -7 -8 -9
leaf_value=0.0067190832660897915 -0.0011025176312118262 0.0021865657101029427 -0.0070949105108317374 0.015122914907044253 0.0018645745923276992 -0.0082601907813956068 -0.0016725936850524982 -0.0036265258089828892
leaf_weight=23 33 123 29 37 40 27 287 31
leaf_count=23 33 123 29 37 40 27 287 31
internal_value=0 0.000689853 0.00329494 0.0051781 -0.000716893 -0.00408605 -0.00123991 -0.00232508
internal_weight=0 539 189 160 350 91 327 64
internal_count=630 539 189 160 350 91 327 64
is_linear=0
shrinkage=0.1


Tree=29
num_leaves=11
num_cat=0
split_feature=2 10 8 15 12 12 29 26 29 25
split_gain=0.143842 0.173293 0.484249 0.345715 0.145945 0.305035 0.128392 0.0587086 0.0541807 0.00824826
threshold=1.0000000180025095e-35 0.28729899974517914 0.99984051740000013 0.51387824154759376 0.35393654518824619 0.43926448419638536 0.49887979030723945 0.80000000596046461 0.57333099695823131 7.5000000000000009
decision_type=2 2 2 2 2 2 2 2 2 2
left_child=1 2 3 -1 6 -6 -3 -4 9 -2
right_child=8 4 7 -5 5 -7 -8 -9 -10 -11
leaf_value=0.0094366696579270132 -0.00099226590404710322 -0.00191884213393288 -0.0072923971620301956 -0.00057082288692055167 0.010839666712733259 -0.00099346753420955424 -0.011962731220992283 -0.0015254740146657441 -0.0074341717331359788 -0.003263873236456646
leaf_weight=99 33 35 31 53 24 236 20 41 27 31
leaf_count=99 33 35 31 53 24 236 20 41 27 31
internal_value=0 0.000620867 0.00274718 0.00594722 -0.000891176 9.88218e-05 -0.00557117 -0.00400845 -0.00367744 -0.00209258
internal_weight=0 539 224 152 315 260 55 72 91 64
internal_count=630 539 224 152 315 260 55 72 91 64
is_linear=0
shrinkage=0.1


Tree=30
num_leaves=11
num_cat=0
split_feature=10 29 19 19 27 27 19 15 15 1
split_gain=0.129901 0.204972 0.304687 0.492652 0.10231 0.0862561 0.284859 0.0717799 0.0468724 0.00905012
threshold=0.77828614337234525 0.58165028294249466 0.99999851718600341 0.4345106617800491 0.43732771277427679 0.52033457159996044 0.024489795744835462 0.15563461437509959 0.41468673528105704 1.0000000180025095e-35
decision_type=2 2 2 2 2 2 2 2 2 2
left_child=1 5 3 -3 8 7 -7 -1 -2 -10
right_child=4 2 -4 -5 -6 6 -8 -9 9 -11
leaf_value=-0.0049191042581805964 -0.0054723098094615601 0.0019783518491489566 -0.0056132294235266599 0.015287594139777325 -0.0089754404429265352 0.01233142361510545 -0.0027930644760613865 -0.00073694163837379118 -0.0016520125301683259 0.00063390343393832657
leaf_weight=50 23 112 31 37 23 20 33 229 29 43
leaf_count=50 23 112 31 37 23 20 33 229 29 43
internal_value=0 0.000689353 0.0034067 0.00528333 -0.00299109 -0.000783908 0.00291429 -0.00148643 -0.00154225 -0.000286813
internal_weight=0 512 180 149 118 332 53 279 95 72
internal_count=630 512 180 149 118 332 53 279 95 72
is_linear=0
shrinkage=0.1


Tree=31
num_leaves=10
num_cat=0
split_feature=2 15 27 6 17 19 16 29 23
split_gain=0.120074 0.140118 0.294133 0.308687 0.0746369 0.206443 0.118882 0.053608 0.0064971
threshold=1.0000000180025095e-35 0.37715515419678131 0.15858601033687594 0.99870316650938584 0.082431949221651493 0.0091746040104375148 0.92556552854073348 0.57333099695823131 0.92010995098371995
decision_type=2 2 2 2 2 2 2 2 2
left_child=1 2 -1 -4 5 -3 -6 8 -2
right_child=7 4 3 -5 6 -7 -8 -9 -10
leaf_value=-0.0088739382103085514 -0.0026441363221336462 -0.0011091142267105169 0.0059585266478478435 -0.0024704240861522478 -0.007994124954778024 0.0076303345675114544 -0.00066143154607974553 -0.007096729403430666 -0.00060396322915039495
leaf_weight=21 37 174 151 61 33 32 67 27 27
leaf_count=21 37 174 151 61 33 32 67 27 27
internal_value=0 0.000567257 0.00241497 0.00353322 -0.000839664 0.00024847 -0.00308122 -0.00335991 -0.00178344
internal_weight=0 539 233 212 306 206 100 91 64
internal_count=630 539 233 212 306 206 100 91 64
is_linear=0
shrinkage=0.1


Tree=32
num_leaves=10
num_cat=0
split_feature=10 29 19 19 27 19 15 17 12
split_gain=0.0988271 0.141565 0.245164 0.39582 0.0919008 0.0898789 0.0593547 0.0474776 0.0102814
threshold=0.75454056670263958 0.57848936029849052 0.99999851718600341 0.4345106617800491 0.51868286728858959 -4.4320946851419523 0.29290423688500494 -1.051192785552834 0.82352941161332194
decision_type=2 2 2 2 2 2 2 2 2
left_child=1 5 3 -3 6 -1 -2 -7 -8
right_child=4 2 -4 -5 -6 7 8 -9 -10
leaf_value=0.0050009727594442673 -0.006261597811826506 0.0016246435926794739 -0.0050600823944250807 0.013554413027658658 -0.0086547324401180965 0.0026270663444302048 -0.0022206858579357641 -0.0015760367757145788 0.00028635782262033507
leaf_weight=26 20 112 32 37 20 30 21 258 74
leaf_count=26 20 112 32 37 20 30 21 258 74
internal_value=0 0.000654082 0.0028815 0.00458707 -0.0023983 -0.000629873 -0.00131023 -0.00113821 -0.000267831
internal_weight=0 495 181 149 135 314 115 288 95
internal_count=630 495 181 149 135 314 115 288 95
is_linear=0
shrinkage=0.1


Tree=33
num_leaves=11
num_cat=0
split_feature=2 23 17 27 27 21 29 19 29 25
split_gain=0.103706 0.112504 0.462778 0.544422 0.268642 0.15832 0.165362 0.128588 0.0507741 0.00696979
threshold=1.0000000180025095e-35 0.61139188072377071 4.0381602026910424e-20 0.28551238775253301 0.52033457159996044 0.38059076988924984 0.70768929259919189 0.99999851718600341 0.57333099695823131 7.5000000000000009
decision_type=2 2 2 2 2 2 2 2 2 2
left_child=1 2 4 -4 -1 7 -7 -3 9 -2
right_child=8 5 3 -5 -6 6 -8 -9 -10 -11
leaf_value=-0.0016142768831185266 -0.00057682935677638107 0.0077332261406506111 0.019651803089904468 0.001650113870883139 0.0065196030779755961 -0.0019386983467484242 -0.011735065033038457 -0.0012443378311358035 -0.0067592206264466608 -0.0026649803666758442
leaf_weight=237 33 27 28 42 49 96 21 39 27 31
leaf_count=237 33 27 28 42 49 96 21 39 27 31
internal_value=0 0.000527178 0.00156301 0.00885079 -0.00022071 -0.00148789 -0.00369702 0.0024283 -0.00312251 -0.00158828
internal_weight=0 539 356 70 286 183 117 66 91 64
internal_count=630 539 356 70 286 183 117 66 91 64
is_linear=0
shrinkage=0.1


Tree=34
num_leaves=11
num_cat=0
split_feature=15 27 21 17 10 4 29 19 27 4
split_gain=0.0861102 0.229365 0.19015 0.464574 0.218421 0.0518105 0.0807748 0.0363176 0.0337506 0.010013
threshold=0.46400060413259731 0.15028663724660876 0.38059076988924984 4.0381602026910424e-20 0.3477887736639183 0.99671908536584441 0.9421712911292317 0.99999860448640432 0.15219949930906299 1.0000001630356032
decision_type=2 2 2 2 2 2 2 2 2 2
left_child=1 -1 3 -3 -4 6 7 -2 -7 -10
right_child=5 2 4 -5 -6 8 -8 -9 9 -11
leaf_value=-0.008207086736607987 -0.00073437219390188105 0.0018767438169316427 0.00231159795491424 0.016493458555953112 -0.0074356620091025546 0.0042446886212565002 -0.0080047236578095534 -0.0042879497916955087 -0.002197355764829332 0.0002626929635134263
leaf_weight=24 143 167 56 25 39 20 21 36 21 78
leaf_count=24 143 167 56 25 39 20 21 36 21 78
internal_value=0 0.00118406 0.00196938 0.00377996 -0.00168991 -0.00115436 -0.0021374 -0.00144906 0.00049781 -0.000259136
internal_weight=0 311 287 192 95 319 200 179 119 99
internal_count=630 311 287 192 95 319 200 179 119 99
is_linear=0
shrinkage=0.1


Tree=35
num_leaves=10
num_cat=0
split_feature=2 29 9 11 16 22 18 23 16
split_gain=0.0821511 0.109028 0.205195 0.127745 0.0870609 0.213324 0.0791341 0.0417248 0.00414228
threshold=1.0000000180025095e-35 0.89043071778507488 0.17381855659193154 0.15686274786605639 -1.1106919224252889 -1.0534963192085096 0.31696941866811712 1.0000000180025095e-35 0.83791275072259586
decision_type=2 2 2 2 2 2 2 2 2
left_child=1 4 3 -3 5 -1 -6 -2 -9
right_child=7 2 -4 -5 6 -7 -8 8 -10
leaf_value=-0.0011443225819675717 -0.0052516934739497423 0.011213632598131275 -0.0051778638642281296 0.0024325670161586561 -0.0021041309902111701 0.011229183268204164 0.00073765495607047574 -0.00021912229822191877 -0.0020536810562771283
leaf_weight=38 39 30 20 37 198 22 194 32 20
leaf_count=38 39 30 20 37 198 22 194 32 20
internal_value=0 0.000469205 0.003711 0.00636439 -0.000154768 0.00339263 -0.000697737 -0.00277914 -0.000924722
internal_weight=0 539 87 67 452 60 392 91 52
internal_count=630 539 87 67 452 60 392 91 52
is_linear=0
shrinkage=0.1


Tree=36
num_leaves=14
num_cat=0
split_feature=15 6 16 12 15 10 29 26 26 27 15 21 25
split_gain=0.0759444 0.111346 0.189989 0.252402 0.0933297 0.0756852 0.116147 0.0399593 0.0380186 0.0306624 0.028783 0.0083965 0.00321625
threshold=0.79527651177511449 0.99870316650938584 0.63097845537905439 0.6376262625240442 0.18548635401213712 0.35064782584324683 0.57333099695823131 0.75961538461538469 1.0000000180025095e-35 0.51868286728858959 0.28516127246081285 0.72477460727138998 6.5000000000000009
decision_type=2 2 2 2 2 2 2 2 2 2 2 2 2
left_child=1 2 3 -1 -4 6 12 10 -7 -10 -3 -9 -2
right_child=5 7 4 -5 -6 8 -8 11 9 -11 -12 -13 -14
leaf_value=0.0059377481025248337 -0.0024242227763170377 -0.0065356754782524978 -0.0065756600973795034 -0.0019641157287671315 0.00016620758476413111 0.0034705055041492662 -0.010860812270548196 -0.00095540472603585977 -0.00022778576750205468 -0.0046224792581051593 -0.0017389744159902029 0.0010681677585596154 -0.00063083223998546597
leaf_weight=139 20 22 28 57 77 22 20 70 77 20 29 29 20
leaf_count=139 20 22 28 57 77 22 20 70 77 20 29 29 20
internal_value=0 0.000691697 0.0018009 0.00363976 -0.00163162 -0.00174277 -0.00463862 -0.00153411 -0.000282672 -0.00113391 -0.00380814 -0.000362641 -0.00152753
internal_weight=0 451 301 196 105 179 60 150 119 97 51 99 40
internal_count=630 451 301 196 105 179 60 150 119 97 51 99 40
is_linear=0
shrinkage=0.1


Tree=37
num_leaves=10
num_cat=0
split_feature=15 27 10 13 12 29 29 29 21
split_gain=0.0642984 0.172552 0.154169 0.216508 0.0438518 0.181298 0.133968 0.0510806 0.0392682
threshold=0.46400060413259731 0.13608839362859729 0.77828614337234525 0.85924730077570899 0.46282476500760877 0.91861007588694932 0.81735605509147347 0.57333099695823131 0.25296938127860036
decision_type=2 2 2 2 2 2 2 2 2
left_child=1 -1 3 -3 5 8 7 -6 -2
right_child=4 2 -4 -5 6 -7 -8 -9 -10
leaf_value=-0.0079616944555891671 -0.002229497162713387 0.00020600255735278152 -0.0051484223012812436 0.0061660408204392602 -0.00030196593823833009 -0.011193044930696488 0.0072800309550736788 -0.0051843451820313934 0.0018762982334010305
leaf_weight=20 66 164 30 97 150 20 22 25 36
leaf_count=20 66 164 30 97 150 20 22 25 36
internal_value=0 0.00102316 0.00164068 0.00242104 -0.000997504 -0.00248739 -7.48367e-05 -0.000999449 -0.000780393
internal_weight=0 311 291 261 319 122 197 175 102
internal_count=630 311 291 261 319 122 197 175 102
is_linear=0
shrinkage=0.1


Tree=38
num_leaves=9
num_cat=0
split_feature=2 29 9 10 19 20 29 23
split_gain=0.0638462 0.0875344 0.154664 0.118586 0.0777208 0.0503942 0.0356268 0.00471117
threshold=1.0000000180025095e-35 0.89043071778507488 0.17381855659193154 0.07997404202607715 -4.4320946851419523 0.30214767715583873 0.57333099695823131 0.92010995098371995
decision_type=2 2 2 2 2 2 2 2
left_child=1 4 3 -3 -1 -6 7 -2
right_child=6 2 -4 -5 5 -7 -8 -9
leaf_value=0.0055177748689185027 -0.0018977780522766046 0.011848569238957551 -0.0043987930007278924 0.0027794234398954912 0.00049466356371131494 -0.0016937933900712902 -0.005496350923311656 -0.00016049147514557397
leaf_weight=23 37 21 20 46 244 185 27 27
leaf_count=23 37 21 20 46 244 185 27 27
internal_value=0 0.000413641 0.00331836 0.00562199 -0.000145454 -0.000449077 -0.00245003 -0.00116486
internal_weight=0 539 87 67 452 429 91 64
internal_count=630 539 87 67 452 429 91 64
is_linear=0
shrinkage=0.1


Tree=39
num_leaves=12
num_cat=0
split_feature=15 29 14 16 24 23 11 10 23 26 27
split_gain=0.0551963 0.0874314 0.151294 0.0894993 0.132148 0.127177 0.0883192 0.0561563 0.0982243 0.0288784 0.0237425
threshold=0.79527651177511449 0.89043071778507488 0.29908357868137853 -1.1106919224252889 0.016471175696529023 0.18134424649857195 0.33333333250000002 0.35064782584324683 0.014086705532910299 1.0000000180025095e-35 0.51868286728858959
decision_type=2 2 2 2 2 2 2 2 2 2 2
left_child=1 3 -3 4 -1 -5 -4 8 -2 -9 -11
right_child=7 2 6 5 -6 -7 -8 9 -10 10 -12
leaf_value=-0.00089103833407811492 -0.0086070400779135522 -0.0017977204655521906 0.011976520480080084 -0.0029261990969269604 0.010223344857804477 0.0010374012599495472 0.002909995914836015 0.0030429923073494471 -0.00044198965188115837 -0.00017259951397230813 -0.0040397315763402736
leaf_weight=23 26 29 22 136 20 200 21 22 34 77 20
leaf_count=23 26 29 22 136 20 200 21 22 34 77 20
internal_value=0 0.000589689 0.00378416 -1.71763e-05 0.00427844 -0.000566913 0.00754868 -0.00148575 -0.00398018 -0.000228059 -0.000969946
internal_weight=0 451 72 379 43 336 43 179 60 119 97
internal_count=630 451 72 379 43 336 43 179 60 119 97
is_linear=0
shrinkage=0.1


Tree=40
num_leaves=8
num_cat=0
split_feature=22 27 9 10 26 4 23
split_gain=0.0552637 0.0833712 0.105819 0.107482 0.0993074 0.0644602 0.0570371
threshold=0.99999987331014928 0.76841348409652721 0.086854209719121195 0.039279861161828918 0.3205128205128206 0.99987037060260631 0.98002335417712139
decision_type=2 2 2 2 2 2 2
left_child=1 2 3 -1 -3 -4 -2
right_child=6 4 5 -5 -6 -7 -8
leaf_value=0.0072384467327289972 -0.0071882119072272741 9.8512732777102257e-05 -0.0078449591621756552 7.7717998815100765e-05 0.0087946026120334867 -0.0014594399280911097 9.7836247666484939e-05
leaf_weight=22 21 29 25 444 24 43 22
leaf_count=22 21 29 25 444 24 43 22
internal_value=0 0.000253492 -0.000121961 0.000415778 0.00403636 -0.00380706 -0.00346047
internal_weight=0 587 534 466 53 68 43
internal_count=630 587 534 466 53 68 43
is_linear=0
shrinkage=0.1


Tree=41
num_leaves=11
num_cat=0
split_feature=10 16 8 15 27 18 11 14 15 12
split_gain=0.0534056 0.0784354 0.138592 0.177123 0.0642032 0.0623518 0.0628171 0.0319302 0.0295437 0.00859109
threshold=0.75454056670263958 0.9999985391837144 0.99984051740000013 0.51387824154759376 0.51868286728858959 0.19378084166244922 0.28571428556122452 0.51125479444703748 0.29290423688500494 0.82352941161332194
decision_type=2 2 2 2 2 2 2 2 2 2
left_child=1 2 3 -1 8 -3 -7 -4 -2 -10
right_child=4 5 7 -5 -6 6 -8 -9 9 -11
leaf_value=0.0046335020079296607 -0.0043468345724977557 -0.0060037912380519433 -0.0054322636841485899 -0.0004593241960279674 -0.0069923496211413295 0.0034037711096321539 -0.0023174670020110724 -0.0010620455052448073 -0.0019032814409608062 0.00038843258480483203
leaf_weight=152 20 27 21 124 20 28 61 82 21 74
leaf_count=152 20 27 21 124 20 28 61 82 21 74
internal_value=0 0.000480825 0.00117723 0.00234542 -0.00176303 -0.0017945 -0.000517527 -0.00195306 -0.000853579 -0.000118157
internal_weight=0 495 379 276 135 116 89 103 115 95
internal_count=630 495 379 276 135 116 89 103 115 95
is_linear=0
shrinkage=0.1


Tree=42
num_leaves=10
num_cat=0
split_feature=2 23 17 17 27 29 18 23 15
split_gain=0.0527337 0.0763166 0.308084 0.448314 0.181972 0.0951303 0.0586772 0.0385567 0.00296643
threshold=1.0000000180025095e-35 0.61139188072377071 4.0381602026910424e-20 0.29466001677673193 0.51868286728858959 0.69542327819750183 0.85020392553692103 1.0000000180025095e-35 0.57372632813015778
decision_type=2 2 2 2 2 2 2 2 2
left_child=1 2 4 -4 -1 6 -3 -2 -9
right_child=7 5 3 -5 -6 -7 -8 8 -10
leaf_value=-0.0013873665851090247 -0.0046034580490623526 0.0027138671585513903 0.019828857872635126 0.0021138942705001685 0.0052538043840322651 -0.0058909638526125092 -0.0015465808181438156 -0.0013993810978718104 0.00015310906546801563
leaf_weight=236 39 48 20 50 50 36 99 20 32
leaf_count=236 39 48 20 50 50 36 99 20 32
internal_value=0 0.000375924 0.00122905 0.00717531 -0.000226323 -0.00128372 -0.000155414 -0.00222663 -0.000444003
internal_weight=0 539 356 70 286 183 147 91 52
internal_count=630 539 356 70 286 183 147 91 52
is_linear=0
shrinkage=0.1


Tree=43
num_leaves=11
num_cat=0
split_feature=19 27 14 19 15 13 15 29 29 17
split_gain=0.0487512 0.0617614 0.061623 0.388701 0.189724 0.114811 0.132464 0.0787314 0.0200746 0.0055466
threshold=0.99999851718600341 0.63420209288597118 0.58433390814245445 0.52531930703860474 0.19004828375834518 0.85616308624355664 0.16244876294595048 0.59534627635635451 0.59911479069402673 0.16203318572172917
decision_type=2 2 2 2 2 2 2 2 2 2
left_child=2 8 3 4 -1 7 -7 -4 9 -2
right_child=1 -3 5 -5 -6 6 -8 -9 -10 -11
leaf_value=-0.0054282131849863937 -0.00073221095527546351 -0.0069897259713616227 -0.0017201664118329065 0.014068448871536099 0.002966561085324631 0.0058684847521362831 -0.00026894335666910631 -0.0094044723804108804 -0.0032105657606734898 0.0012409961965334203
leaf_weight=43 29 20 40 23 72 40 291 20 24 28
leaf_count=43 29 20 40 23 72 40 291 20 24 28
internal_value=0 -0.00201321 0.000384375 0.00220111 -0.000172355 -0.000256827 0.00047274 -0.0042816 -0.000784442 0.000237084
internal_weight=0 101 529 138 115 391 331 60 81 57
internal_count=630 101 529 138 115 391 331 60 81 57
is_linear=0
shrinkage=0.1


Tree=44
num_leaves=10
num_cat=0
split_feature=17 17 24 24 20 23 13 19 22
split_gain=0.044161 0.607623 0.141819 0.109303 0.129024 0.0990945 0.0983602 0.0361081 0.0162889
threshold=0.12204161797116445 4.0381602026910424e-20 0.20225324200102379 0.013285484996511587 0.70166965861075881 0.42232563744941959 0.4908828071272881 0.56795632413518615 0.99999968098609049
decision_type=2 2 2 2 2 2 2 2 2
left_child=1 2 6 5 -5 -2 -1 -7 -6
right_child=3 -3 -4 4 8 7 -8 -9 -10
leaf_value=-0.0040312100759731578 0.0072822434734553104 0.015403283685624887 0.0074119411662898274 -0.0089820921113113721 -8.6441607369730879e-05 -0.0041156952624164878 -1.0541389472501611e-05 0.00055587590348948608 -0.0035163383567123675
leaf_weight=77 20 26 22 31 45 21 290 78 20
leaf_count=77 20 26 22 31 45 21 290 78 20
internal_value=0 0.000602621 -0.000386626 -0.0011632 -0.00367356 0.000861963 -0.000854115 -0.000435063 -0.00114179
internal_weight=0 415 389 215 96 119 367 99 65
internal_count=630 415 389 215 96 119 367 99 65
is_linear=0
shrinkage=0.1


Tree=45
num_leaves=11
num_cat=0
split_feature=2 17 17 24 24 20 20 14 25 23
split_gain=0.0446245 0.0656473 0.592016 0.116713 0.0966907 0.111444 0.0965692 0.0307341 0.0148244 0.0124675
threshold=1.0000000180025095e-35 0.12204161797116445 4.0381602026910424e-20 0.20225324200102379 0.013285484996511587 0.55181885895232718 0.42315592419350884 0.65894379947708281 4.5000000000000009 1.7290571056252263e-24
decision_type=2 2 2 2 2 2 2 2 2 2
left_child=1 2 3 -1 5 -3 -6 -2 -9 -10
right_child=7 4 -4 -5 6 -7 -8 8 9 -11
leaf_value=-0.00037890946940231381 -0.0055108916771132504 0.0075803877366706733 0.017022705061191863 0.0074982573790475723 -0.0090658505951675284 -0.00078680797413630324 -0.0015422344770108871 0.0010835826013300737 -0.0038829927436295078 -0.00065970983954944783
leaf_weight=316 20 20 22 20 24 78 59 22 21 28
leaf_count=316 20 20 22 20 24 78 59 22 21 28
internal_value=0 0.000345814 0.00113053 8.99695e-05 -0.00120627 0.000920783 -0.00371774 -0.00204828 -0.0010729 -0.00204112
internal_weight=0 539 358 336 181 98 83 91 71 49
internal_count=630 539 358 336 181 98 83 91 71 49
is_linear=0
shrinkage=0.1


Tree=46
num_leaves=8
num_cat=0
split_feature=22 23 10 11 29 26 11
split_gain=0.0398778 0.0508075 0.0444305 0.100189 0.0742858 0.0685343 0.00598874
threshold=0.99999987331014928 0.98002335417712139 0.77828614337234525 0.89736842080408596 0.63312125075192838 0.80000000596046461 0.79999999953333345
decision_type=2 2 2 2 2 2 2
left_child=2 -2 3 5 6 -1 -4
right_child=1 -3 4 -5 -6 -7 -8
leaf_value=0.0015554391697535637 -0.006457832691791867 0.00041882050197521251 0.0006819035354241425 0.0074005229298823652 -0.0058193935314193373 -0.00091564666101869485 -0.00099087186866343387
leaf_weight=227 21 22 49 21 30 222 38
leaf_count=227 21 22 49 21 30 222 38
internal_value=0 -0.00293955 0.000215333 0.000649409 -0.00152839 0.000333655 -4.8734e-05
internal_weight=0 43 587 470 117 449 87
internal_count=630 43 587 470 117 449 87
is_linear=0
shrinkage=0.1


Tree=47
num_leaves=10
num_cat=0
split_feature=19 8 7 27 27 15 4 13 23
split_gain=0.0372987 0.0530351 0.165971 0.108536 0.0483856 0.0355528 0.0262328 0.0163169 0.00419525
threshold=0.99999851718600341 0.99984051740000013 0.99783802249968834 0.13608839362859729 0.63420209288597118 0.2619019715038125 1.0000000958723663 0.80472745765948439 0.99999987843416804
decision_type=2 2 2 2 2 2 2 2 2
left_child=1 2 3 -1 7 -3 -7 -2 -9
right_child=4 5 -4 -5 -6 6 -8 8 -10
leaf_value=-0.0064969496599154635 -0.0027376244103204678 -0.0038396606262092697 0.0098389650049102786 0.0009141114973936599 -0.0061657240660861132 -0.0035341204631896246 0.00037900294755868394 0.00096271486171255161 -0.00085284868953749537
leaf_weight=21 26 39 20 335 20 21 93 35 20
leaf_count=21 26 39 20 335 20 21 93 35 20
internal_value=0 0.000336209 0.000974922 0.000476942 -0.00176094 -0.00123344 -0.000341836 -0.000673336 0.00030251
internal_weight=0 529 376 356 101 153 114 81 55
internal_count=630 529 376 356 101 153 114 81 55
is_linear=0
shrinkage=0.1


Tree=48
num_leaves=8
num_cat=0
split_feature=15 23 23 27 15 29 29
split_gain=0.0385135 0.0417658 0.239238 0.363892 0.142636 0.0893793 0.0615079
threshold=0.98555905529220722 0.61139188072377071 0.18134424649857195 0.28551238775253301 0.068800476755502438 0.69542327819750183 0.62045477851372033
decision_type=2 2 2 2 2 2 2
left_child=1 2 4 -4 -1 6 -3
right_child=-2 5 3 -5 -6 -7 -8
leaf_value=-0.0063992756390661909 -0.0040166738443076612 -0.00064895109420724437 0.017695407569408416 3.4510202905429261e-05 0.00052960766372919376 -0.0053445417052563771 0.0052138164301868536
leaf_weight=33 23 170 20 28 298 38 20
leaf_count=33 23 170 20 28 298 38 20
internal_value=0 0.000152197 0.000795571 0.00739322 -0.000161187 -0.000917272 -3.18177e-05
internal_weight=0 607 379 48 331 228 190
internal_count=630 607 379 48 331 228 190
is_linear=0
shrinkage=0.1


Tree=49
num_leaves=13
num_cat=0
split_feature=15 13 13 10 18 29 22 12 12 27 29 13
split_gain=0.0357138 0.0637709 0.1769 0.155876 0.13821 0.119539 0.0781087 0.0482288 0.107985 0.0223813 0.0209753 0.00816137
threshold=0.79527651177511449 0.85924730077570899 0.908732921136164 0.28917131544974739 0.16588896667612252 0.75503614331334101 7.7037197775104267e-25 0.46282476500760877 0.28008891708066963 0.55129948258399974 0.49148079659108901 0.99999975933545171
decision_type=2 2 2 2 2 2 2 2 2 2 2 2
left_child=1 3 -3 4 -1 -4 -5 8 11 10 -9 -2
right_child=7 2 5 6 -6 -7 -8 9 -10 -11 -12 -13
leaf_value=-0.0010577052074950189 -0.002157319995458238 0.0097340880335347428 -0.00038523528387003603 -0.0012800479906883728 0.0057332038093591111 0.0058586409296588725 -0.007573364293018945 -8.5934426627047933e-05 -0.0094828111014794575 -0.0029933213209733366 0.0035640169685211736 0.00055288858851417898
leaf_weight=86 20 24 179 41 46 37 38 74 20 20 20 25
leaf_count=86 20 24 179 41 46 37 38 74 20 20 20 25
internal_value=0 0.000474336 0.00158929 -0.000793863 0.00130882 0.000684318 -0.00430721 -0.00119512 -0.00336893 4.434e-05 0.000690651 -0.000651649
internal_weight=0 451 240 211 132 216 79 179 65 114 94 45
internal_count=630 451 240 211 132 216 79 179 65 114 94 45
is_linear=0
shrinkage=0.1


Tree=50
num_leaves=10
num_cat=0
split_feature=12 27 4 15 25 10 29 26 17
split_gain=0.0341867 0.0493389 0.0952258 0.0782061 0.14462 0.108238 0.0463782 0.00725121 0.00291756
threshold=0.86164848914523628 0.15858601033687594 0.96546117320222213 0.62981734978531756 3.5000000000000004 0.35383855850377605 0.64485796894572245 0.79285714285714304 -1.0029321410327312
decision_type=2 2 2 2 2 2 2 2 2
left_child=1 2 -1 4 -3 -5 7 -2 -9
right_child=6 3 -4 5 -6 -7 -8 8 -10
leaf_value=-0.0077639871482027781 -0.0014736221186265339 -0.0013667379908058918 0.0012145648503469096 -0.0039193299074152801 0.003086592240044463 0.0014531447525757055 -0.0051121652409035177 -0.00046428491997565813 0.001120471444580919
leaf_weight=21 36 112 27 75 209 75 28 21 26
leaf_count=21 36 112 27 75 209 75 28 21 26
internal_value=0 0.000340672 -0.00271355 0.00065193 0.00153278 -0.00123309 -0.00159287 -0.00040564 0.000412389
internal_weight=0 519 48 471 321 150 111 83 47
internal_count=630 519 48 471 321 150 111 83 47
is_linear=0
shrinkage=0.1


Tree=51
num_leaves=9
num_cat=0
split_feature=14 15 14 23 6 13 13 29
split_gain=0.0335638 0.176863 0.159884 0.0867247 0.074125 0.0715177 0.144046 0.0638498
threshold=0.29908357868137853 0.11111110123456885 0.4499159336900182 0.29610993024499749 1.0000000180025095e-35 0.85616308624355664 0.908732921136164 0.64485796894572245
decision_type=2 2 2 2 2 2 2 2
left_child=1 -1 -2 4 -3 7 -7 -4
right_child=2 3 5 -5 -6 6 -8 -9
leaf_value=-0.01007963421754539 0.0072688532046853542 0.006443949257610021 -0.00092261898333056112 -0.004581398197809573 -0.0015882509667426348 0.0074248067546640031 -1.6302734190580365e-05 -0.0062887166634512451
leaf_weight=20 31 27 85 22 20 28 367 30
leaf_count=20 31 27 85 22 20 28 367 30
internal_value=0 -0.00179957 0.000296048 0.000600447 0.00302599 -0.000127789 0.000511168 -0.00232247
internal_weight=0 89 541 69 47 510 395 115
internal_count=630 89 541 69 47 510 395 115
is_linear=0
shrinkage=0.1


Tree=52
num_leaves=11
num_cat=0
split_feature=18 15 15 14 12 14 29 23 12 16
split_gain=0.0315888 0.10931 0.0516781 0.166991 0.244647 0.14643 0.145006 0.121233 0.0558694 0.00389157
threshold=-1.0625431134295644 0.33967727810592657 0.19004828375834518 0.36617827474005277 0.26315789465027706 0.39299012259108773 0.57333099695823131 4.234711417107449e-24 0.49999999947916668 -1.0000102438208307
decision_type=2 2 2 2 2 2 2 2 2 2
left_child=1 -1 5 4 -4 7 -7 -2 -5 -3
right_child=2 9 3 8 -6 6 -8 -9 -10 -11
leaf_value=0.0080481565141651262 -0.012544571459293366 -0.0011055824117433717 0.012715101985260845 -0.0019248601157807806 -0.00089491427809532207 -0.0034392810469417246 0.0046205203288814008 -0.0015340071730315687 0.00056092023413868686 0.00065236049791565168
leaf_weight=21 20 34 25 155 28 49 41 20 217 20
leaf_count=21 20 34 25 155 28 49 41 20 217 20
internal_value=0 0.00192625 -0.000260304 0.00027338 0.0055249 -0.00200504 0.000232406 -0.00703929 -0.000474822 -0.000454492
internal_weight=0 75 555 425 53 130 90 40 372 54
internal_count=630 75 555 425 53 130 90 40 372 54
is_linear=0
shrinkage=0.1


Tree=53
num_leaves=10
num_cat=0
split_feature=14 15 16 14 27 11 13 29 15
split_gain=0.0314631 0.122067 0.0942959 0.093801 0.135449 0.126793 0.0542014 0.103267 0.0738918
threshold=0.23770921288535835 0.19004828375834518 1.0000000180025095e-35 0.58433390814245445 0.58425766229629528 0.1010101009070503 0.85616308624355664 0.64485796894572245 0.16244876294595048
decision_type=2 2 2 2 2 2 2 2 2
left_child=1 -1 -3 4 5 -2 7 -5 -8
right_child=3 2 -4 6 -6 -7 8 -9 -10
leaf_value=-0.0068557931420703726 -0.0057623549158734022 -0.0028094467003635755 0.0064877523283939816 -0.00059171912518835045 0.0096532379626296464 0.0038070225828657081 0.0040858391315004858 -0.0089065612154081465 -0.00031028861563359188
leaf_weight=30 20 24 20 59 24 45 43 20 345
leaf_count=30 20 24 20 59 24 45 43 20 345
internal_value=0 -0.0019371 0.00141655 0.000257816 0.00323311 0.000862599 -0.00030921 -0.00269674 0.000176911
internal_weight=0 74 44 556 89 65 467 79 388
internal_count=630 74 44 556 89 65 467 79 388
is_linear=0
shrinkage=0.1


Tree=54
num_leaves=9
num_cat=0
split_feature=16 16 24 19 15 23 29 29
split_gain=0.0305993 0.0772862 0.0484506 0.0625226 0.0425735 0.0577334 0.0708397 0.0501942
threshold=0.63097845537905439 0.38551588170725842 0.22138859097060445 0.52531930703860474 0.19004828375834518 0.26230773490936782 0.64485796894572245 0.57333099695823131
decision_type=2 2 2 2 2 2 2 2
left_child=1 2 3 -1 7 -6 -7 -2
right_child=4 -3 -4 -5 5 6 -8 -9
leaf_value=-0.00067505251011425573 -0.00074069371446967131 0.0062501292241821911 0.0045235739603716263 0.0027714031947580803 0.003706033436659103 3.3833655877970159e-05 -0.0058253457339910364 -0.0074619129672646532
leaf_weight=320 25 22 24 63 30 100 26 20
leaf_count=320 25 22 24 63 30 100 26 20
internal_value=0 0.00047704 0.000164981 -0.000108142 -0.00101816 -0.000236504 -0.0011752 -0.0037279
internal_weight=0 429 407 383 201 156 126 45
internal_count=630 429 407 383 201 156 126 45
is_linear=0
shrinkage=0.1


Tree=55
num_leaves=10
num_cat=0
split_feature=14 14 23 15 23 6 29 15 15
split_gain=0.0303463 0.115196 0.103485 0.0963305 0.0678435 0.0520217 0.0437399 0.0986484 0.0710263
threshold=0.29908357868137853 0.50211958871786344 0.088664091682298052 0.11111110123456885 0.29610993024499749 1.0000000180025095e-35 0.8587338160007133 0.082591504133296037 0.55406526730556516
decision_type=2 2 2 2 2 2 2 2 2
left_child=3 2 -2 -1 5 -5 7 -3 -8
right_child=1 6 -4 4 -6 -7 8 -9 -10
leaf_value=-0.0078219191497191781 0.00072119100997224453 -0.0055862209347209762 0.010243407286526193 0.005068780485264681 -0.0045230851945895914 -0.0016601241135504098 0.0056468860065985111 -5.313703218481293e-05 -0.0016874676266604143
leaf_weight=20 25 35 21 27 22 20 31 406 23
leaf_count=20 25 35 21 27 22 20 31 406 23
internal_value=0 0.0002815 0.00506829 -0.00171114 6.00973e-05 0.00220542 -0.000163333 -0.000492271 0.00252299
internal_weight=0 541 46 89 69 47 495 441 54
internal_count=630 541 46 89 69 47 495 441 54
is_linear=0
shrinkage=0.1


Tree=56
num_leaves=11
num_cat=0
split_feature=16 15 15 19 14 14 12 10 11 26
split_gain=0.0285964 0.126706 0.0445891 0.121887 0.130146 0.10212 0.177091 0.0961283 0.0511088 0.002911
threshold=-1.1106919224252889 0.3629023932816931 0.19004828375834518 0.31571547875589251 0.82889778409659687 0.36617827474005277 0.26315789465027706 0.26613206169085929 0.45804195784989493 0.80000000596046461
decision_type=2 2 2 2 2 2 2 2 2 2
left_child=1 -1 3 4 -2 6 -4 -5 -7 -3
right_child=2 9 5 7 -6 8 -8 -9 -10 -11
leaf_value=0.0084297915876266512 -0.0077268673286604835 -0.0012804921570050559 0.010266380766720082 0.0047126343538467265 0.0014533056168938461 -0.0015941301749553532 -0.0010093502250189583 -0.0033591432836838071 0.00077153213853345631 0.00018503695685902368
leaf_weight=21 47 33 26 36 23 175 30 25 191 23
leaf_count=21 47 33 26 36 23 175 30 25 191 23
internal_value=0 0.00180552 -0.000251402 -0.00186306 -0.00471052 0.000248899 0.00422581 0.00140453 -0.000359591 -0.000678578
internal_weight=0 77 553 131 70 422 56 61 366 56
internal_count=630 77 553 131 70 422 56 61 366 56
is_linear=0
shrinkage=0.1


Tree=57
num_leaves=8
num_cat=0
split_feature=2 19 29 10 29 23 15
split_gain=0.0290737 0.0524447 0.0391472 0.114722 0.0533734 0.0273248 0.00376653
threshold=1.0000000180025095e-35 -4.4320946851419523 0.89043071778507488 0.50581048744022061 0.78130601078615203 1.0000000180025095e-35 0.57372632813015778
decision_type=2 2 2 2 2 2 2
left_child=1 -1 4 -4 -3 -2 -7
right_child=5 2 3 -5 -6 6 -8
leaf_value=0.0049512842500521598 -0.0036542175436923758 -2.6628358062865338e-05 -4.3289704163643449e-05 0.0084426694738102114 -0.0045424817645523165 -0.0012291633244603873 0.00052021023857378172
leaf_weight=23 39 401 66 21 28 20 32
leaf_count=23 39 401 66 21 28 20 32
internal_value=0 0.00027913 7.0875e-05 0.00200505 -0.000321369 -0.00165331 -0.000152626
internal_weight=0 539 516 87 429 91 52
internal_count=630 539 516 87 429 91 52
is_linear=0
shrinkage=0.1


Tree=58
num_leaves=10
num_cat=0
split_feature=12 29 14 14 15 16 13 26 17
split_gain=0.0264186 0.0495027 0.0443564 0.10436 0.0709849 0.0695365 0.0633475 0.00616202 0.00312823
threshold=0.86164848914523628 0.64485796894572245 0.29908357868137853 0.4499159336900182 0.11712920160630363 4.0381602026910424e-20 0.85924730077570899 0.79285714285714304 -1.0029321410327312
decision_type=2 2 2 2 2 2 2 2 2
left_child=2 7 4 -4 -1 -6 -5 -2 -9
right_child=1 -3 3 6 5 -7 -8 8 -10
leaf_value=-0.0069939503259956841 -0.0011581913153754107 -0.0050361620395311286 0.00640151792516311 -0.0016961795476811898 -0.0030670227533256687 0.0034729902118701365 0.0010801573262395122 -0.00032736168026791088 0.001313613335458705
leaf_weight=20 36 28 30 115 37 29 288 21 26
leaf_count=20 36 28 30 115 37 29 288 21 26
internal_value=0 -0.00140025 0.000299476 0.000711479 -0.00177491 -0.000193381 0.000287902 -0.000173681 0.000580412
internal_weight=0 111 519 433 86 66 403 83 47
internal_count=630 111 519 433 86 66 403 83 47
is_linear=0
shrinkage=0.1


Tree=59
num_leaves=9
num_cat=0
split_feature=15 16 8 17 17 29 23 15
split_gain=0.0278084 0.0344278 0.0713818 0.091402 0.0395978 0.0620449 0.0578435 0.0258751
threshold=0.98555905529220722 0.63097845537905439 0.99984051740000013 0.29466001677673193 0.96772581395417545 0.72786447472591609 0.58947892956057713 0.2438756091435931
decision_type=2 2 2 2 2 2 2 2
left_child=1 2 3 -1 5 -3 -6 -4
right_child=-2 4 7 -5 6 -7 -8 -9
leaf_value=0.0023556609814949434 -0.0034130929361866867 -0.0011066294408489117 -0.0039317010701536972 -0.0022416329224932202 0.0050957963003643927 -0.0073665240732952962 -0.00079366218354006844 -0.00054519096150185793
leaf_weight=235 23 76 30 53 21 20 81 91
leaf_count=235 23 76 30 53 21 20 81 91
internal_value=0 0.000129326 0.000653326 0.00150963 -0.000953077 -0.00241077 0.000418873 -0.00138482
internal_weight=0 607 409 288 198 96 102 121
internal_count=630 607 409 288 198 96 102 121
is_linear=0
shrinkage=0.1


Tree=60
num_leaves=7
num_cat=0
split_feature=29 15 27 21 27 14
split_gain=0.0260059 0.0380832 0.095921 0.133003 0.0396881 0.0418401
threshold=-0.054187663170007401 0.46170730153509593 0.15028663724660876 0.38059076988924984 0.72403451800346386 0.54588938579002622
decision_type=2 2 2 2 2 2
left_child=-1 2 -2 -4 5 -3
right_child=1 4 3 -5 -6 -7
leaf_value=-0.0033006248166202569 -0.0051124572792711357 -0.0041362371978511175 0.0031018590012453474 -0.0015734414061185935 -0.0044625469148159031 6.890515482701413e-05
leaf_weight=23 24 26 176 93 25 263
leaf_count=23 24 26 176 93 25 263
internal_value=0 0.000125065 0.000945045 0.00148549 -0.000640076 -0.000309412
internal_weight=0 607 293 269 314 289
internal_count=630 607 293 269 314 289
is_linear=0
shrinkage=0.1


Tree=61
num_leaves=9
num_cat=0
split_feature=10 10 15 15 27 13 13 27
split_gain=0.0251451 0.0845006 0.125742 0.105187 0.0721854 0.0611359 0.100361 0.0615855
threshold=0.28729899974517914 0.25753660628118608 0.050505049216632826 0.11111110493827196 0.72403451800346386 0.97159461032468164 0.98781779713331008 0.51514482498168956
decision_type=2 2 2 2 2 2 2 2
left_child=1 2 -1 -4 5 7 -7 -2
right_child=4 -3 3 -5 -6 6 -8 -9
leaf_value=0.0069668461568653589 -0.0032471063917010943 0.0058416872879426028 -0.0075724369194358591 5.7673251125924195e-05 -0.0055079831983204245 0.007060117383851954 9.8790168399231213e-05 0.0025577203115023186
leaf_weight=24 89 29 20 187 27 23 208 23
leaf_count=24 89 29 20 187 27 23 208 23
internal_value=0 0.000753652 0.000114894 -0.000679535 -0.000529593 -0.000137708 0.000791909 -0.00205504
internal_weight=0 260 231 207 370 343 231 112
internal_count=630 260 231 207 370 343 231 112
is_linear=0
shrinkage=0.1


Tree=62
num_leaves=7
num_cat=0
split_feature=9 9 15 22 26 14
split_gain=0.0256899 0.064656 0.157648 0.055955 0.0391397 0.0332468
threshold=0.80548545226898016 1.0000000180025095e-35 0.46400060413259731 0.99999991254118459 0.75961538461538469 0.58433390814245445
decision_type=2 2 2 2 2 2
left_child=1 3 -3 5 -2 -1
right_child=4 2 -4 -5 -6 -7
leaf_value=0.001547274661533273 -0.0055936894402839245 0.0098430883224037563 -0.0022700824841151534 -0.0052929751912597564 -4.818588229162353e-05 -0.00034955664888023437
leaf_weight=121 20 22 21 20 35 391
leaf_count=121 20 22 21 20 35 391
internal_value=0 0.000197496 0.00392735 -0.000103977 -0.00206473 9.87179e-05
internal_weight=0 575 43 532 55 512
internal_count=630 575 43 532 55 512
is_linear=0
shrinkage=0.1


Tree=63
num_leaves=9
num_cat=0
split_feature=14 14 23 27 10 19 19 29
split_gain=0.0260403 0.0771366 0.0798996 0.0617179 0.0773873 0.0411832 0.0313542 0.0350556
threshold=0.29908357868137853 0.50211958871786344 0.088664091682298052 0.69103032350540172 0.21773296952270907 0.024489795744835462 -3.5413538093636721 0.8587338160007133
decision_type=2 2 2 2 2 2 2 2
left_child=3 2 -2 4 -1 -6 -3 -8
right_child=1 6 -4 -5 5 -7 7 -9
leaf_value=0.0037658124353238866 0.00035804881778312846 0.0028273557534489288 0.0087250826946858855 -0.0064763532221149946 -0.0062275914661586293 0.0001898216467816383 -0.00063701459924363885 0.0020746442437585859
leaf_weight=29 25 34 21 20 20 20 407 54
leaf_count=29 25 34 21 20 20 20 407 54
internal_value=0 0.000260765 0.00417778 -0.0015851 -0.000167345 -0.00301888 -0.000103241 -0.00031938
internal_weight=0 541 46 89 69 40 495 461
internal_count=630 541 46 89 69 40 495 461
is_linear=0
shrinkage=0.1


Tree=64
num_leaves=8
num_cat=0
split_feature=2 19 21 15 17 23 20
split_gain=0.0229316 0.0358433 0.0370666 0.0549838 0.0476108 0.0232589 0.0036846
threshold=1.0000000180025095e-35 -4.4320946851419523 -1.0486228130482094 0.5706384971032491 0.12204161797116445 1.0000000180025095e-35 0.99999569259006293
decision_type=2 2 2 2 2 2 2
left_child=1 -1 3 -3 -4 -2 -7
right_child=5 2 4 -5 -6 6 -8
leaf_value=0.0041104186138988521 -0.0033143683856066601 -0.006358184686507143 0.0012493883699355491 -0.00018277075924624629 -0.00084988587511476981 -0.0008046305761672557 0.00089919311735271062
leaf_weight=23 39 21 268 46 181 30 22
leaf_count=23 39 21 268 46 181 30 22
internal_value=0 0.000247898 7.57314e-05 -0.00211835 0.000403133 -0.00146832 -8.37821e-05
internal_weight=0 539 516 67 449 91 52
internal_count=630 539 516 67 449 91 52
is_linear=0
shrinkage=0.1


Tree=65
num_leaves=11
num_cat=0
split_feature=16 15 27 6 29 4 27 20 15 12
split_gain=0.0237684 0.115777 0.0379555 0.0918995 0.0680799 0.131341 0.0607847 0.0595565 0.0446289 0.00286096
threshold=-1.1106919224252889 0.3629023932816931 0.43321222066879278 1.0000000180025095e-35 0.57848936029849052 0.16072462744353466 0.63420209288597118 0.42315592419350884 0.19004828375834518 0.60749299708507809
decision_type=2 2 2 2 2 2 2 2 2 2
left_child=1 -1 4 7 8 -6 -5 -4 -2 -3
right_child=2 9 3 6 5 -7 -8 -9 -10 -11
leaf_value=0.007978190840887172 -0.0033162227127096679 -0.0016874370467849075 -0.0049188093438099784 -0.00077940528203422827 0.0047714138671847801 -0.0026318100354235088 0.0060535798638897097 -0.00078318334805468719 0.00010501254184040734 -0.0001957293142267089
leaf_weight=21 47 20 65 30 76 35 23 75 202 36
leaf_count=21 47 20 65 30 76 35 23 75 202 36
internal_value=0 0.00164607 -0.000229199 -0.00136068 0.0003774 0.00243706 0.00218585 -0.0027033 -0.000540763 -0.000728482
internal_weight=0 77 553 193 360 111 53 140 249 56
internal_count=630 77 553 193 360 111 53 140 249 56
is_linear=0
shrinkage=0.1


Tree=66
num_leaves=10
num_cat=0
split_feature=2 23 16 15 13 29 26 10 11
split_gain=0.0212964 0.0330811 0.131621 0.0547992 0.0433305 0.0244803 0.0088732 0.00289941 0.00242428
threshold=1.0000000180025095e-35 -1.0411961433950043 -1.013798327476126 0.33967727810592657 0.99885341793534665 0.57333099695823131 0.73863636363636376 0.28379581793991798 0.59999999970000006
decision_type=2 2 2 2 2 2 2 2 2
left_child=1 3 -3 -1 -4 6 -2 -5 -8
right_child=5 2 4 7 -6 -7 8 -9 -10
leaf_value=-0.0056312329641988743 -0.0019217726101329472 0.008365208377307724 0.00088004371641623325 -0.0011753059473614321 -0.0014476142013022169 -0.0039402016917140124 0.0013201665287488141 0.00014079208800727171 -0.00021819471204209898
leaf_weight=23 23 21 293 22 110 27 20 70 21
leaf_count=23 23 21 293 22 110 27 20 70 21
internal_value=0 0.000238896 0.000646898 -0.00126539 0.000244703 -0.001415 -0.00034968 -0.000173927 0.000532225
internal_weight=0 539 424 115 403 91 64 92 41
internal_count=630 539 424 115 403 91 64 92 41
is_linear=0
shrinkage=0.1


Tree=67
num_leaves=9
num_cat=0
split_feature=15 12 10 11 3 12 12 12
split_gain=0.0210382 0.0292779 0.0820669 0.134373 0.110957 0.0753383 0.185621 0.0355993
threshold=0.98555905529220722 0.24656502913984854 0.21773296952270907 0.1010101009070503 1.0000000180025095e-35 0.39004996898463767 0.33333333319444447 0.42857142831632655
decision_type=2 2 2 2 2 2 2 2
left_child=1 2 3 -1 -4 6 -3 -7
right_child=-2 5 4 -5 -6 7 -8 -9
leaf_value=-0.0035678506901942542 -0.0029686843723301659 0.00020640136528949163 -0.0094468177326590477 0.0038089562899930856 -0.00050566532378849979 -0.0040499946028417491 0.0098601475956716714 0.00010494525850156753
leaf_weight=43 23 69 23 58 35 22 28 329
leaf_count=43 23 69 23 58 35 22 28 329
internal_value=0 0.000112487 -0.00105329 0.000668335 -0.00405129 0.000526234 0.00299305 -0.000155478
internal_weight=0 607 159 101 58 448 97 351
internal_count=630 607 159 101 58 448 97 351
is_linear=0
shrinkage=0.1


Tree=68
num_leaves=10
num_cat=0
split_feature=19 19 20 19 18 14 17 29 20
split_gain=0.0202531 0.0468977 0.219141 0.0687064 0.0711705 0.0302975 0.0204724 0.0104885 0.00461937
threshold=0.99999851718600341 0.40380558876971046 0.71690279011073244 0.19152077754309579 0.2499925188252686 0.53156344455335436 0.29466001677673193 0.55512403614044226 0.99999688459172409
decision_type=2 2 2 2 2 2 2 2 2
left_child=1 3 -3 4 -1 -2 -4 8 -7
right_child=5 2 6 -5 -6 7 -8 -9 -10
leaf_value=-0.00039823859293459116 -0.0045796562346037137 0.0082981562153068619 -0.0034757634870766201 -0.0049973299839244836 0.0043470304019449816 -0.00055943270787023585 9.6862258197003866e-05 -0.0020770548461005092 0.0012916367706826092
leaf_weight=326 22 38 20 29 35 26 81 25 28
leaf_count=326 22 38 20 29 35 26 81 25 28
internal_value=0 0.000247747 0.0018249 -0.000314365 6.1829e-05 -0.00129761 -0.000610588 -0.000383618 0.000400381
internal_weight=0 529 139 390 361 101 101 79 54
internal_count=630 529 139 390 361 101 101 79 54
is_linear=0
shrinkage=0.1


Tree=69
num_leaves=7
num_cat=0
split_feature=9 9 15 22 26 11
split_gain=0.0209206 0.0410851 0.120777 0.0456064 0.0320482 0.0300254
threshold=0.80548545226898016 1.0000000180025095e-35 0.46400060413259731 0.99999991254118459 0.75961538461538469 0.44636015309460375
decision_type=2 2 2 2 2 2
left_child=1 3 -3 5 -2 -1
right_child=4 2 -4 -5 -6 -7
leaf_value=-0.00076487088103121637 -0.0050565427169203762 0.008329398407262158 -0.0022730411229921238 -0.0047467418742598967 -3.8498674652406148e-05 0.00078295888749718885
leaf_weight=219 20 22 21 20 35 293
leaf_count=219 20 22 21 20 35 293
internal_value=0 0.000178223 0.00315146 -6.20951e-05 -0.00186324 0.000120899
internal_weight=0 575 43 532 55 512
internal_count=630 575 43 532 55 512
is_linear=0
shrinkage=0.1


Tree=70
num_leaves=11
num_cat=0
split_feature=2 17 17 27 24 20 14 14 13 23
split_gain=0.0203197 0.0298479 0.373619 0.0793559 0.0582274 0.072823 0.0678464 0.0218489 0.0128164 0.00826583
threshold=1.0000000180025095e-35 0.12204161797116445 4.0381602026910424e-20 0.51514482498168956 0.0060338008648820763 0.70166965861075881 0.59619528131009203 0.65894379947708281 0.9999998269299718 0.9999960033889963
decision_type=2 2 2 2 2 2 2 2 2 2
left_child=1 2 3 -1 6 -6 -3 -2 -9 -10
right_child=7 4 -4 -5 5 -7 -8 8 9 -11
leaf_value=-0.00083827277048704454 -0.0043016706593334677 0.0056216009720431075 0.013387470319867135 0.0029867808201850172 -0.0063861082411180679 -0.00040215029543757717 -0.00061711075034938606 0.0011553563850207461 -0.0030466497627674558 -0.00030257474806959461
leaf_weight=268 20 23 22 68 33 53 72 27 21 23
leaf_count=268 20 23 22 68 33 53 72 27 21 23
internal_value=0 0.000233354 0.000762481 -6.41548e-05 -0.000813208 -0.00269832 0.000893314 -0.00138217 -0.000559778 -0.00161225
internal_weight=0 539 358 336 181 86 95 91 71 44
internal_count=630 539 358 336 181 86 95 91 71 44
is_linear=0
shrinkage=0.1


Tree=71
num_leaves=11
num_cat=0
split_feature=18 27 27 6 19 29 11 27 11 15
split_gain=0.0211474 0.0823289 0.0311863 0.0741928 0.0549048 0.0532357 0.114536 0.0354577 0.0285728 0.0257592
threshold=-1.0625431134295644 0.32622465491294866 0.43321222066879278 1.0000000180025095e-35 0.54016295055619035 0.57848936029849052 0.23076923065088759 0.61772084236145031 0.51852581785427421 0.20127256575650207
decision_type=2 2 2 2 2 2 2 2 2 2
left_child=1 8 5 4 -4 9 -7 -5 -1 -2
right_child=2 -3 3 7 -6 6 -8 -9 -10 -11
leaf_value=0.0025933289542444983 -0.0025822099149623453 0.0070703590498305859 -0.0042335480439488768 -0.00048986803334888211 -0.00027004400017176521 -0.0022056075614483024 0.0045231490942468453 0.004691495846491308 -0.0021448230480642194 1.5792096128459021e-05
leaf_weight=20 47 20 77 28 64 39 72 25 35 203
leaf_count=20 47 20 77 28 64 39 72 25 35 203
internal_value=0 0.00157607 -0.000212982 -0.00123554 -0.00243451 0.000336537 0.00215899 0.00195417 -0.000421859 -0.000472632
internal_weight=0 75 555 194 141 361 111 53 55 250
internal_count=630 75 555 194 141 361 111 53 55 250
is_linear=0
shrinkage=0.1


Tree=72
num_leaves=10
num_cat=0
split_feature=16 19 23 17 27 21 18 19 22
split_gain=0.0189397 0.0515327 0.224545 0.0819581 0.0520075 0.0509443 0.0466449 0.0293579 0.0269455
threshold=0.63097845537905439 0.40380558876971046 0.61139188072377071 0.073893672671009519 0.46496155858039862 0.38059076988924984 0.064619259219267686 0.31073350554114687 0.93961641920525507
decision_type=2 2 2 2 2 2 2 2 2
left_child=1 3 -3 4 -1 -4 -2 -8 -9
right_child=6 2 5 -5 -6 -7 7 8 -10
leaf_value=-0.00044600429304710552 -0.0049380242999177426 0.010785600968180613 0.0030482891889987516 -0.0063991977088153369 0.0027239618399807325 -0.0026791123446167973 0.0026693486496163852 -0.0028194183984495517 9.5962691714293239e-05
leaf_weight=254 24 24 25 20 65 41 29 46 102
leaf_count=254 24 24 25 20 65 41 29 46 102
internal_value=0 0.000375307 0.00250242 -0.000189415 0.000199914 -0.000509642 -0.000801027 -0.000240079 -0.000810169
internal_weight=0 429 90 339 319 66 201 177 148
internal_count=630 429 90 339 319 66 201 177 148
is_linear=0
shrinkage=0.1


Tree=73
num_leaves=9
num_cat=0
split_feature=9 27 4 27 23 29 12 29
split_gain=0.0196404 0.0414582 0.0503522 0.0331239 0.102461 0.0556638 0.0975378 0.0690083
threshold=0.086854209719121195 0.45712238550186163 0.99999989928972099 0.70413827896118175 0.2035147418225903 0.89043071778507488 0.42857142831632655 0.75763587416120159
decision_type=2 2 2 2 2 2 2 2
left_child=3 2 -2 5 -5 7 -7 -1
right_child=1 -3 -4 4 -6 6 -8 -9
leaf_value=0.00041237346625113043 -0.0060476448700333453 0.0025675961968954653 -0.00036635568413214808 -0.0069078740701079382 0.0013351739365852586 0.0077694853353831505 -0.00081186758336396182 -0.0054657603525334886
leaf_weight=408 26 20 39 25 38 27 26 21
leaf_count=408 26 20 39 25 38 27 26 21
internal_value=0 -0.00141382 -0.00263887 0.000220504 -0.00193588 0.000502355 0.00355977 0.000124633
internal_weight=0 85 65 545 63 482 53 429
internal_count=630 85 65 545 63 482 53 429
is_linear=0
shrinkage=0.1


Tree=74
num_leaves=10
num_cat=0
split_feature=18 24 17 17 24 10 29 29 15
split_gain=0.0181932 0.0714643 0.0286912 0.172343 0.04659 0.036834 0.0778314 0.064935 0.00832361
threshold=-1.0625431134295644 0.028571823002379832 1.0000000180025095e-35 0.12204161797116445 0.013285484996511587 0.50581048744022061 0.91106883202234312 0.71143849482694177 0.59379066916772738
decision_type=2 2 2 2 2 2 2 2 2
left_child=1 8 5 -4 -5 7 -7 -2 -1
right_child=2 -3 3 4 -6 6 -8 -9 -10
leaf_value=-0.0024491496583736575 -0.00044917450223583733 0.0052424316911492503 0.0069973821518942714 0.00084366522548537295 -0.0021174568402178313 -0.00076121385236547221 0.0056056696126082295 -0.0044741866490566884 0.00027158968057293631
leaf_weight=22 125 30 36 119 96 96 24 59 23
leaf_count=22 125 30 36 119 96 96 24 59 23
internal_value=0 0.00146184 -0.000197546 0.000593729 -0.00047851 -0.000850869 0.000512163 -0.0017398 -0.00105855
internal_weight=0 75 555 251 215 304 120 184 45
internal_count=630 75 555 251 215 304 120 184 45
is_linear=0
shrinkage=0.1


Tree=75
num_leaves=10
num_cat=0
split_feature=19 19 20 15 18 14 22 1 11
split_gain=0.0184674 0.0390248 0.200361 0.0661777 0.0537111 0.0257413 0.0138375 0.00916027 0.0226074
threshold=0.99999851718600341 0.52531930703860474 0.58577313342311788 0.068800476755502438 0.2499925188252686 0.53156344455335436 0.93961641920525507 1.0000000180025095e-35 0.48516218067133238
decision_type=2 2 2 2 2 2 2 2 2
left_child=1 3 -3 -1 -5 -2 -4 8 -7
right_child=5 2 6 4 -6 7 -8 -9 -10
leaf_value=-0.0042579586378525235 -0.0042642999768511139 0.0099945340247359141 -0.0019314267434310751 -0.00037927091699946851 0.0027642791922765108 -0.00333301867172122 0.00062905787847064923 0.001185970631078817 0.00077046605252564467
leaf_weight=37 22 24 32 308 66 25 62 25 29
leaf_count=37 22 24 32 308 66 25 62 25 29
internal_value=0 0.000236573 0.00183953 -0.000223644 0.000175473 -0.00123908 -0.000242596 -0.000396616 -0.0011293
internal_weight=0 529 118 411 374 101 94 79 54
internal_count=630 529 118 411 374 101 94 79 54
is_linear=0
shrinkage=0.1


Tree=76
num_leaves=9
num_cat=0
split_feature=22 15 27 6 10 10 29 3
split_gain=0.0189746 0.0236838 0.0705508 0.0876074 0.0546571 0.0728936 0.0535922 0.0359266
threshold=0.99999991254118459 0.51387824154759376 0.19584012031555179 0.99870316650938584 0.35383855850377605 0.13330416729791508 0.81735605509147347 1.0000000180025095e-35
decision_type=2 2 2 2 2 2 2 2
left_child=1 2 7 -4 5 -3 -6 -1
right_child=-2 4 3 -5 6 -7 -8 -9
leaf_value=-0.0057214960982294189 -0.0026451371448974197 0.00053506089382911648 0.0024852087621041333 -0.0014393942778334339 -0.00014468308363575489 -0.0047331498927413694 0.0050218290963169676 -6.9015080490234218e-05
leaf_weight=23 26 48 191 81 158 58 23 22
leaf_count=23 26 48 191 81 158 58 23 22
internal_value=0 0.000113864 0.000709688 0.00131649 -0.000544243 -0.00234755 0.000511835 -0.00295806
internal_weight=0 604 317 272 287 106 181 45
internal_count=630 604 317 272 287 106 181 45
is_linear=0
shrinkage=0.1


Tree=77
num_leaves=7
num_cat=0
split_feature=19 4 21 15 12 15
split_gain=0.0203211 0.0808695 0.0226538 0.0213866 0.035159 0.0193079
threshold=-3.5413538093636721 0.99891317975191596 -1.0684641689293619 0.050505049216632826 0.1909827760650086 0.70298743835619781
decision_type=2 2 2 2 2 2
left_child=1 -1 5 -4 -5 -2
right_child=2 -3 3 4 -6 -7
leaf_value=0.0067489789333194496 -0.0046357196697499603 -0.0019455850043374559 0.0023089342505524034 -0.0018846958792288972 0.00024987516974024203 -0.0003873395915750576
leaf_weight=20 20 23 38 95 411 23
leaf_count=20 20 23 38 95 411 23
internal_value=0 0.0020984 -0.000153716 2.09413e-05 -0.000150884 -0.00236333
internal_weight=0 43 587 544 506 43
internal_count=630 43 587 544 506 43
is_linear=0
shrinkage=0.1


Tree=78
num_leaves=11
num_cat=0
split_feature=16 15 27 6 17 27 29 16 15 24
split_gain=0.0199085 0.0989711 0.0313126 0.0539039 0.0514903 0.035513 0.034595 0.0998485 0.0266795 0.00256785
threshold=-1.1106919224252889 0.3629023932816931 0.43321222066879278 1.0000000180025095e-35 0.99999883108039145 0.61772084236145031 0.57848936029849052 0.87361199184093097 0.19004828375834518 0.03057223187792733
decision_type=2 2 2 2 2 2 2 2 2 2
left_child=1 -1 6 4 -4 -5 8 -8 -2 -3
right_child=2 9 3 5 -6 -7 7 -9 -10 -11
leaf_value=0.0073610353926640186 -0.002459239993402933 -0.00018424025765347729 -0.0031380576331528198 -0.00096724477688050169 0.0019504721586902935 0.0042181604430079466 0.0037602569825815947 -0.0028016192810327717 0.00018599089381126816 -0.0015974691958399491
leaf_weight=21 47 36 116 28 24 25 78 33 202 20
leaf_count=21 47 36 116 28 24 25 78 33 202 20
internal_value=0 0.00150649 -0.000209764 -0.00123747 -0.00226574 0.0014787 0.000341201 0.00180943 -0.00031331 -0.000688965
internal_weight=0 77 553 193 140 53 360 111 249 56
internal_count=630 77 553 193 140 53 360 111 249 56
is_linear=0
shrinkage=0.1


Tree=79
num_leaves=9
num_cat=0
split_feature=2 19 14 13 12 29 26 19
split_gain=0.0199814 0.0278223 0.0283887 0.0772924 0.0574107 0.0244754 0.00573481 0.00302901
threshold=1.0000000180025095e-35 -4.3239969336141169 0.58433390814245445 0.48073873869663958 0.49408819023230638 0.57333099695823131 0.73863636363636376 0.036881551297464857
decision_type=2 2 2 2 2 2 2 2
left_child=1 -1 3 -3 -4 6 -2 -8
right_child=5 2 4 -5 -6 -7 7 -9
leaf_value=0.0034227505415821307 -0.0015692626744883299 -0.0001160258514285641 -0.0019928777090211197 0.0052805295062070302 0.00056693824199369701 -0.00389556771303803 0.001242396079136857 -0.00047716457862406975
leaf_weight=26 23 101 139 36 237 27 21 20
leaf_count=26 23 101 139 36 237 27 21 20
internal_value=0 0.000231403 6.96585e-05 0.00130205 -0.000379377 -0.00137062 -0.000305406 0.000403586
internal_weight=0 539 513 137 376 91 64 41
internal_count=630 539 513 137 376 91 64 41
is_linear=0
shrinkage=0.1


Tree=80
num_leaves=9
num_cat=0
split_feature=10 29 11 26 6 29 12 15
split_gain=0.0193769 0.0663815 0.0399367 0.0355436 0.0985268 0.0859704 0.00970879 0.0112131
threshold=0.75454056670263958 0.72297137414024015 0.88057040967827593 0.80000000596046461 0.9980274431076358 0.70425097496719757 0.8452041782107319 0.75251437345272476
decision_type=2 2 2 2 2 2 2 2
left_child=2 6 3 4 -1 -5 -2 -8
right_child=1 -3 -4 5 -6 -7 7 -9
leaf_value=0.0022753199231043586 -0.0013603434957286274 -0.0060875206106257712 0.0040292178552287323 -7.3533835654128254e-06 -0.0022020211315248164 -0.0054484502001501183 0.0021671655762474985 -0.00037100734579840008
leaf_weight=165 39 22 27 199 70 34 28 46
leaf_count=165 39 22 27 199 70 34 28 46
internal_value=0 -0.00106196 0.000289625 7.38797e-05 0.000941644 -0.000801333 -8.35318e-05 0.000589382
internal_weight=0 135 495 468 235 233 113 74
internal_count=630 135 495 468 235 233 113 74
is_linear=0
shrinkage=0.1


Tree=81
num_leaves=9
num_cat=0
split_feature=14 14 23 27 16 19 27 26
split_gain=0.0181604 0.0503139 0.0574574 0.0415767 0.0554058 0.0212357 0.0171817 0.013116
threshold=0.29908357868137853 0.50211958871786344 0.088664091682298052 0.69103032350540172 4.0381602026910424e-20 -2.8556701582569914 0.76039531826972973 0.82575756582346838
decision_type=2 2 2 2 2 2 2 2
left_child=3 2 -2 4 7 -3 -7 -1
right_child=1 5 -4 -5 -6 6 -8 -9
leaf_value=-0.0041170071863399988 0.00014210338704288006 0.0022982996748760346 0.0072374282593262347 -0.0053382962298928766 0.0033741625853710706 -7.0872756698825353e-05 -0.0022648833515958337 -0.00057867403520504011
leaf_weight=22 25 35 21 20 27 421 39 20
leaf_count=22 25 35 21 20 27 421 39 20
internal_value=0 0.000217766 0.00338127 -0.00132372 -0.000160076 -7.6217e-05 -0.000256887 -0.00243209
internal_weight=0 541 46 89 69 495 460 42
internal_count=630 541 46 89 69 495 460 42
is_linear=0
shrinkage=0.1


Tree=82
num_leaves=11
num_cat=0
split_feature=2 22 18 27 13 21 19 29 26 23
split_gain=0.0176079 0.0244335 0.13422 0.100233 0.0738109 0.0837727 0.0811348 0.0180289 0.00501879 0.00266142
threshold=1.0000000180025095e-35 0.12074643762924268 0.2499925188252686 0.51868286728858959 0.85616308624355664 0.38059076988924984 0.31571547875589251 0.57333099695823131 0.73863636363636376 4.234711417107449e-24
decision_type=2 2 2 2 2 2 2 2 2 2
left_child=1 2 3 -1 6 -6 -3 8 -2 -10
right_child=7 4 -4 -5 5 -7 -8 -9 9 -11
leaf_value=-0.00056219871546210446 -0.0015547351632014162 -0.0085079163638874886 0.0087061360990628601 0.004382389806310779 0.0045426948145697163 -0.00082051985697992346 -0.0011830516166340998 -0.0034537072707381518 0.0010771154669956082 -0.00053473128587938851
leaf_weight=251 23 20 20 49 42 95 62 27 21 20
leaf_count=251 23 20 20 49 42 95 62 27 21 20
internal_value=0 0.000217225 0.000774212 0.000245417 -0.000596638 0.000823677 -0.0029696 -0.00128664 -0.000372408 0.000290849
internal_weight=0 539 320 300 219 137 82 91 64 41
internal_count=630 539 320 300 219 137 82 91 64 41
is_linear=0
shrinkage=0.1


Tree=83
num_leaves=10
num_cat=0
split_feature=19 19 20 15 24 26 22 10 27
split_gain=0.0158348 0.0362089 0.147857 0.0536411 0.048772 0.0253318 0.0124434 0.0110963 0.00544763
threshold=0.99999851718600341 0.52531930703860474 0.58577313342311788 0.068800476755502438 0.023300605968464234 0.5277777777777779 0.93961641920525507 0.26971191228693631 0.49748967587947851
decision_type=2 2 2 2 2 2 2 2 2
left_child=1 3 -3 -1 -5 -2 -4 -7 -9
right_child=5 2 6 4 -6 7 -8 8 -10
leaf_value=-0.0038563818280660622 -0.0043344986430020075 0.0087685839680489153 -0.0016270209602225806 -0.00084158642433370323 0.0014702944786786477 -0.0018087596919940552 0.00080105433552225521 0.0014610574592771972 -0.00068424164084717636
leaf_weight=37 20 24 32 216 158 32 62 29 20
leaf_count=37 20 24 32 216 158 32 62 29 20
internal_value=0 0.000219063 0.00176311 -0.000224239 0.000135091 -0.00114737 -2.55245e-05 -0.000360426 0.000585425
internal_weight=0 529 118 411 374 101 94 81 49
internal_count=630 529 118 411 374 101 94 81 49
is_linear=0
shrinkage=0.1


Tree=84
num_leaves=11
num_cat=0
split_feature=10 29 14 14 15 4 11 3 19 26
split_gain=0.0154808 0.0541423 0.030363 0.0487116 0.0468634 0.0506282 0.0462972 0.0107214 0.00804372 0.00362063
threshold=0.75454056670263958 0.72297137414024015 0.29908357868137853 0.44616078860401071 0.11712920160630363 0.077322065977954449 0.84611742411222723 1.0000000180025095e-35 0.45331300118812601 0.91287878787878796
decision_type=2 2 2 2 2 2 2 2 2 2
left_child=2 7 4 -4 -1 -6 -5 8 -2 -9
right_child=1 -3 3 6 5 -7 -8 9 -10 -11
leaf_value=-0.0057124796643620362 -0.0026515271562278613 -0.005487889256751673 0.0047956056839141715 8.2958851787768951e-06 0.0018776556271449211 -0.0042593163112178449 0.0040979905507992952 0.00017330674918992646 0.00011941112577915192 0.0016829231865510036
leaf_weight=20 22 22 26 358 41 20 30 47 20 24
leaf_count=20 22 22 26 358 41 20 30 47 20 24
internal_value=0 -0.00094921 0.000258875 0.000605303 -0.00151175 -0.000134466 0.000324509 -6.55735e-05 -0.00133203 0.0006836
internal_weight=0 135 495 414 81 61 388 113 42 71
internal_count=630 135 495 414 81 61 388 113 42 71
is_linear=0
shrinkage=0.1


Tree=85
num_leaves=5
num_cat=0
split_feature=24 24 10 29
split_gain=0.0151808 0.0287526 0.0272571 0.0335098
threshold=0.57590207514393166 0.20225324200102379 0.019260996434226546 0.83171315417632175
decision_type=2 2 2 2
left_child=1 2 -1 -4
right_child=-2 -3 3 -5
leaf_value=0.0031838490571826695 -0.0027109863865189257 0.0035572806631376888 0.00011229219173842104 -0.0021584032240013285
leaf_weight=25 20 23 487 75
leaf_count=25 20 23 487 75
internal_value=0 8.88848e-05 -4.70149e-05 -0.000190737
internal_weight=0 610 587 562
internal_count=630 610 587 562
is_linear=0
shrinkage=0.1


Tree=86
num_leaves=8
num_cat=0
split_feature=15 12 12 12 22 15 21
split_gain=0.01469 0.0230493 0.0730299 0.0526498 0.150539 0.0514553 0.0234375
threshold=0.98555905529220722 0.24656502913984854 0.21320346313305835 0.39004996898463767 4.9753190229431286e-25 0.050505049216632826 -1.0638614571009939
decision_type=2 2 2 2 2 2 2
left_child=1 2 5 4 -3 -1 -5
right_child=-2 3 -4 6 -6 -7 -8
leaf_value=0.0045657370239496229 -0.0024806796374437197 0.0066713394209965251 -0.0065903155482374132 -0.0024892757577519562 -0.0012180944790552352 -0.00091619738237002962 0.00017171688804219057
leaf_weight=20 23 46 20 37 51 119 314
leaf_count=20 23 46 20 37 51 119 314
internal_value=0 9.39961e-05 -0.000940371 0.000461104 0.00252329 -0.00012743 -0.000108787
internal_weight=0 607 159 448 97 139 351
internal_count=630 607 159 448 97 139 351
is_linear=0
shrinkage=0.1


Tree=87
num_leaves=11
num_cat=0
split_feature=2 23 17 17 27 29 12 15 11 29
split_gain=0.0149845 0.0230242 0.106383 0.145632 0.0563385 0.0534523 0.0277728 0.0177961 0.0103143 0.0154151
threshold=1.0000000180025095e-35 0.61139188072377071 4.0381602026910424e-20 0.29466001677673193 0.46496155858039862 0.69542327819750183 0.15686274786605639 0.2438756091435931 0.42857142811224497 0.47217898601005953
decision_type=2 2 2 2 2 2 2 2 2 2
left_child=1 2 4 -4 -1 6 -3 -2 -9 -10
right_child=7 5 3 -5 -6 -7 -8 8 9 -11
leaf_value=-0.00089412318472903657 -0.0035234739606191095 -0.003056949716688984 0.011375052952207625 0.0012784131108783186 0.0025965105211823891 -0.0041647394886240368 0.00072654710412250773 0.0015520638969610447 0.00039934954450776181 -0.0032635482004843655
leaf_weight=228 24 23 20 50 58 36 124 20 27 20
leaf_count=228 24 23 20 50 58 36 124 20 27 20
internal_value=0 0.000200391 0.000668987 0.00416317 -0.000186232 -0.000711195 0.000134571 -0.00118693 -0.000349959 -0.00115933
internal_weight=0 539 356 70 286 183 147 91 67 47
internal_count=630 539 356 70 286 183 147 91 67 47
is_linear=0
shrinkage=0.1


Tree=88
num_leaves=7
num_cat=0
split_feature=20 9 10 29 12 26
split_gain=0.0152378 0.013982 0.0266252 0.0587654 0.0578319 0.0223466
threshold=-1.233176163897223 0.80548545226898016 0.10819136815105128 0.89043071778507488 0.24387806091004477 0.75961538461538469
decision_type=2 2 2 2 2 2
left_child=-1 2 3 -2 -4 -3
right_child=1 5 4 -5 -6 -7
leaf_value=0.0022803984337120449 -7.7018211029806287e-05 -0.0042962175002321601 -0.0026931275569684037 0.0051305197194338806 0.00024503234503915882 -8.8058757565675243e-06
leaf_weight=28 72 20 82 31 366 31
leaf_count=28 72 20 82 31 366 31
internal_value=0 -0.000106065 4.05557e-05 0.0014903 -0.000292756 -0.00169014
internal_weight=0 602 551 103 448 51
internal_count=630 602 551 103 448 51
is_linear=0
shrinkage=0.1


Tree=89
num_leaves=12
num_cat=0
split_feature=13 15 12 24 10 19 14 18 12 29 29
split_gain=0.0150148 0.0849938 0.109271 0.184123 0.0554994 0.0715904 0.0715985 0.035368 0.0350523 0.113765 0.0802659
threshold=0.73244138767255118 0.25375731200843171 0.6376262625240442 0.016471175696529023 0.28917131544974739 0.40380558876971046 0.082006270710910642 0.91625041275370089 0.49999999947916668 0.66290016614311764 0.75503614331334101
decision_type=2 2 2 2 2 2 2 2 2 2 2
left_child=4 2 3 -2 5 6 -1 -6 9 -3 -10
right_child=1 8 -4 -5 7 -7 -8 -9 10 -11 -12
leaf_value=0.0036372539389919003 0.0012017303197913304 -0.00011570224008636969 -0.0022353425311545535 0.012482898705132792 -0.0013483777029537842 0.0044415884707687484 -0.0029562538591060982 -0.0063167558993091405 -0.00037942967199062252 -0.0073433474870398642 0.0050003505352833599
leaf_weight=23 39 98 27 23 38 33 58 23 208 28 32
leaf_count=23 39 98 27 23 38 33 58 23 208 28 32
internal_value=0 0.000302763 0.00307438 0.00538668 -0.000787184 0.000515496 -0.00108402 -0.0032217 -0.00037121 -0.00172185 0.000337874
internal_weight=0 455 89 62 175 114 81 61 366 126 240
internal_count=630 455 89 62 175 114 81 61 366 126 240
is_linear=0
shrinkage=0.1


Tree=90
num_leaves=6
num_cat=0
split_feature=24 11 19 27 26
split_gain=0.0148678 0.0219257 0.018704 0.0403262 0.026958
threshold=0.57590207514393166 0.95839942313231863 0.99999851718600341 0.76841348409652721 0.79285714285714304
decision_type=2 2 2 2 2
left_child=1 2 3 -1 -4
right_child=-2 -3 4 -5 -6
leaf_value=0.00020585377204754523 -0.0026828922808635981 -0.0031683268083725125 -0.0035623461673579488 0.0038247927162570489 4.453536335017477e-05
leaf_weight=460 20 20 30 33 67
leaf_count=460 20 20 30 33 67
internal_value=0 8.79637e-05 0.000198346 0.000448095 -0.001071
internal_weight=0 610 590 493 97
internal_count=630 610 590 493 97
is_linear=0
shrinkage=0.1


Tree=91
num_leaves=8
num_cat=0
split_feature=29 26 10 10 12 18 18
split_gain=0.0144429 0.096668 0.0666202 0.0844649 0.0256734 0.0269084 0.0259801
threshold=0.83171315417632175 0.91987179487179505 0.52406070826801998 0.14691097065892827 0.060661764683698514 0.99999992445151242 0.85020392553692103
decision_type=2 2 2 2 2 2 2
left_child=4 2 3 -2 -1 6 -6
right_child=1 -3 -4 -5 5 -7 -8
leaf_value=-0.0030447101534303769 0.0019060627468494012 -0.0073301830887794496 0.0050005078482765544 -0.0051920051236326497 0.00068166976376000715 0.0034426659272328297 -0.00094479459427280479
leaf_weight=23 38 20 23 30 329 27 140
leaf_count=23 38 20 23 30 329 27 140
internal_value=0 -0.00103533 0.000348153 -0.00122544 0.000221429 0.000372883 0.000196158
internal_weight=0 111 91 68 519 496 469
internal_count=630 111 91 68 519 496 469
is_linear=0
shrinkage=0.1


Tree=92
num_leaves=10
num_cat=0
split_feature=0 12 19 27 29 29 29 14 15
split_gain=0.0137892 0.0451217 0.0329171 0.0341036 0.0478933 0.0404219 0.0299 0.0254714 0.00862909
threshold=1.0000000180025095e-35 0.58333333328042969 -2.8556701582569914 0.43321222066879278 0.89043071778507488 0.65289576690791795 -0.037535838961945109 0.93357815892984952 0.77051214426392167
decision_type=2 2 2 2 2 2 2 2 2
left_child=2 7 -1 5 -5 -4 -3 -2 -8
right_child=1 6 3 4 -6 -7 8 -9 -10
leaf_value=0.0038471273612231019 -0.0059106425591744487 0.004029590741265565 6.5644513094975128e-05 -0.0018520377130673499 0.002225906084640883 0.0028087121028719207 -0.0020287894310472023 -0.0014596815634932783 0.00063922044258409494
leaf_weight=24 20 20 231 144 36 70 22 36 27
leaf_count=24 20 20 231 144 36 70 22 36 27
internal_value=0 -0.000940352 0.00023276 5.24177e-05 -0.00103645 0.000703567 0.000771267 -0.00304931 -0.000558662
internal_weight=0 125 505 481 180 301 69 56 49
internal_count=630 125 505 481 180 301 69 56 49
is_linear=0
shrinkage=0.1


Tree=93
num_leaves=10
num_cat=0
split_feature=29 26 10 10 10 10 24 29 3
split_gain=0.0158222 0.0764377 0.0578202 0.0768072 0.0203451 0.0332471 0.151767 0.0404616 0.0106605
threshold=0.83171315417632175 0.91987179487179505 0.50581048744022061 0.14691097065892827 0.076286054654402261 0.19999999983333336 0.018810840497185611 0.65289576690791795 1.0000000180025095e-35
decision_type=2 2 2 2 2 2 2 2 2
left_child=4 2 3 -2 8 6 -6 -7 -1
right_child=1 -3 -4 -5 5 7 -8 -9 -10
leaf_value=-0.0032445187336238831 0.0015235174897641531 -0.0066811931658776304 0.0042422227188944816 -0.0053789127784382024 -0.00019412985077265222 -0.0002887007543925503 0.0098439637444971608 0.0031089735527833305 -0.00038295795442536476
leaf_weight=23 38 20 25 28 61 346 20 39 30
leaf_count=23 38 20 25 28 61 346 20 39 30
internal_value=0 -0.00108364 0.00014659 -0.00140479 0.000231761 0.000442912 0.00228441 5.54792e-05 -0.00162477
internal_weight=0 111 91 66 519 466 81 385 53
internal_count=630 111 91 66 519 466 81 385 53
is_linear=0
shrinkage=0.1


Tree=94
num_leaves=10
num_cat=0
split_feature=10 29 22 21 11 15 12 15 16
split_gain=0.0136558 0.0573603 0.0306784 0.0777634 0.0565836 0.0335781 0.00814232 0.00989203 0.00706653
threshold=0.75454056670263958 0.72297137414024015 -1.0392140974355131 -1.0110088824379844 0.79705882307102083 0.3629023932816931 0.8073353953072786 0.61114741688888208 -1.0969962773653539
decision_type=2 2 2 2 2 2 2 2 2
left_child=2 6 5 -4 -5 -1 -2 -8 -7
right_child=1 -3 3 4 -6 8 7 -9 -10
leaf_value=-0.0050128469731481303 -0.0015347602150331324 -0.0055631178288339557 0.0063633414154702977 -3.2518350019714448e-05 0.0051852099597454078 -0.0014874673557642383 0.0021612838227301838 -0.00019504825092935202 0.00080199843671705049
leaf_weight=21 26 22 22 376 22 26 25 62 28
leaf_count=21 26 22 22 376 22 26 25 62 28
internal_value=0 -0.000891506 0.000243138 0.000575812 0.000255899 -0.00161984 1.80118e-05 0.000482059 -0.000300337
internal_weight=0 135 495 420 398 75 113 87 54
internal_count=630 135 495 420 398 75 113 87 54
is_linear=0
shrinkage=0.1


Tree=95
num_leaves=12
num_cat=0
split_feature=14 10 12 22 18 27 13 14 24 11 26
split_gain=0.0142032 0.060705 0.0783054 0.0358574 0.109816 0.0630791 0.0440323 0.074926 0.0707196 0.0311767 0.00865273
threshold=0.9999999101940853 0.3578545721937913 0.33333333312962965 0.12074643762924268 0.064619259219267686 0.52033457159996044 0.85616308624355664 0.946279631996927 0.024517677427994398 0.51852581785427421 0.82575756582346838
decision_type=2 2 2 2 2 2 2 2 2 2 2
left_child=3 2 -2 4 5 -1 8 -8 -5 -3 -11
right_child=1 9 -4 6 -6 -7 7 -9 -10 10 -12
leaf_value=-0.00029819541342550185 0.00075839880970306704 0.0028197125880979005 -0.0076365333416033541 -0.00070141235101189414 0.0081069870779174377 0.0036017863486217808 0.0035750403127167377 -0.0015579990333460755 -0.0071092121060549593 -0.0023748710931007131 0.00023473033366759344
leaf_weight=222 20 37 25 61 20 51 47 72 24 24 27
leaf_count=222 20 37 25 61 20 51 47 72 24 24 27
internal_value=0 -0.000917858 -0.00390545 0.000245624 0.000954374 0.000430373 -0.000772335 0.000469336 -0.00251067 0.000609888 -0.000993317
internal_weight=0 133 45 497 293 273 204 119 85 88 51
internal_count=630 133 45 497 293 273 204 119 85 88 51
is_linear=0
shrinkage=0.1


Tree=96
num_leaves=11
num_cat=0
split_feature=24 11 25 27 17 23 13 15 13 23
split_gain=0.0130765 0.0529833 0.0537999 0.094848 0.032501 0.148415 0.0536723 0.0822069 0.0633386 0.0237224
threshold=0.061033219705508977 0.083916083845175807 4.5000000000000009 0.89328050613403331 4.0381602026910424e-20 0.24638272927358743 0.4908828071272881 0.17159763034390857 0.30502922352014333 0.61139188072377071
decision_type=2 2 2 2 2 2 2 2 2 2
left_child=4 -2 3 -3 6 -6 8 -8 -1 -7
right_child=1 2 -4 -5 5 9 7 -9 -10 -11
leaf_value=-0.00059243859925671774 0.0028982887379825116 -0.0076630878277243152 0.0018147803333011412 0.001169811813160777 0.008415071805939079 0.0028278959969091893 0.0050956785536160872 -0.00038441961048045058 -0.0067674112571134738 -0.00035505586841479077
leaf_weight=46 25 31 21 20 25 28 31 234 26 143
leaf_count=46 25 31 21 20 25 28 31 234 26 143
internal_value=0 -0.00106796 -0.00244513 -0.00419921 0.000194356 0.00121829 -0.000401166 0.000256648 -0.00282229 0.000166129
internal_weight=0 97 72 51 533 196 337 265 72 171
internal_count=630 97 72 51 533 196 337 265 72 171
is_linear=0
shrinkage=0.1


Tree=97
num_leaves=7
num_cat=0
split_feature=24 10 11 29 26 19
split_gain=0.0131504 0.0184062 0.0577678 0.0535298 0.0324461 0.0148863
threshold=0.57590207514393166 0.65454254657767974 0.88057040967827593 0.63312125075192838 0.80000000596046461 -1.4767049323491646
decision_type=2 2 2 2 2 2
left_child=1 2 4 5 -1 -3
right_child=-2 3 -4 -5 -6 -7
leaf_value=0.0011028888843326848 -0.0025231821509078146 -0.0022324912244980426 0.0056849282808252612 -0.0042162206825903719 -0.00067530779037076687 0.000544707420267514
leaf_weight=198 20 23 20 36 213 120
leaf_count=198 20 23 20 36 213 120
internal_value=0 8.27273e-05 0.000436729 -0.000769644 0.000181342 9.80251e-05
internal_weight=0 610 431 179 411 143
internal_count=630 610 431 179 411 143
is_linear=0
shrinkage=0.1


Tree=98
num_leaves=10
num_cat=0
split_feature=14 27 10 14 8 20 27 14 19
split_gain=0.0125438 0.0393183 0.0402739 0.0355834 0.0866472 0.0839875 0.0382141 0.0255561 0.0166462
threshold=0.29908357868137853 0.69103032350540172 0.21773296952270907 0.58433390814245445 0.99984051740000013 0.33745608952531958 0.76039531826972973 0.76941683135269068 0.024489795744835462
decision_type=2 2 2 2 2 2 2 2 2
left_child=1 2 -1 4 5 -2 7 -5 -4
right_child=3 -3 8 6 -6 -7 -8 -9 -10
leaf_value=0.0028688458468893482 0.0081006804135917067 -0.0050041608791798354 -0.0040656340867280963 -0.0019976000410970303 -0.0025722507881000643 -0.00032279847655445341 -0.0031812682660529393 0.00040771306837631479 1.4341582427732647e-05
leaf_weight=29 29 20 20 50 25 20 38 379 20
leaf_count=29 29 20 20 50 25 20 38 379 20
internal_value=0 -0.00110014 3.14591e-05 0.000180984 0.00221834 0.00466253 -0.000141852 0.000127374 -0.00202565
internal_weight=0 89 69 541 74 49 467 429 40
internal_count=630 89 69 541 74 49 467 429 40
is_linear=0
shrinkage=0.1


Tree=99
num_leaves=7
num_cat=0
split_feature=21 27 10 14 14 24
split_gain=0.0122108 0.0217873 0.0480454 0.021665 0.0605657 0.0587442
threshold=0.99999989754785756 0.8070015311241151 0.18834981681599114 0.97389377080645056 0.98862554639877065 0.039242480623594707
decision_type=2 2 2 2 2 2
left_child=1 3 -3 5 -5 -1
right_child=-2 2 -4 4 -6 -7
leaf_value=-2.7823042993059421e-05 0.0023708304922495571 0.00072338016918645459 -0.0057076212628522803 -0.0057485117224998598 -0.00013311891216855859 0.003426722789156541
leaf_weight=255 21 26 21 21 225 61
leaf_count=255 21 26 21 21 225 61
internal_value=0 -8.17528e-05 -0.00215005 9.12184e-05 -0.000612482 0.000639035
internal_weight=0 609 47 562 246 316
internal_count=630 609 47 562 246 316
is_linear=0
shrinkage=0.1


Tree=100
num_leaves=8
num_cat=0
split_feature=14 18 24 13 13 15 15
split_gain=0.0117946 0.036483 0.0312233 0.0308729 0.0279995 0.0626384 0.0585647
threshold=0.28467750716607515 0.16588896667612252 0.0088036236926457775 0.3554658335276058 0.69264008178544756 0.2916905592796693 0.16244876294595048
decision_type=2 2 2 2 2 2 2
left_child=1 2 -1 -2 5 -5 -6
right_child=3 -3 -4 4 6 -7 -8
leaf_value=-0.00044114725375226857 0.0032902822907393183 0.0015873464570177022 -0.0052635944280773408 -0.0054460552421265419 0.0031286783378998762 0.0013702906775646486 -0.00019826521427165788
leaf_weight=29 30 32 25 28 61 26 399
leaf_count=29 30 32 25 28 61 26 399
internal_value=0 -0.00108823 -0.00267376 0.000172037 -9.96193e-06 -0.00216411 0.000242916
internal_weight=0 86 54 544 514 54 460
internal_count=630 86 54 544 514 54 460
is_linear=0
shrinkage=0.1


Tree=101
num_leaves=8
num_cat=0
