tree
version=v3
num_class=1
num_tree_per_iteration=1
label_index=0
max_feature_idx=29
objective=regression
feature_names=Column_0 Column_1 Column_2 Column_3 Column_4 Column_5 Column_6 Column_7 Column_8 Column_9 Column_10 Column_11 Column_12 Column_13 Column_14 Column_15 Column_16 Column_17 Column_18 Column_19 Column_20 Column_21 Column_22 Column_23 Column_24 Column_25 Column_26 Column_27 Column_28 Column_29
feature_infos=[0:1] [0:1] [0:0.99999999000000017] [0:1] [0:6.5555553734567944] [-1.0000000100000002:200000000] [0:2.9999999700000006] [-5.2451614541069747:1.608133784543873] [-8.1770475469435535:10.610828593320583] [-141.85724418374571:200000000] [0:0.99186166944386589] [0:0.98507462679215851] [0:0.99728462107998361] [0:1] [0:1] [0.0026533401735377772:0.99933839713680184] [-1.825220821156226:0.99999996575721617] [-1.416107399660592:0.99999995216435011] [-2.486148622824973:0.99999997653770456] [-67.349752544749236:0.99999998969650683] [-2.243892506958844:0.99999997392144047] [-3.8882150056618037:0.9999999830753078] [-6.1618931819661338:0.99999998612545249] [-709.00242773248942:0.99999998997175144] [0:1] [0:15] [0:1] [-0.016799122095108032:1.0000002384185791] [0:1] [-0.06792193456735042:1]
tree_sizes=875 905 906 819 910 901 904 820 909 911 825 908 825 911 830 746 915 915 835 924 834 1004 921 839 1016 922 1104 925 1112 1097 1105 1190 1103 1112 1013 941 931 938 1200 858 760 1107 756 855 1105 942 1020 1205 845 1206 761 1110 853 855 851 1206 842 931 935 925 758 760 851 1107 947 760 1111 1114 1108 1032 1108 1121 1023 1114 942 1201 1195 1013 846 672 679 930 936 1208 1029 1204 1021 761 1022 1018 1105 1031 1200 1108 1116 1114 669 934 934 1196 769 1034 1030 930 931 846 846 760 1034 674 850 932 929 944 1031 942 855 1032 933 1033 1028 1119 940 1027 940 943 942 945 853 855 1387 850 851 1028 940 766 1210 854 843 854 940 933 674 762 1034 1037 771 859 849 1030 852 1121 1036 938 1028 856 1116 1029 1121 1118 757 679 951 1035 1028 1117 1030 763 947 1036 766 949 1132 1211 848 849 1210 1036 1210 942 850 1381 855 1114 863 1129 761 1043 853 944 860 856 1109 1028 769 945 863 1121 859 774 682 1046 1033 945 1030 1125 762 1036 946 947 1122 770 676 948 855 765 950 1127 1034 773 678 951 857 1121 857 860 681 1303 942 1030 1043 1120 952 859 860 1209 942 1039 1481 1211 1041 1126 951 947 949 945 1221 944 855 866 952 860 1040 953 858 765 946 1034 861 949 773 1035 1308 855 1216 1127 944 954 684 947 763 1199 1212 1132 868 769 855 1036 681 1213 767 768 944 1039 865 771 1040 772 856 769 945 940 773 679 768 955 1047 950 1046 769

Tree=0
num_leaves=9
num_cat=0
split_feature=28 29 4 15 14 14 10 29
split_gain=29.2672 13.3509 5.49414 3.38845 0.552179 0.502499 0.25 0.160061
threshold=1.0000000180025095e-35 0.74035187819516279 0.86200525299580388 0.38366570931116201 0.50477426020070371 0.30595338285692764 0.15686274786605639 0.65289576690791795
decision_type=2 2 2 2 2 2 2 2
left_child=1 4 3 -3 5 -1 -2 -6
right_child=6 2 -4 -5 7 -7 -8 -9
leaf_value=0.14587267677280735 0.2417910426904511 0.21929104302572722 0.14579104412096255 0.17393390084445845 0.14233749225985617 0.1624806990446811 0.22679104291396851 0.15131485356246088
leaf_weight=49 25 40 25 28 366 29 20 21
leaf_count=49 25 40 25 28 366 29 20 21
internal_value=0.157546 0.151289 0.185877 0.200615 0.144372 0.152047 0.235124 0.142825
internal_weight=0 558 93 68 465 78 45 387
internal_count=603 558 93 68 465 78 45 387
is_linear=0
shrinkage=1


Tree=1
num_leaves=9
num_cat=0
split_feature=28 29 4 26 14 26 25 19
split_gain=23.7064 10.8323 4.74207 2.90493 0.578402 0.53834 0.258572 0.139299
threshold=1.0000000180025095e-35 0.75503614331334101 0.86200525299580388 1.0000000180025095e-35 0.50477426020070371 0.82575756582346838 1.5000000000000002 -4.4320946851419523
decision_type=2 2 2 2 2 2 2 2
left_child=1 4 3 -3 5 -1 -2 -6
right_child=6 2 -4 -5 7 -7 -8 -9
leaf_value=0.0058487726431904422 0.076600895404815683 0.070217000083489856 -0.010579103946685792 0.025360861952815741 -0.0059004154056310661 -0.010889321047326794 0.061345894411206248 -0.013764708713104166
leaf_weight=33 25 22 25 42 24 46 20 366
leaf_count=33 25 22 25 42 24 46 20 366
internal_value=0 -0.00563072 0.0263534 0.0407802 -0.0117002 -0.00389746 0.0698209 -0.0132808
internal_weight=0 558 89 64 469 79 45 390
internal_count=603 558 89 64 469 79 45 390
is_linear=0
shrinkage=0.1


Tree=2
num_leaves=9
num_cat=0
split_feature=28 29 12 26 14 14 15 29
split_gain=19.2022 8.80081 4.34084 2.38659 0.35309 0.411527 0.248993 0.13131
threshold=1.0000000180025095e-35 0.74035187819516279 0.5999999997333334 1.0000000180025095e-35 0.50477426020070371 0.30595338285692764 0.37444867571742252 0.65289576690791795
decision_type=2 2 2 2 2 2 2 2
left_child=1 4 3 -3 5 -1 -2 -6
right_child=6 2 -4 -5 7 -7 -8 -9
leaf_value=-0.010134050128411273 0.069492026329040529 0.063983059877699075 -0.0099027686885425036 0.023488204077232719 -0.012362398752749292 0.0048956242100945836 0.054522281736135485 -0.0042312047311237879
leaf_weight=49 25 22 28 43 366 29 20 21
leaf_count=49 25 22 28 43 366 29 20 21
internal_value=0 -0.00506765 0.0230144 0.0371942 -0.0106841 -0.00454609 0.0628388 -0.0119212
internal_weight=0 558 93 65 465 78 45 387
internal_count=603 558 93 65 465 78 45 387
is_linear=0
shrinkage=0.1


Tree=3
num_leaves=8
num_cat=0
split_feature=28 29 11 15 27 14 14
split_gain=15.5538 7.12866 3.90402 1.69955 0.305137 0.226505 0.180833
threshold=1.0000000180025095e-35 0.74035187819516279 0.17684288899684475 0.36792117810748243 0.70503750443458568 0.72528270232685244 0.48415548253510926
decision_type=2 2 2 2 2 2 2
left_child=1 4 -3 -4 6 -2 -1
right_child=5 2 3 -5 -6 -7 -8
leaf_value=-0.005452985478484113 0.062900593519210818 0.05115026944670184 0.027958954001466436 -0.0057016117498278618 0.0024676489084959029 0.048622841089963918 -0.011022279276809793
leaf_weight=69 25 29 24 40 20 20 376
leaf_count=69 25 29 24 40 20 20 376
internal_value=0 -0.00456088 0.020713 0.0069211 -0.00961566 0.0565549 -0.0101587
internal_weight=0 558 93 64 465 45 445
internal_count=603 558 93 64 465 45 445
is_linear=0
shrinkage=0.1


Tree=4
num_leaves=9
num_cat=0
split_feature=28 29 11 15 24 15 25 14
split_gain=12.5986 5.77421 3.16226 1.37664 0.276066 0.835156 0.204658 0.0808535
threshold=1.0000000180025095e-35 0.74035187819516279 0.17684288899684475 0.36792117810748243 0.028571823002379832 0.2989638007173368 1.5000000000000002 0.50477426020070371
decision_type=2 2 2 2 2 2 2 2
left_child=1 4 -3 -4 7 -6 -2 -1
right_child=6 2 3 -5 5 -7 -8 -9
leaf_value=-0.0066224011239306687 0.056931322813034063 0.046035243108354773 0.025163059681653978 -0.0051314507424831393 0.0093240106943994761 -0.009757185469806931 0.043359570652246479 -0.010707786162288822
leaf_weight=58 25 29 24 40 32 81 20 294
leaf_count=58 25 29 24 40 32 81 20 294
internal_value=0 -0.00410479 0.0186417 0.00622899 -0.00865409 -0.00435366 0.0508994 -0.0100346
internal_weight=0 558 93 64 465 113 45 352
internal_count=603 558 93 64 465 113 45 352
is_linear=0
shrinkage=0.1


Tree=5
num_leaves=9
num_cat=0
split_feature=27 29 4 10 27 14 26 19
split_gain=10.5765 4.20478 3.84372 1.53102 1.10368 0.352542 0.805697 0.104564
threshold=0.78400787711143505 0.81735605509147347 0.29845696060403204 0.11111111094955177 0.89328050613403331 0.48415548253510926 0.82575756582346838 -4.4320946851419523
decision_type=2 2 2 2 2 2 2 2
left_child=1 5 3 -3 -2 6 -1 -7
right_child=4 2 -4 -5 -6 7 -8 -9
leaf_value=0.010179112851619721 0.023064707927405836 0.05384022891521454 -0.015521064579486847 0.019156781988484521 0.052512640931776593 -0.0027781881690025333 -0.010491235605017706 -0.0094626871899503185
leaf_weight=33 20 20 25 35 35 25 44 366
leaf_count=33 20 20 25 35 35 25 44 366
internal_value=0 -0.00419569 0.0169908 0.0317689 0.0418043 -0.00781731 -0.00163251 -0.00903529
internal_weight=0 548 80 55 55 468 77 391
internal_count=603 548 80 55 55 468 77 391
is_linear=0
shrinkage=0.1


Tree=6
num_leaves=9
num_cat=0
split_feature=27 29 4 26 29 14 26 19
split_gain=8.56695 3.40587 3.11341 1.41856 1.02997 0.285559 0.652614 0.0846968
threshold=0.78400787711143505 0.81735605509147347 0.29845696060403204 0.73863636363636376 0.75503614331334101 0.48415548253510926 0.82575756582346838 -4.4320946851419523
decision_type=2 2 2 2 2 2 2 2
left_child=1 5 3 -3 -2 6 -1 -7
right_child=4 2 -4 -5 -6 7 -8 -9
leaf_value=0.0091612012548880142 0.020863739875229922 0.042722845654333791 -0.013968958079814912 0.010339771459499996 0.048797292239738235 -0.0025003695487976077 -0.0094421122731132949 -0.0085164182295239029
leaf_weight=33 22 31 25 24 33 25 44 366
leaf_count=33 22 31 25 24 33 25 44 366
internal_value=0 -0.00377612 0.0152917 0.028592 0.0376239 -0.00703558 -0.00146926 -0.00813176
internal_weight=0 548 80 55 55 468 77 391
internal_count=603 548 80 55 55 468 77 391
is_linear=0
shrinkage=0.1


Tree=7
num_leaves=8
num_cat=0
split_feature=27 29 10 25 14 4 19
split_gain=6.95346 3.85369 2.45276 1.28026 0.321872 0.523659 0.0879422
threshold=0.89328050613403331 0.75503614331334101 0.078873623578155694 11.500000000000002 0.50477426020070371 0.52901781111563262 -4.4320946851419523
decision_type=2 2 2 2 2 2 2
left_child=1 4 -3 -4 5 -1 -6
right_child=-2 2 3 -5 6 -7 -8
leaf_value=0.0048607537150383 0.043259559188570301 0.043217922995487851 -0.0020486445667651986 0.027206260320686161 -0.0017309003820021947 -0.012361851735756949 -0.0079795310853934681
leaf_weight=55 35 24 52 21 24 26 366
leaf_count=55 35 24 52 21 24 26 366
internal_value=0 -0.00266564 0.0154849 0.00636715 -0.00640364 -0.00066749 -0.007595
internal_weight=0 568 97 73 471 81 390
internal_count=603 568 97 73 471 81 390
is_linear=0
shrinkage=0.1


Tree=8
num_leaves=9
num_cat=0
split_feature=27 29 12 25 10 24 15 12
split_gain=5.81027 2.18651 2.03157 1.58261 0.747513 0.153787 0.677168 0.0402379
threshold=0.78400787711143505 0.74035187819516279 0.7703296701541904 6.5000000000000009 0.34440702519684957 0.028571823002379832 0.2989638007173368 0.25794821364105952
decision_type=2 2 2 2 2 2 2 2
left_child=1 5 3 -3 -2 7 -7 -1
right_child=4 2 -4 -5 -6 6 -8 -9
leaf_value=-0.0052468565091029892 0.039797471037932804 0.00093598884564858893 -0.014645633619764578 0.032115352444532445 0.015562544018030167 0.0098601299428170731 -0.0075192395735670025 -0.0076490910002781493
leaf_weight=97 35 27 23 41 20 31 81 248
leaf_count=97 35 27 23 41 20 31 81 248
internal_value=0 -0.00310979 0.0110456 0.0197353 0.0309848 -0.00592848 -0.00270888 -0.00697368
internal_weight=0 548 91 68 55 457 112 345
internal_count=603 548 91 68 55 457 112 345
is_linear=0
shrinkage=0.1


Tree=9
num_leaves=9
num_cat=0
split_feature=28 29 12 26 15 29 16 21
split_gain=4.83703 2.06663 1.53467 1.10709 0.162885 0.145977 0.646749 0.113734
threshold=1.0000000180025095e-35 0.74035187819516279 0.5999999997333334 1.0000000180025095e-35 0.37444867571742252 0.58368844613146564 0.67541549501955334 -1.2283935435397753
decision_type=2 2 2 2 2 2 2 2
left_child=1 5 3 -3 -2 7 -7 -1
right_child=4 2 -4 -5 -6 6 -8 -9
leaf_value=0.00098286497999321328 0.036919726133346563 0.037741501358422365 -0.0085076643420117243 0.010160942791506302 0.024812026321887972 0.011054532091926646 -0.0087829229022775377 -0.0064156824175049289
leaf_weight=22 25 22 28 43 20 27 42 374
leaf_count=22 25 22 28 43 20 27 42 374
internal_value=0 -0.00254343 0.0110647 0.0194959 0.0315385 -0.00526506 -0.00102044 -0.00600465
internal_weight=0 558 93 65 45 465 69 396
internal_count=603 558 93 65 45 465 69 396
is_linear=0
shrinkage=0.1


Tree=10
num_leaves=8
num_cat=0
split_feature=27 29 10 15 14 26 27
split_gain=4.03678 2.03994 1.61382 0.885082 0.220011 0.413859 0.107777
threshold=0.89328050613403331 0.75503614331334101 0.078873623578155694 0.38366570931116201 0.50477426020070371 0.57738095238095244 0.64766988158226024
decision_type=2 2 2 2 2 2 2
left_child=1 4 -3 -4 5 -1 -6
right_child=-2 2 3 -5 6 -7 -8
leaf_value=0.012074062795866104 0.032960894107818606 0.033670150116086005 0.016242492175661028 -0.0059489874578103792 -0.0052733038691032 -0.0042370454470316574 -0.011712954951716321
leaf_weight=21 35 24 32 41 362 60 28
leaf_count=21 35 24 32 41 362 60 28
internal_value=0 -0.00203104 0.0111746 0.00377878 -0.00475067 -8.23961e-06 -0.00573564
internal_weight=0 568 97 73 471 81 390
internal_count=603 568 97 73 471 81 390
is_linear=0
shrinkage=0.1


Tree=11
num_leaves=9
num_cat=0
split_feature=27 29 4 29 10 26 10 14
split_gain=3.33995 1.13014 2.06725 0.526422 0.317362 0.205033 0.598981 0.0742191
threshold=0.78400787711143505 0.89072575627166961 0.29845696060403204 0.75503614331334101 0.14846905508979544 0.83974358974358987 0.26546749503183437 0.34117722094856179
decision_type=2 2 2 2 2 2 2 2
left_child=1 5 4 -2 -3 6 -1 -7
right_child=3 2 -4 -5 -6 7 -8 -9
leaf_value=0.00574925994684159 0.011509973962198605 0.03274967983365059 -0.012749948099255563 0.031480062549764459 0.015148372877211796 -0.010712039011220137 -0.0052455911458265496 -0.0054054450741561335
leaf_weight=71 22 20 25 33 21 30 164 217
leaf_count=71 22 20 25 33 21 30 164 217
internal_value=0 -0.00235778 0.00991456 0.023492 0.0237344 -0.00403822 -0.00192374 -0.00604997
internal_weight=0 548 66 55 41 482 235 247
internal_count=603 548 66 55 41 482 235 247
is_linear=0
shrinkage=0.1


Tree=12
num_leaves=8
num_cat=0
split_feature=27 29 10 25 14 16 27
split_gain=2.73778 1.36802 1.09123 0.711625 0.182232 0.390154 0.0976235
threshold=0.89328050613403331 0.75503614331334101 0.078873623578155694 11.500000000000002 0.50477426020070371 0.72875161143241074 0.64766988158226024
decision_type=2 2 2 2 2 2 2
left_child=1 4 -3 -4 5 -1 -6
right_child=-2 2 3 -5 6 -7 -8
leaf_value=0.0049197619290728325 0.027144429683685301 0.027639713635047275 -0.0032143558948658983 0.018596648886090233 -0.004356172494590283 -0.01027932072368761 -0.010484983732125589
leaf_weight=57 35 24 52 21 362 24 28
leaf_count=57 35 24 52 21 362 24 28
internal_value=0 -0.00167263 0.00914161 0.00306004 -0.00389977 0.00041633 -0.00479619
internal_weight=0 568 97 73 471 81 390
internal_count=603 568 97 73 471 81 390
is_linear=0
shrinkage=0.1


Tree=13
num_leaves=9
num_cat=0
split_feature=27 29 4 11 13 20 20 29
split_gain=2.28371 0.729065 1.5355 0.440137 0.245878 0.177775 0.75172 0.107966
threshold=0.78400787711143505 0.89072575627166961 0.29845696060403204 0.33333333250000002 0.82592838806281055 0.68451177003134422 3.7555633915382567e-25 0.64485796894572245
decision_type=2 2 2 2 2 2 2 2
left_child=1 5 4 -2 -3 6 -1 -7
right_child=3 2 -4 -5 -6 7 -8 -9
leaf_value=-0.0037096887697758035 0.02922490793466568 0.027375297674110961 -0.011625909999012947 0.011259196599324546 0.011882604137063027 -0.0047581929132236656 0.011298847051435397 -0.011457945033907891
leaf_weight=274 25 21 25 30 20 141 38 29
leaf_count=274 25 21 25 30 20 141 38 29
internal_value=0 -0.00194963 0.00790736 0.0194254 0.0198179 -0.00329934 -0.00188173 -0.00590109
internal_weight=0 548 66 55 41 482 312 170
internal_count=603 548 66 55 41 482 312 170
is_linear=0
shrinkage=0.1


Tree=14
num_leaves=8
num_cat=0
split_feature=27 29 12 26 14 4 27
split_gain=1.86961 0.925798 0.812401 0.613283 0.139376 0.343985 0.0950856
threshold=0.89328050613403331 0.75503614331334101 0.7703296701541904 1.0000000180025095e-35 0.50477426020070371 0.52901781111563262 0.64766988158226024
decision_type=2 2 2 2 2 2 2
left_child=1 4 3 -3 5 -1 -6
right_child=-2 2 -4 -5 6 -7 -8
leaf_value=0.0050408181073990739 0.02243144669703075 0.026612177220257844 -0.0089013348131076163 0.006694748138005917 -0.003564062245828177 -0.0089178485724215328 -0.0096126829273998748
leaf_weight=55 35 22 23 52 362 26 28
leaf_count=55 35 22 23 52 362 26 28
internal_value=0 -0.00138222 0.00751406 0.0126161 -0.00321436 0.000560258 -0.00399832
internal_weight=0 568 97 74 471 81 390
internal_count=603 568 97 74 471 81 390
is_linear=0
shrinkage=0.1


Tree=15
num_leaves=7
num_cat=0
split_feature=27 21 10 26 15 29
split_gain=1.58847 0.603852 0.510342 0.334442 0.933562 0.299636
threshold=0.76841348409652721 0.37769841650724084 0.019260996434226546 0.80909090909090919 0.25394949473037964 0.85585756595361207
decision_type=2 2 2 2 2 2
left_child=2 -2 -1 4 -4 -5
right_child=1 -3 3 5 -6 -7
leaf_value=0.01398740636650473 0.023105596319625252 0.0019760700208800181 0.01029335642638414 -0.0035872170684182465 -0.0035711051237474127 -0.015252152582009635
leaf_weight=20 38 21 69 267 164 24
leaf_count=20 38 21 69 267 164 24
internal_value=0 0.0155849 -0.00169028 -0.00228866 0.00053468 -0.00454927
internal_weight=0 59 544 524 233 291
internal_count=603 59 544 524 233 291
is_linear=0
shrinkage=0.1


Tree=16
num_leaves=9
num_cat=0
split_feature=28 29 12 4 15 10 13 14
split_gain=1.2888 0.641163 0.63239 0.765471 0.108143 0.107759 0.503388 0.219121
threshold=1.0000000180025095e-35 0.63780970498017775 0.7703296701541904 0.86200525299580388 0.33967727810592657 0.19999999983333336 0.42915852805393567 0.47889898428879291
decision_type=2 2 2 2 2 2 2 2
left_child=1 5 3 -3 -2 6 -1 -7
right_child=4 2 -4 -5 -6 7 -8 -9
leaf_value=0.013884933069348335 0.020865262641261022 0.013417604185834334 -0.0073214128780819017 -0.008540250621736049 0.011038940506322044 -0.011007538195699454 -0.0037283401752194003 -0.0031003859295598611
leaf_weight=20 24 77 32 20 21 40 86 283
leaf_count=20 24 77 32 20 21 40 86 283
internal_value=0 -0.00131287 0.00486872 0.00889021 0.0162796 -0.00317168 -0.000405081 -0.0040796
internal_weight=0 558 129 97 45 429 106 323
internal_count=603 558 129 97 45 429 106 323
is_linear=0
shrinkage=0.1


Tree=17
num_leaves=9
num_cat=0
split_feature=27 11 29 4 13 16 16 29
split_gain=1.08307 0.512592 0.397063 0.88948 0.148587 0.121357 0.546532 0.103349
threshold=0.76841348409652721 0.33333333250000002 0.89072575627166961 0.29845696060403204 0.82592838806281055 0.52722153635040525 4.0381602026910424e-20 0.64485796894572245
decision_type=2 2 2 2 2 2 2 2
left_child=2 -2 5 4 -4 6 -1 -7
right_child=1 -3 3 -5 -6 7 -8 -9
leaf_value=-0.0032144876815436876 0.023369951832752964 0.0045954569271116552 0.020814993551799232 -0.0089918988030403858 0.008771367520093918 -0.0034143811829940038 0.0076128708264022547 -0.00990323002760609
leaf_weight=256 26 33 21 25 20 135 57 30
leaf_count=256 26 33 21 25 20 135 57 30
internal_value=0 0.012869 -0.00139571 0.00587492 0.0149401 -0.00239961 -0.00124273 -0.00459417
internal_weight=0 59 544 66 41 478 313 165
internal_count=603 59 544 66 41 478 313 165
is_linear=0
shrinkage=0.1


Tree=18
num_leaves=8
num_cat=0
split_feature=27 29 10 26 10 3 29
split_gain=0.896344 0.501614 0.533339 0.40321 0.19147 0.429959 0.237453
threshold=0.89328050613403331 0.89072575627166961 0.07997404202607715 0.80909090909090919 0.34440702519684957 1.0000000180025095e-35 0.64485796894572245
decision_type=2 2 2 2 2 2 2
left_child=1 4 -3 -4 5 -1 -6
right_child=-2 2 3 -5 6 -7 -8
leaf_value=0.0050999337206018569 0.01553169689008168 0.020279006730942503 0.0086207317716131601 -0.0097098083188757317 -0.0027928901138708057 -0.0038868836118342454 -0.012204244111975035
leaf_weight=97 35 21 30 20 252 118 30
leaf_count=97 35 21 30 20 252 118 30
internal_value=0 -0.000957059 0.00690542 0.00128852 -0.00208027 0.000167634 -0.0037941
internal_weight=0 568 71 50 497 215 282
internal_count=603 568 71 50 497 215 282
is_linear=0
shrinkage=0.1


Tree=19
num_leaves=9
num_cat=0
split_feature=27 11 29 4 26 22 18 14
split_gain=0.739665 0.387236 0.264536 0.497984 0.572291 0.090189 0.409022 0.0671774
threshold=0.76841348409652721 0.33333333250000002 0.74035187819516279 0.29845696060403204 0.75961538461538469 0.12378189851518155 1.0000000180025095e-35 0.50477426020070371
decision_type=2 2 2 2 2 2 2 2
left_child=2 -2 5 4 -4 6 -1 -7
right_child=1 -3 3 -5 -6 7 -8 -9
leaf_value=-0.0023731111403563375 0.019761963117008025 0.003443838667237398 0.014668022824658289 -0.0081948715453036124 -0.0056622828170657157 -0.0087877499638125307 0.0098299371168738409 -0.0031095161119474488
leaf_weight=241 26 33 45 25 20 24 31 158
leaf_count=241 26 33 45 25 20 24 31 158
internal_value=0 0.0106349 -0.00115341 0.00379937 0.00841254 -0.00213525 -0.000982323 -0.00385829
internal_weight=0 59 544 90 65 454 272 182
internal_count=603 59 544 90 65 454 272 182
is_linear=0
shrinkage=0.1


Tree=20
num_leaves=8
num_cat=0
split_feature=27 29 4 19 12 13 26
split_gain=0.612734 0.364659 0.411545 0.177435 0.177806 0.165262 0.125832
threshold=0.89328050613403331 0.89072575627166961 0.86200525299580388 0.99999860448640432 0.6217782710071893 0.88511271637022049 0.79285714285714304
decision_type=2 2 2 2 2 2 2
left_child=1 3 5 4 -1 -3 -5
right_child=-2 2 -4 6 -6 -7 -8
leaf_value=0.00091192609928626277 0.012841548600367137 0.017119868934154511 -0.0041036397254524326 -0.010968450916310152 -0.0033873042639819269 0.0049241435527801513 -0.0031758207581075492
leaf_weight=239 35 25 26 30 161 20 67
leaf_count=239 35 25 26 30 161 20 67
internal_value=0 -0.000791293 0.00591246 -0.00174897 -0.000818514 0.0116995 -0.00558591
internal_weight=0 568 71 497 400 45 97
internal_count=603 568 71 497 400 45 97
is_linear=0
shrinkage=0.1


Tree=21
num_leaves=10
num_cat=0
split_feature=29 10 27 4 13 24 14 13 15
split_gain=0.512109 0.60506 0.405371 0.52247 0.330385 0.252799 0.0861034 0.118822 0.105576
threshold=0.63780970498017775 0.80117278258167668 0.78400787711143505 0.29845696060403204 0.73827766216613211 0.076021072689762048 0.43711964642474671 0.062841420797453931 0.16244876294595048
decision_type=2 2 2 2 2 2 2 2 2
left_child=5 2 3 -2 -4 6 7 -1 -8
right_child=1 -3 4 -5 -6 -7 8 -9 -10
leaf_value=0.00011526391841471195 0.0077285624336069217 -0.0096903489641845236 0.006562362212155547 -0.0091438761892883736 0.02430080906266258 0.0091621265071444215 0.002122122478061195 -0.0095470395903768292 -0.0025372998375117629
leaf_weight=20 78 25 21 24 21 20 58 35 301
leaf_count=20 78 25 21 24 21 20 58 35 301
internal_value=0 0.00467008 0.0071632 0.00375858 0.0154316 -0.00181853 -0.002349 -0.00603347 -0.00178452
internal_weight=0 169 144 102 42 434 414 55 359
internal_count=603 169 144 102 42 434 414 55 359
is_linear=0
shrinkage=0.1


Tree=22
num_leaves=9
num_cat=0
split_feature=29 10 27 4 23 24 27 14
split_gain=0.414808 0.490099 0.32835 0.423201 0.269063 0.204768 0.0767395 0.056571
threshold=0.63780970498017775 0.80117278258167668 0.78400787711143505 0.29845696060403204 0.18981337084949598 0.076021072689762048 0.68690931797027599 0.43711964642474671
decision_type=2 2 2 2 2 2 2 2
left_child=5 2 3 -2 -4 6 7 -1
right_child=1 -3 4 -5 -6 -7 -8 -9
leaf_value=-0.0048467558228744651 0.0069557063854657685 -0.0087213139422237882 0.0062570013698529121 -0.008229488572881867 0.022282995674759151 0.0082459137542173263 -0.0081569574470631775 -0.0013349546285146778
leaf_weight=53 78 25 22 24 20 20 20 341
leaf_count=53 78 25 22 24 20 20 20 341
internal_value=0 0.00420307 0.00644688 0.00338272 0.0138884 -0.00163668 -0.0021141 -0.00180735
internal_weight=0 169 144 102 42 434 414 394
internal_count=603 169 144 102 42 434 414 394
is_linear=0
shrinkage=0.1


Tree=23
num_leaves=8
num_cat=0
split_feature=29 10 20 19 24 27 10
split_gain=0.335994 0.39698 0.309319 0.442965 0.165862 0.062159 0.0550446
threshold=0.63780970498017775 0.80117278258167668 0.99999818729071777 0.062055686747512252 0.076021072689762048 0.68690931797027599 0.19999999983333336
decision_type=2 2 2 2 2 2 2
left_child=4 2 3 -2 5 6 -1
right_child=1 -3 -4 -5 -6 -7 -8
leaf_value=0.00042757879804857836 0.0023913694606650803 -0.007849182703532279 -0.0034271711098222898 0.014842249486784293 0.0074213223252445467 -0.0073412617261055862 -0.0023067248073120202
leaf_weight=98 62 25 29 53 20 20 296
leaf_count=98 62 25 29 53 20 20 296
internal_value=0 0.00378276 0.0058022 0.0081296 -0.00147301 -0.00190269 -0.00162662
internal_weight=0 169 144 115 434 414 394
internal_count=603 169 144 115 434 414 394
is_linear=0
shrinkage=0.1


Tree=24
num_leaves=10
num_cat=0
split_feature=19 29 10 19 27 16 29 15 18
split_gain=0.282131 0.418834 0.351874 0.394287 0.216012 0.211216 0.114587 0.0636644 0.0138943
threshold=0.99999860448640432 0.58368844613146564 0.77828614337234525 0.4345106617800491 0.52033457159996044 -1.0000000180025095e-35 0.5708201136505614 0.15563461437509959 0.99999929695499257
decision_type=2 2 2 2 2 2 2 2 2
left_child=1 4 3 -3 7 -6 8 -1 -2
right_child=6 2 -4 -5 5 -7 -8 -9 -10
leaf_value=-0.005526778601268505 -0.0012293722169201111 0.0039126433197154923 -0.0055411920425723557 0.015969520861593388 0.012943237130530178 -0.00061538572147212648 -0.0096918250151881678 -0.0014978989658146343 -0.0041651293394222326
leaf_weight=47 38 110 27 36 20 27 33 237 28
leaf_count=47 38 110 27 36 20 27 33 237 28
internal_value=0 0.000958671 0.00494613 0.00688557 -0.00112541 0.00515424 -0.0048805 -0.00216465 -0.00247484
internal_weight=0 504 173 146 331 47 99 284 66
internal_count=603 504 173 146 331 47 99 284 66
is_linear=0
shrinkage=0.1


Tree=25
num_leaves=9
num_cat=0
split_feature=29 15 5 14 27 20 16 29
split_gain=0.256281 0.201645 0.346145 0.191646 0.180562 0.139053 0.287562 0.107976
threshold=0.89072575627166961 0.8171239535608269 0.40096477582323881 0.34117722094856179 0.89328050613403331 0.68451177003134422 4.0381602026910424e-20 0.64485796894572245
decision_type=2 2 2 2 2 2 2 2
left_child=4 2 3 -2 5 6 -1 -7
right_child=1 -3 -4 -5 -6 7 -8 -9
leaf_value=-0.0014415547239115915 0.0053712279419414703 -0.0037416382506489754 -0.0028809148108675368 0.018504461824893952 0.0084752098005265002 -0.0023294042680685506 0.0061402513052246747 -0.0088315356372585235
leaf_weight=259 20 20 21 25 20 145 62 31
leaf_count=259 20 20 21 25 20 145 62 31
internal_value=0 0.0050547 0.00772026 0.0126675 -0.00084082 -0.00121571 2.28439e-05 -0.00347467
internal_weight=0 86 66 45 517 497 321 176
internal_count=603 86 66 45 517 497 321 176
is_linear=0
shrinkage=0.1


Tree=26
num_leaves=11
num_cat=0
split_feature=2 29 8 21 17 24 27 14 25 23
split_gain=0.24055 0.26533 0.244201 0.171539 0.626742 0.133289 0.0889718 0.0436567 0.0210679 0.0284328
threshold=1.0000000180025095e-35 0.89072575627166961 0.90810150372994891 0.48355001273930892 1.0000000180025095e-35 0.061033219705508977 0.24475301057100299 0.58433390814245445 4.5000000000000009 1.6581339711654468e-24
decision_type=2 2 2 2 2 2 2 2 2 2
left_child=1 3 6 4 -1 -5 -3 -2 -9 -10
right_child=7 2 -4 5 -6 -7 -8 8 9 -11
leaf_value=-0.00090198554005569288 -0.0086800846131518481 0.0050434289411419916 -0.0017309940599191647 -0.0016897287731663822 0.011189890744907853 -0.010236224724741822 0.013420256967947353 -0.001245975959214515 -0.007599564518313855 -0.002763419623501719
leaf_weight=244 20 21 26 107 52 22 32 28 20 31
leaf_count=244 20 21 26 107 52 22 32 28 20 31
internal_value=0 0.000885211 0.00620702 -0.000104019 0.00122226 -0.00314727 0.0101011 -0.00450653 -0.00344993 -0.00465995
internal_weight=0 504 79 425 296 129 53 99 79 51
internal_count=603 504 79 425 296 129 53 99 79 51
is_linear=0
shrinkage=0.1


Tree=27
num_leaves=9
num_cat=0
split_feature=19 27 26 6 11 15 29 18
split_gain=0.206793 0.269134 0.198537 0.535879 0.166949 0.114603 0.0910076 0.0129284
threshold=0.99999860448640432 0.76841348409652721 0.80909090909090919 0.92388336238443791 0.33333333250000002 0.11111110123456885 0.5708201136505614 0.99999929695499257
decision_type=2 2 2 2 2 2 2 2
left_child=1 2 3 -1 -3 -4 7 -2
right_child=6 4 5 -5 -6 -7 -8 -9
leaf_value=0.0060805761918028894 -0.0008330615405851094 0.013753901137776362 -0.0080919082660262497 -0.0042480023742245982 0.0023878520766239882 -0.0011707194630868063 -0.0084661852238544569 -0.0036649299832268822
leaf_weight=135 38 24 27 80 28 210 33 28
leaf_count=135 38 24 27 80 28 210 33 28
internal_value=0 0.000820751 3.69579e-05 0.00223738 0.00763372 -0.00195921 -0.00417837 -0.00203446
internal_weight=0 504 452 215 52 237 99 66
internal_count=603 504 452 215 52 237 99 66
is_linear=0
shrinkage=0.1


Tree=28
num_leaves=11
num_cat=0
split_feature=2 19 3 26 26 27 29 22 12 13
split_gain=0.191588 0.18649 0.290601 0.355193 0.0965472 0.0547843 0.035573 0.00831019 0.00717632 0.00867111
threshold=1.0000000180025095e-35 0.99999860448640432 1.0000000180025095e-35 0.80909090909090919 0.79285714285714304 0.54185807704925548 0.5708201136505614 0.99999826364587319 0.24999999986979168 0.99999998046717475
decision_type=2 2 2 2 2 2 2 2 2 2
left_child=1 2 3 -1 -3 -4 8 -6 -2 -10
right_child=6 4 5 -5 7 -7 -8 -9 9 -11
leaf_value=0.0074577117694909732 -0.0013559469021856786 -0.0084540852613928224 -0.0018001889172642963 -0.00052551297097678119 -0.0023922384556499311 0.0036102528345682439 -0.0071172996958786695 4.4121612518210895e-05 -0.0048939275242446461 -0.002258020809565026
leaf_weight=131 22 27 172 97 28 21 27 28 24 26
leaf_count=131 22 27 172 97 28 21 27 28 24 26
internal_value=0 0.000790001 0.00164411 0.00406134 -0.00354226 -0.00121149 -0.00402183 -0.00117406 -0.00286102 -0.00352326
internal_weight=0 504 421 228 83 193 99 56 72 50
internal_count=603 504 421 228 83 193 99 56 72 50
is_linear=0
shrinkage=0.1


Tree=29
num_leaves=11
num_cat=0
split_feature=15 27 29 10 10 12 10 12 23 11
split_gain=0.180166 0.228971 0.307965 0.282282 0.144533 0.110292 0.0790422 0.109173 0.038357 0.0290736
threshold=0.83429289736397172 0.15858601033687594 0.89072575627166961 0.21219651282505478 0.2873707427475663 0.49408819023230638 0.38180251214603272 0.29705882336790662 0.65639312118965909 0.41956327975929625
decision_type=2 2 2 2 2 2 2 2 2 2
left_child=1 5 4 -4 -3 -1 7 -2 9 -8
right_child=6 2 3 -5 -6 -7 8 -9 -10 -11
leaf_value=-0.011157308722890559 -0.0019522888170156096 0.0029315937614240672 0.0033257533283904198 0.017643249312060929 -0.0011611483282365775 -0.0010255504656180908 0.00258836026841891 -0.011143550752118852 -0.0052061499273986555 -0.0016598606656771154
leaf_weight=21 28 149 40 21 205 22 24 24 20 49
leaf_count=21 28 149 40 21 205 22 24 24 20 49
internal_value=0 0.000972587 0.00169231 0.00825473 0.000561503 -0.00597362 -0.00307203 -0.00619441 -0.00132619 -0.000263185
internal_weight=0 458 415 61 354 43 145 52 93 73
internal_count=603 458 415 61 354 43 145 52 93 73
is_linear=0
shrinkage=0.1


Tree=30
num_leaves=11
num_cat=0
split_feature=15 27 29 10 24 12 29 18 17 16
split_gain=0.145934 0.185467 0.249452 0.228649 0.13658 0.0893364 0.0746533 0.011153 0.00873865 0.0015733
threshold=0.83429289736397172 0.15858601033687594 0.89072575627166961 0.21219651282505478 0.028571823002379832 0.49408819023230638 0.5708201136505614 -1.0037084821197158 0.99999791630578228 -1.1106919224252889
decision_type=2 2 2 2 2 2 2 2 2 2
left_child=1 5 4 -4 -3 -1 7 9 -9 -2
right_child=6 2 3 -5 -6 -7 -8 8 -10 -11
leaf_value=-0.010041578053053292 -0.0011162542079303725 -0.00054743107868787113 0.0029931781464256346 0.015878924031165385 0.004170106209227315 -0.00092299539775756952 -0.0069449863389529527 -0.0038052749699480568 -0.001204880768879472 -9.2111281943895557e-05
leaf_weight=21 30 275 40 21 79 22 33 28 24 30
leaf_count=21 30 275 40 21 79 22 33 28 24 30
internal_value=0 0.000875328 0.00152308 0.00742925 0.000505353 -0.00537626 -0.00276483 -0.00153318 -0.00260509 -0.000604183
internal_weight=0 458 415 61 354 43 145 112 52 60
internal_count=603 458 415 61 354 43 145 112 52 60
is_linear=0
shrinkage=0.1


Tree=31
num_leaves=12
num_cat=0
split_feature=2 23 17 17 27 21 29 29 29 25 15
split_gain=0.13527 0.147192 0.388988 0.691321 0.274789 0.172695 0.141104 0.137497 0.0378914 0.00599965 0.00370861
threshold=1.0000000180025095e-35 0.58990760907859763 1.0000000180025095e-35 0.23963136082816305 0.52033457159996044 0.37769841650724084 0.64485796894572245 0.63780970498017775 0.5708201136505614 7.5000000000000009 0.59133978420794109
decision_type=2 2 2 2 2 2 2 2 2 2 2
left_child=1 2 4 -4 -1 7 -7 -3 9 10 -2
right_child=8 5 3 -5 -6 6 -8 -9 -10 -11 -12
leaf_value=-0.0014157474758974594 -0.00040200724557507787 -0.0010132294826028308 0.024200133818667383 0.0022635465638492914 0.0068753642096583334 -0.0023908864011946782 -0.011446238990703766 0.008669125204059212 -0.0065741531404287182 -0.0032019580350606705 -0.002327781711719581
leaf_weight=217 20 44 20 51 49 79 22 22 27 32 20
leaf_count=217 20 44 20 51 49 79 22 22 27 32 20
internal_value=0 0.000663811 0.00186682 0.00844287 0.000111563 -0.00176382 -0.00436334 0.00221422 -0.0033794 -0.00218137 -0.00136489
internal_weight=0 504 337 71 266 167 101 66 99 72 40
internal_count=603 504 337 71 266 167 101 66 99 72 40
is_linear=0
shrinkage=0.1


Tree=32
num_leaves=11
num_cat=0
split_feature=15 27 29 10 16 10 29 12 23 29
split_gain=0.113812 0.165506 0.195615 0.217072 0.13306 0.0722281 0.100048 0.0646296 0.0347682 0.0238679
threshold=0.79077716831416811 0.15858601033687594 0.89072575627166961 0.21219651282505478 0.63097845537905439 0.35196987510956829 0.54353308220528995 0.49408819023230638 0.92010995098371995 0.48535412221401603
decision_type=2 2 2 2 2 2 2 2 2 2
left_child=1 7 4 -4 -3 6 -2 -1 9 -7
right_child=5 2 3 -5 -6 8 -8 -9 -10 -11
leaf_value=-0.0090760237648196164 -0.0020020948480426646 0.0020948211766433538 0.0024793100031092765 0.015238779180217536 -0.0020030348588306879 -0.00075881284513119342 -0.010823378645000048 -0.0011330521747004241 -0.0044007345008486437 0.0031645857286639514
leaf_weight=21 36 208 40 20 128 69 20 20 21 20
leaf_count=21 36 208 40 20 128 69 20 20 21 20
internal_value=0 0.000846739 0.00147294 0.00673247 0.000533733 -0.00222906 -0.00515255 -0.0052014 -0.000740744 0.00012285
internal_weight=0 437 396 60 336 166 56 41 110 89
internal_count=603 437 396 60 336 166 56 41 110 89
is_linear=0
shrinkage=0.1


Tree=33
num_leaves=11
num_cat=0
split_feature=2 15 26 6 27 11 24 14 12 25
split_gain=0.102375 0.112545 0.227904 0.302162 0.0953448 0.0922433 0.105357 0.0370727 0.0196273 0.00725756
threshold=1.0000000180025095e-35 0.37715515419678131 0.80909090909090919 0.99742859076655888 0.52509915828704845 0.067231638392984142 0.061033219705508977 0.60545760575915908 0.4434042551836162 7.5000000000000009
decision_type=2 2 2 2 2 2 2 2 2 2
left_child=1 2 3 -1 -4 -3 -7 -2 9 -9
right_child=7 5 4 -5 -6 6 -8 8 -10 -11
leaf_value=0.0079313011075693961 -0.0066693986921260761 0.0038345764153698263 -0.0029306416379744431 -0.0046680899404843027 0.0037969122721074988 -0.00069895928787192072 -0.0071200457186807471 0.00040875430170742152 -0.0040556137247655501 -0.0020027496590046211
leaf_weight=92 21 38 77 24 29 215 29 26 28 24
leaf_count=92 21 38 77 24 29 215 29 26 28 24
internal_value=0 0.000577486 0.0022617 0.00532453 -0.00109008 -0.000748382 -0.00146212 -0.00293993 -0.00193584 -0.000748768
internal_weight=0 504 222 116 106 282 244 99 78 50
internal_count=603 504 222 116 106 282 244 99 78 50
is_linear=0
shrinkage=0.1


Tree=34
num_leaves=10
num_cat=0
split_feature=19 27 9 26 12 14 9 19 10
split_gain=0.0970986 0.1122 0.187007 0.165022 0.165017 0.0770925 0.0745627 0.0286025 0.0142151
threshold=0.99999860448640432 0.76841348409652721 0.17381855659193154 0.80909090909090919 0.22556894241233419 0.53156344455335436 0.95294374482571598 0.9999998968942424 0.19642803429345088
decision_type=2 2 2 2 2 2 2 2 2
left_child=1 2 3 -1 -3 -2 -4 -7 -9
right_child=5 4 6 -5 -6 7 -8 8 -10
leaf_value=0.0028764047716030071 -0.0082412232334415133 -0.0016169277337295088 -0.010098447278141976 -0.0011743439282387652 0.0097854087851010282 -0.0044704027997795491 -0.0022557477518502212 -0.0021956232257335532 0.0010666338274912799
leaf_weight=193 21 22 22 210 30 22 27 22 34
leaf_count=193 21 22 22 210 30 22 27 22 34
internal_value=0 0.000562406 5.63338e-05 0.000765593 0.00496134 -0.00286316 -0.00577696 -0.00141522 -0.000214967
internal_weight=0 504 452 403 52 99 49 78 56
internal_count=603 504 452 403 52 99 49 78 56
is_linear=0
shrinkage=0.1


Tree=35
num_leaves=9
num_cat=0
split_feature=12 27 26 19 23 27 15 26
split_gain=0.0905093 0.163052 0.163304 0.287951 0.0875195 0.0629772 0.0549699 0.0141027
threshold=0.7703296701541904 0.15858601033687594 0.96666666666666679 0.63513847191858053 1.7290571056252263e-24 0.57427066564559948 0.29290423688500494 0.77350427350427353
decision_type=2 2 2 2 2 2 2 2
left_child=1 -1 3 -3 -4 6 -2 -8
right_child=5 2 4 -5 -6 -7 7 -9
leaf_value=-0.0059364701165845078 -0.0059331343886220743 0.0053178570179777769 -0.0035464296322429987 -0.002899922810721709 0.00081934242488620112 -0.006911774062673035 -0.0017985889990259673 0.00052555446197494757
leaf_weight=34 21 161 74 58 121 23 42 69
leaf_count=34 21 161 74 58 121 23 42 69
internal_value=0 0.000720634 0.00126735 0.00314146 -0.000837412 -0.00208287 -0.00124146 -0.000353851
internal_weight=0 448 414 219 195 155 132 111
internal_count=603 448 414 219 195 155 132 111
is_linear=0
shrinkage=0.1


Tree=36
num_leaves=9
num_cat=0
split_feature=15 15 10 14 10 29 23 29
split_gain=0.082935 0.149813 0.108204 0.137805 0.0602473 0.080941 0.0222318 0.0190757
threshold=0.79077716831416811 0.72288930220373782 0.015701987632854696 0.34117722094856179 0.35196987510956829 0.54353308220528995 0.92010995098371995 0.48535412221401603
decision_type=2 2 2 2 2 2 2 2
left_child=1 2 -1 -4 5 -2 7 -6
right_child=4 -3 3 -5 6 -7 -8 -9
leaf_value=0.0074832222860641206 -0.0017391525221885078 0.0089636483639922177 -0.0040813666552172176 0.00080877983150039537 -0.0006411581234399068 -0.009673514385358432 -0.0034702130396562143 0.0028663276669976768
leaf_weight=20 36 21 70 326 69 20 21 20
leaf_count=20 36 21 70 326 69 20 21 20
internal_value=0 0.000722809 0.000306805 -5.564e-05 -0.00190282 -0.00457285 -0.000543526 0.000147041
internal_weight=0 437 416 396 166 56 110 89
internal_count=603 437 416 396 166 56 110 89
is_linear=0
shrinkage=0.1


Tree=37
num_leaves=9
num_cat=0
split_feature=12 27 3 27 27 15 13 26
split_gain=0.0747951 0.131076 0.150128 0.338221 0.0497 0.0454995 0.0426717 0.0103499
threshold=0.7703296701541904 0.15858601033687594 1.0000000180025095e-35 0.23728033900260928 0.57427066564559948 0.29290423688500494 0.40999786599713445 0.77350427350427353
decision_type=2 2 2 2 2 2 2 2
left_child=1 -1 3 -3 5 -2 -4 -7
right_child=4 2 6 -5 -6 7 -8 -9
leaf_value=-0.0053136527004158671 -0.0054144058032848299 0.0090822591454655464 -0.0047642422768358998 0.00050430749536163231 -0.006183221265572407 -0.0015761093857387704 -0.00038643325488655754 0.00041493151600108198
leaf_weight=34 21 63 26 170 23 42 155 69
leaf_count=34 21 63 26 170 23 42 155 69
internal_value=0 0.000655096 0.00114528 0.00282367 -0.00189344 -0.00114598 -0.00101529 -0.000338435
internal_weight=0 448 414 233 155 132 181 111
internal_count=603 448 414 233 155 132 181 111
is_linear=0
shrinkage=0.1


Tree=38
num_leaves=12
num_cat=0
split_feature=19 10 8 26 27 9 29 14 13 29 23
split_gain=0.070752 0.0847903 0.160036 0.203648 0.0605311 0.0538586 0.0772247 0.03958 0.0235665 0.00753207 0.00665191
threshold=0.99999860448640432 0.73819685818580794 0.99950166215231551 0.80909090909090919 0.61595699191093456 -1.0000000180025095e-35 0.52258902817974395 0.44616078860401071 0.78517496321706648 -0.0188252638149678 0.99999987585423378
decision_type=2 2 2 2 2 2 2 2 2 2 2
left_child=1 2 3 -1 8 9 -7 -4 -2 -3 -10
right_child=4 5 7 -5 -6 6 -8 -9 10 -11 -12
leaf_value=0.0048347395543891988 -0.0041663920995779332 -0.00047929324848096697 -0.0063999074295861651 -0.00039651948441638121 -0.007358435686910525 -0.0014868581255350999 -0.0090082658792380241 -0.001371267931841026 0.00062446740386705544 0.002009829704184085 -0.0015713033668527552
leaf_weight=154 20 31 20 144 20 43 20 72 37 20 22
leaf_count=154 20 31 20 144 20 43 20 72 37 20 22
internal_value=0 0.000480079 0.00118134 0.00230688 -0.00244404 -0.00191896 -0.00387461 -0.00246445 -0.00119989 0.000496833 -0.000194295
internal_weight=0 504 390 298 99 114 63 92 79 51 59
internal_count=603 504 390 298 99 114 63 92 79 51 59
is_linear=0
shrinkage=0.1


Tree=39
num_leaves=8
num_cat=0
split_feature=2 19 14 15 23 29 14
split_gain=0.0706616 0.0998966 0.0990144 0.0910346 0.0310478 0.0629152 0.00392942
threshold=1.0000000180025095e-35 -4.3239969336141169 0.034286334252124025 0.13043477081285634 1.6581339711654468e-24 -0.030175419246939169 0.99999998483527708
decision_type=2 2 2 2 2 2 2
left_child=1 -1 -3 -4 5 -2 -6
right_child=4 2 3 -5 6 -7 -8
leaf_value=0.0072316415474883147 -0.00081527598105656744 0.0061889197787072942 0.0032799774643287741 -0.00073516498337998059 -0.0016052234341794461 -0.0085648168681655076 8.7157101370394235e-05
leaf_weight=21 22 26 66 391 34 20 23
leaf_count=21 22 26 66 391 34 20 23
internal_value=0 0.000479773 0.000186213 -0.000155298 -0.00244248 -0.00450553 -0.000922333
internal_weight=0 504 483 457 99 42 57
internal_count=603 504 483 457 99 42 57
is_linear=0
shrinkage=0.1


Tree=40
num_leaves=7
num_cat=0
split_feature=22 27 22 9 22 29
split_gain=0.0666986 0.0893719 0.171458 0.0916587 0.0890899 0.0741687
threshold=0.99999987331014928 0.78755328059196483 0.21905159123754853 0.17381855659193154 0.33775488220406541 -0.0188252638149678
decision_type=2 2 2 2 2 2
left_child=1 3 -3 4 -1 -5
right_child=-2 2 -4 5 -6 -7
leaf_value=0.0013100850167530969 -0.0040553844392936878 -0.00065081577215875903 0.011472060028463602 -0.00025465041107963771 -0.0016030409394942062 -0.0080373958786949511
leaf_weight=309 38 28 20 24 159 25
leaf_count=309 38 28 20 24 159 25
internal_value=0 0.000272752 0.00440038 -0.000110471 0.000320369 -0.00422544
internal_weight=0 565 48 517 468 49
internal_count=603 565 48 517 468 49
is_linear=0
shrinkage=0.1


Tree=41
num_leaves=11
num_cat=0
split_feature=15 12 13 29 10 29 18 7 15 24
split_gain=0.061451 0.0843347 0.155374 0.326908 0.218228 0.0515727 0.0398658 0.0332364 0.00528411 0.00418288
threshold=0.83429289736397172 0.7703296701541904 0.85667526619164402 0.63780970498017775 0.28917131544974739 0.5708201136505614 0.78506366741368405 0.97753376992354979 0.87827195564885951 0.02242788819544651
decision_type=2 2 2 2 2 2 2 2 2 2
left_child=1 2 4 -4 -1 8 7 -3 -2 -10
right_child=5 6 3 -5 -6 -7 -8 -9 9 -11
leaf_value=0.001850692470325157 -0.0021215935895705354 -0.0051414184341757353 0.00098907603043454201 0.011230183000926201 -0.0050607228044454028 -0.005268516407037775 0.00131424030502482 -0.00047645346203353258 0.00017051206714491926 -0.001215464031970202
leaf_weight=125 23 42 130 41 72 33 24 24 51 38
leaf_count=125 23 42 130 41 72 33 24 24 51 38
internal_value=0 0.000568011 0.00123908 0.00344455 -0.000675307 -0.00179413 -0.00217592 -0.00344507 -0.00077043 -0.000421253
internal_weight=0 458 368 171 197 145 90 66 112 89
internal_count=603 458 368 171 197 145 90 66 112 89
is_linear=0
shrinkage=0.1


Tree=42
num_leaves=7
num_cat=0
split_feature=22 27 22 9 22 25
split_gain=0.0551621 0.0652207 0.134015 0.080602 0.0777959 0.0636
threshold=0.99999987331014928 0.78755328059196483 0.21905159123754853 0.086854209719121195 0.33775488220406541 5.5000000000000009
decision_type=2 2 2 2 2 2
left_child=1 3 -3 4 -1 -5
right_child=-2 2 -4 5 -6 -7
leaf_value=0.0012635908779929069 -0.0036880284495725245 -0.00069159982543039536 0.010026159915141761 -0.00025231557904044165 -0.0014616413502050632 -0.0073164177212255224
leaf_weight=307 38 28 20 25 159 26
leaf_count=307 38 28 20 25 159 26
internal_value=0 0.000248044 0.00377413 -7.93294e-05 0.000333737 -0.00385362
internal_weight=0 565 48 517 466 51
internal_count=603 565 48 517 466 51
is_linear=0
shrinkage=0.1


Tree=43
num_leaves=8
num_cat=0
split_feature=2 19 14 14 23 29 22
split_gain=0.0520599 0.0847175 0.0839788 0.0664284 0.031296 0.0470431 0.00456332
threshold=1.0000000180025095e-35 -4.3239969336141169 0.034286334252124025 0.34117722094856179 1.6581339711654468e-24 -0.030175419246939169 0.99999938455178961
decision_type=2 2 2 2 2 2 2
left_child=1 -1 -3 -4 5 -2 -6
right_child=4 2 3 -5 6 -7 -8
leaf_value=0.0066295863306593331 -0.00097676234568511567 0.0056696565237451492 -0.0036128252542694098 0.00024953425996115946 -0.0013061866704340312 -0.0076778642763383684 0.0005176019136105542
leaf_weight=21 22 26 50 407 34 20 23
leaf_count=21 22 26 50 407 34 20 23
internal_value=0 0.000411809 0.00014147 -0.000173043 -0.00209648 -0.00416776 -0.000570272
internal_weight=0 504 483 457 99 42 57
internal_count=603 504 483 457 99 42 57
is_linear=0
shrinkage=0.1


Tree=44
num_leaves=11
num_cat=0
split_feature=15 13 14 15 14 19 27 27 14 13
split_gain=0.0519585 0.162604 0.290389 0.176576 0.207837 0.17011 0.0942054 0.0645113 0.0584944 0.042699
threshold=0.37444867571742252 0.85667526619164402 0.91609978525546643 0.19004828375834518 0.41158804355897188 0.32238968157175241 0.46142321825027471 0.75152546167373668 0.35409541004183642 0.77706175910674036
decision_type=2 2 2 2 2 2 2 2 2 2
left_child=1 3 -3 5 -5 -1 -4 8 -2 -10
right_child=7 2 6 4 -6 -7 -8 -9 9 -11
leaf_value=-0.0074630038141129691 0.0048546371224801989 0.014086410115756419 -0.00079054030667114264 0.0085528074694924388 -0.0036774652956713307 0.001151157962211561 0.0071862997539574288 -0.0053868554686362464 -0.0043781116990179855 -0.0003443947432232022
leaf_weight=52 20 23 57 33 24 41 20 28 29 276
leaf_count=52 20 23 57 33 24 41 20 28 29 276
internal_value=0 0.00110303 0.00422653 -0.000979302 0.00340322 -0.00366536 0.00128137 -0.000781182 -0.000384386 -0.000727928
internal_weight=0 250 100 150 57 93 77 353 325 305
internal_count=603 250 100 150 57 93 77 353 325 305
is_linear=0
shrinkage=0.1


Tree=45
num_leaves=9
num_cat=0
split_feature=10 11 27 20 20 13 15 3
split_gain=0.0492767 0.127596 0.0784314 0.0624762 0.306628 0.0680749 0.016044 0.00819861
threshold=0.79079533915225564 0.89082848409221438 0.43732771277427679 0.30214767715583873 3.7555633915382567e-25 0.70422052020348858 0.86910995274110137 1.0000000180025095e-35
decision_type=2 2 2 2 2 2 2 2
left_child=1 3 6 4 -1 -5 7 -2
right_child=2 -3 -4 5 -6 -7 -8 -9
leaf_value=-5.9174306282811281e-05 -0.0031047746620100482 0.0078356083871436912 -0.0076650993179646328 -0.0050358745257108248 0.011113969591894637 -0.00038963803389006538 0.0012292127004535549 -0.00037188005503377923
leaf_weight=272 23 22 20 40 27 149 29 21
leaf_count=272 23 22 20 40 27 149 29 21
internal_value=0 0.000386028 -0.00211693 5.01859e-05 0.000949772 -0.00137297 -0.000596878 -0.00180044
internal_weight=0 510 93 488 299 189 73 44
internal_count=603 510 93 488 299 189 73 44
is_linear=0
shrinkage=0.1


Tree=46
num_leaves=10
num_cat=0
split_feature=13 10 10 13 15 10 27 15 10
split_gain=0.0460887 0.0830154 0.0663501 0.0951691 0.235818 0.15069 0.0401953 0.0190106 0.016699
threshold=0.99999999945514395 0.3578545721937913 0.73819685818580794 0.85667526619164402 0.17596274876879628 0.28917131544974739 0.48196846246719366 0.93831086646985773 0.89867974228995517
decision_type=2 2 2 2 2 2 2 2 2
left_child=2 -2 3 5 -5 -1 8 -3 -4
right_child=1 7 6 4 -6 -7 -8 -9 -10
leaf_value=0.001277526362427249 -0.0066238706881579547 -0.0015507758243378097 -0.0021718669974708318 0.0096326536981930101 0.00085440052957352951 -0.0044117749913129964 -0.0059907428972655911 0.0022705220293415631 0.00078978924575494607
leaf_weight=139 28 30 47 37 177 70 20 23 32
leaf_count=139 28 30 47 37 177 70 20 23 32
internal_value=0 -0.00221938 0.000344386 0.000889809 0.00237214 -0.000627981 -0.00198605 0.000107523 -0.000972209
internal_weight=0 81 522 423 214 209 99 53 79
internal_count=603 81 522 423 214 209 99 53 79
is_linear=0
shrinkage=0.1


Tree=47
num_leaves=12
num_cat=0
split_feature=13 13 15 29 11 17 22 14 10 10 10
split_gain=0.0430048 0.0864749 0.167269 0.13502 0.126921 0.177952 0.0856212 0.0575947 0.0539357 0.0916311 0.0586803
threshold=0.99870338631743749 0.85667526619164402 0.15854551089452093 0.63780970498017775 0.45804195784989493 1.0000000180025095e-35 7.7037197775104267e-25 0.99387578765431295 0.39983626624705276 0.17358553716444927 0.55144414688873888
decision_type=2 2 2 2 2 2 2 2 2 2 2
left_child=1 4 -3 -4 5 -1 -6 -2 9 -9 -10
right_child=7 2 3 -5 6 -7 -8 8 10 -11 -12
leaf_value=-0.0015073083832117321 -0.0060622767257016335 0.010356647395731314 -0.0010300374412488761 0.0060143011783321317 -0.00098397460521892736 0.0060445413958659629 -0.0074067210013579049 0.00085791589042760047 0.0042377766221761703 -0.0059992862658691595 -0.00057743169257659557
leaf_weight=83 21 23 90 39 51 50 35 38 34 40 99
leaf_count=83 21 23 90 39 51 50 35 38 34 40 99
internal_value=0 0.000667816 0.00250038 0.00109965 -0.000604098 0.00133173 -0.00359788 -0.00106793 -0.000570862 -0.0026586 0.000653524
internal_weight=0 371 152 129 219 133 86 232 211 78 133
internal_count=603 371 152 129 219 133 86 232 211 78 133
is_linear=0
shrinkage=0.1


Tree=48
num_leaves=8
num_cat=0
split_feature=10 29 26 27 14 23 18
split_gain=0.0431737 0.057258 0.259493 0.0668291 0.0601116 0.153141 0.0443415
threshold=0.015701987632854696 0.83171315417632175 0.82575756582346838 0.24475301057100299 0.58433390814245445 0.93265367642915875 -1.2304829326394398
decision_type=2 2 2 2 2 2 2
left_child=-1 4 3 -3 5 -2 -6
right_child=1 2 -4 -5 6 -7 -8
leaf_value=0.0039861352603810917 0.0047943951469972641 -0.0030573762856937691 -0.012225748248220911 0.0033540519470399294 0.0027503570640053624 -0.0032797353143584639 -0.00073145278492332214
leaf_weight=26 76 29 21 37 41 34 339
leaf_count=26 76 29 21 37 41 34 339
internal_value=0 -0.000179618 -0.00254373 0.000536909 0.000240133 0.00229875 -0.000355784
internal_weight=0 577 87 66 490 110 380
internal_count=603 577 87 66 490 110 380
is_linear=0
shrinkage=0.1


Tree=49
num_leaves=12
num_cat=0
split_feature=2 25 15 27 20 20 24 27 23 29 14
split_gain=0.0395384 0.0696611 0.145443 0.40581 0.0763371 0.0883954 0.0587543 0.0510318 0.0300301 0.0357972 0.00573734
threshold=1.0000000180025095e-35 3.5000000000000004 0.44573041784831252 0.52033457159996044 0.0061563282739113285 0.78912694591872012 0.054868295156713591 0.26640169322490698 1.6581339711654468e-24 -0.030175419246939169 0.99999998483527708
decision_type=2 2 2 2 2 2 2 2 2 2 2
left_child=1 4 3 -3 7 -6 -4 -1 9 -2 -10
right_child=8 2 6 -5 5 -7 -8 -9 10 -11 -12
leaf_value=-0.0031696709901249658 -0.001072422880679369 0.00097760286282865395 -0.00024180094966872942 0.013739897403866053 -0.0092679457384206004 -0.0015591523350403627 -0.0059736193018034107 0.0028003584460303604 -0.0011571878413258888 -0.0069179381791036583 0.0008877940027994792
leaf_weight=21 22 147 169 30 21 51 20 45 34 20 23
leaf_count=21 22 147 169 30 21 51 20 45 34 20 23
internal_value=0 0.000358883 0.00108079 0.0031407 -0.00155573 -0.00380755 -0.000848343 0.000900804 -0.00182704 -0.003856 -0.00033202
internal_weight=0 504 366 177 138 72 189 66 99 42 57
internal_count=603 504 366 177 138 72 189 66 99 42 57
is_linear=0
shrinkage=0.1


Tree=50
num_leaves=7
num_cat=0
split_feature=9 9 14 15 27 13
split_gain=0.0389027 0.0721654 0.069099 0.177574 0.0993321 0.0232099
threshold=0.71756318872925162 1.0000000180025095e-35 0.58433390814245445 0.19004828375834518 0.76039531826972973 0.88110220596961186
decision_type=2 2 2 2 2 2
left_child=1 2 3 -1 -4 -2
right_child=5 -3 4 -5 -6 -7
leaf_value=-0.0023101679760397279 -0.005276574035884724 0.0050801384955211065 -0.00024682048136447841 0.0051320232542542126 -0.0062297421161201785 -0.00062874806515703151
leaf_weight=56 21 29 370 75 30 22
leaf_count=56 21 29 370 75 30 22
internal_value=0 0.000222572 -4.27185e-05 0.00195063 -0.00069554 -0.00289862
internal_weight=0 560 531 131 400 43
internal_count=603 560 531 131 400 43
is_linear=0
shrinkage=0.1


Tree=51
num_leaves=11
num_cat=0
split_feature=16 16 17 19 27 24 10 18 27 19
split_gain=0.0344606 0.12334 0.479699 0.136351 0.0961606 0.190842 0.103185 0.0694094 0.039429 0.0359879
threshold=0.63097845537905439 0.028998251543445666 0.13965591667072788 0.52048605107071544 0.52033457159996044 0.024517677427994398 0.19642803429345088 0.03451879080675347 0.64766988158226024 0.35780101606833831
decision_type=2 2 2 2 2 2 2 2 2 2
left_child=1 4 -3 -4 6 -6 -1 -2 9 -9
right_child=7 2 3 -5 5 -7 -8 8 -10 -11
leaf_value=-0.0043637859550238189 -0.0061365029076114299 0.017424395512789487 -0.0073055613972974253 0.003427226254555943 -0.0019016919592104388 0.0094030028350451707 6.4290595902042157e-05 0.0041624060787615325 -0.0035456682104268115 -0.00033942464766922691
leaf_weight=70 24 20 20 29 32 28 212 21 32 115
leaf_count=70 24 20 20 29 32 28 212 21 32 115
internal_value=0 0.000516693 0.00437342 -0.000953503 -0.00026142 0.00337383 -0.00103488 -0.00110605 -0.000387409 0.000355711
internal_weight=0 411 69 49 342 60 282 192 168 136
internal_count=603 411 69 49 342 60 282 192 168 136
is_linear=0
shrinkage=0.1


Tree=52
num_leaves=8
num_cat=0
split_feature=2 19 14 14 23 16 15
split_gain=0.03596 0.0591037 0.0467131 0.0720223 0.0242404 0.0373797 0.00374099
threshold=1.0000000180025095e-35 -4.3239969336141169 0.034286334252124025 0.34117722094856179 1.6963746580821615e-24 -1.0042431084700796 0.80774840302244799
decision_type=2 2 2 2 2 2 2
left_child=1 -1 -3 -4 5 -2 -6
right_child=4 2 3 -5 6 -7 -8
leaf_value=0.0055357095497172507 -0.00076055768877267846 0.0042394926480483269 -0.0036998006671478834 0.00032189535908114979 -0.0010308996577159926 -0.0065376452480753258 0.00065233678729070918
leaf_weight=21 24 26 50 407 31 21 23
leaf_count=21 24 26 50 407 31 21 23
internal_value=0 0.000342258 0.000116456 -0.000118115 -0.0017424 -0.00345653 -0.000313966
internal_weight=0 504 483 457 99 45 54
internal_count=603 504 483 457 99 45 54
is_linear=0
shrinkage=0.1


Tree=53
num_leaves=8
num_cat=0
split_feature=15 20 20 27 13 26 17
split_gain=0.0348275 0.0391771 0.177276 0.101855 0.0491462 0.0850005 0.0428812
threshold=0.98555905529220722 0.30214767715583873 0.026284566371955035 0.52033457159996044 0.70422052020348858 0.83974358974358987 4.0381602026910424e-20
decision_type=2 2 2 2 2 2 2
left_child=1 2 3 -1 5 -3 -6
right_child=-2 4 -4 -5 6 -7 -8
leaf_value=-0.00061103879784636574 -0.0038163907314731696 -0.0086803727329242981 0.009096872307903443 0.0039349723394601216 -0.0029089869346617808 0.00053919889811368201 0.00068249496576380114
leaf_weight=276 23 20 24 60 44 20 136
leaf_count=276 23 20 24 60 44 20 136
internal_value=0 0.00015134 0.000793824 0.000200749 -0.000899998 -0.00407059 -0.000195423
internal_weight=0 580 360 336 220 40 180
internal_count=603 580 360 336 220 40 180
is_linear=0
shrinkage=0.1


Tree=54
num_leaves=8
num_cat=0
split_feature=27 12 15 16 15 27 10
split_gain=0.0304569 0.0594035 0.0506935 0.152554 0.149264 0.0460017 0.0394495
threshold=0.13226661086082461 0.64191780811107979 0.37444867571742252 -1.0969962773653539 0.19004828375834518 0.75152546167373668 0.059142716228961952
decision_type=2 2 2 2 2 2 2
left_child=1 -1 3 -2 -5 6 -4
right_child=2 -3 5 4 -6 -7 -8
leaf_value=-0.0065316376287955797 0.0096734017867129291 0.0010834219482993442 0.0039359418312198526 -0.0017200457587733115 0.0036564295022523431 -0.0044819003037576167 -0.00055731421633551249
leaf_weight=20 20 21 21 123 89 28 281
leaf_count=20 20 21 21 123 89 28 281
internal_value=0 -0.00263124 0.000191959 0.00132468 0.000537059 -0.000604375 -0.000244869
internal_weight=0 41 562 232 212 330 302
internal_count=603 41 562 232 212 330 302
is_linear=0
shrinkage=0.1


Tree=55
num_leaves=12
num_cat=0
split_feature=2 25 15 27 12 15 24 26 14 12 23
split_gain=0.0306441 0.0564303 0.107395 0.28567 0.0519195 0.0500264 0.064931 0.0635509 0.0213569 0.0118118 0.0166706
threshold=1.0000000180025095e-35 3.5000000000000004 0.44573041784831252 0.52033457159996044 0.47987117533021645 0.42539167609685591 0.059603584874842547 0.57738095238095244 0.65894379947708281 0.23076923065088759 1.6581339711654468e-24
decision_type=2 2 2 2 2 2 2 2 2 2 2
left_child=1 5 3 -3 -4 7 -7 -1 -2 -10 -11
right_child=8 2 4 -5 -6 6 -8 -9 9 10 -12
leaf_value=-0.0068284307028455976 -0.0042783624168647371 0.00092090439800961816 -0.003214243527812263 0.011628686309559272 0.00039712630190699586 -0.0019101535152190197 0.0046183527018874883 -0.00082538702861509404 0.0012170742651159388 -0.0037860675581863953 -0.00020256082712234383
leaf_weight=29 23 147 57 30 132 39 25 45 21 21 34
leaf_count=29 23 147 57 30 132 39 25 45 21 21 34
internal_value=0 0.000315949 0.000965689 0.00273578 -0.000692017 -0.00140728 0.000640044 -0.00317793 -0.00160847 -0.000800473 -0.00157081
internal_weight=0 504 366 177 189 138 64 74 99 76 55
internal_count=603 504 366 177 189 138 64 74 99 76 55
is_linear=0
shrinkage=0.1


Tree=56
num_leaves=8
num_cat=0
split_feature=9 10 13 15 15 13 26
split_gain=0.0306347 0.0537315 0.167031 0.109826 0.0754777 0.0475111 0.0213838
threshold=0.71756318872925162 0.10910320098414819 0.3825935529857023 0.063785516642269183 0.25394949473037964 0.82592838806281055 0.96666666666666679
decision_type=2 2 2 2 2 2 2
left_child=1 2 -1 -3 -5 -4 -2
right_child=6 3 5 4 -6 -7 -8
leaf_value=0.0081143735258868248 -0.0049636445264331997 -0.0059978822749408509 -0.0046945773631159688 0.0026208596574094569 -0.00054577377757736723 0.0012049667856339258 -0.00049271730506165036
leaf_weight=33 20 31 20 97 336 43 23
leaf_count=33 20 31 20 97 336 43 23
internal_value=0 0.00019751 0.002351 -0.000248041 0.000163611 -0.000667904 -0.00257222
internal_weight=0 560 96 464 433 63 43
internal_count=603 560 96 464 433 63 43
is_linear=0
shrinkage=0.1


Tree=57
num_leaves=9
num_cat=0
split_feature=14 15 16 14 20 9 7 24
split_gain=0.0341322 0.187208 0.156393 0.0917855 0.109143 0.0388539 0.0602332 0.0518368
threshold=0.27393989654400691 0.11111110123456885 4.0381602026910424e-20 0.50477426020070371 0.47561033376727563 1.0000000180025095e-35 0.99995558046869104 0.061033219705508977
decision_type=2 2 2 2 2 2 2 2
left_child=1 -1 -3 4 -2 7 -7 -5
right_child=3 2 -4 5 -6 6 -8 -9
leaf_value=-0.010317753816634649 0.0085102398314380236 -0.0035211418944134099 0.0063845682419404123 9.3106532512652141e-06 -0.0010266628626379229 0.0067587947717402137 -0.00060394379496574407 -0.003256446722454192
leaf_weight=20 28 37 28 368 21 20 25 56
leaf_count=20 28 37 28 368 21 20 25 56
internal_value=0 -0.00185729 0.000745933 0.000304767 0.004423 -0.000125496 0.00266838 -0.000422016
internal_weight=0 85 65 518 49 469 45 424
internal_count=603 85 65 518 49 469 45 424
is_linear=0
shrinkage=0.1


Tree=58
num_leaves=9
num_cat=0
split_feature=9 25 24 24 15 23 23 13
split_gain=0.0309181 0.0731241 0.0414447 0.0713389 0.281419 0.0551453 0.0466218 0.0989414
threshold=0.17381855659193154 5.5000000000000009 0.061033219705508977 0.023647572912096893 0.25394949473037964 1.7290571056252263e-24 0.16470776843967605 0.97867162525976903
decision_type=2 2 2 2 2 2 2 2
left_child=2 -2 3 5 -5 -1 7 -4
right_child=1 -3 6 4 -6 -7 -8 -9
leaf_value=-0.0014771351918943766 0.00084449409512350998 -0.0062798818293958907 0.0047123263677349321 0.01239317806660741 0.00023394211995131947 0.0010549361275206069 -0.0044656104345277359 -0.0046866400300392087
leaf_weight=160 34 25 24 24 92 186 37 21
leaf_count=160 34 25 24 24 92 186 37 21
internal_value=0 -0.00217431 0.000235817 0.00060354 0.00274965 -0.000115964 -0.00183599 0.000326142
internal_weight=0 59 544 462 116 346 82 45
internal_count=603 59 544 462 116 346 82 45
is_linear=0
shrinkage=0.1


Tree=59
num_leaves=9
num_cat=0
split_feature=14 15 10 16 14 18 15 29
split_gain=0.0288801 0.26681 0.127403 0.127455 0.108364 0.0443863 0.123735 0.0384111
threshold=0.34117722094856179 0.11111110123456885 0.26718436759255559 4.0381602026910424e-20 0.44616078860401071 -1.0590016081056632 0.46143703064447866 0.8587338160007133
decision_type=2 2 2 2 2 2 2 2
left_child=1 -1 3 -3 -2 6 -6 -7
right_child=4 2 -4 -5 5 7 -8 -9
leaf_value=-0.011557908289666687 0.0073358242178247091 -0.00028769271448254586 -0.0040360967122853317 0.01018674921055901 0.0089726622437592603 -0.0007481569369385448 -0.00054800580729470522 0.0020431076535922395
leaf_weight=21 21 26 29 21 20 365 43 57
leaf_count=21 21 26 29 21 20 365 43 57
internal_value=0 -0.00158063 0.00117625 0.00439238 0.000303006 -1.50753e-06 0.00247443 -0.000371138
internal_weight=0 97 76 47 506 485 63 422
internal_count=603 97 76 47 506 485 63 422
is_linear=0
shrinkage=0.1


Tree=60
num_leaves=7
num_cat=0
split_feature=9 25 22 12 12 15
split_gain=0.0280389 0.0601532 0.0391106 0.0428926 0.122908 0.029434
threshold=0.17381855659193154 5.5000000000000009 0.99999987331014928 0.6217782710071893 0.57083586312979573 0.28053138663799876
decision_type=2 2 2 2 2 2
left_child=2 -2 3 4 -1 -5
right_child=1 -3 -4 5 -6 -7
leaf_value=0.00064947848328353157 0.00066740585573236738 -0.0057942785010673108 -0.0030593562729978553 -0.0036270371622181144 0.008577613461585273 -0.00018871829384310828
leaf_weight=284 34 25 34 29 21 176
leaf_count=284 34 25 34 29 21 176
internal_value=0 -0.0020706 0.000224568 0.000443497 0.00119535 -0.000675115
internal_weight=0 59 544 510 305 205
internal_count=603 59 544 510 305 205
is_linear=0
shrinkage=0.1


Tree=61
num_leaves=7
num_cat=0
split_feature=21 29 29 10 29 24
split_gain=0.0262877 0.0522841 0.139201 0.133121 0.0845439 0.0499103
threshold=0.99999987723746864 0.69542327819750183 0.76844393876047268 0.52406070826801998 0.63780970498017775 0.072539319876672656
decision_type=2 2 2 2 2 2
left_child=1 4 -3 -4 5 -1
right_child=-2 2 3 -5 -6 -7
leaf_value=-0.00022481812177076535 0.0029374787174737292 -0.0093640427038605735 -0.002463321127446301 0.0056201632893471808 0.006019401466008276 0.004668736168175449
leaf_weight=396 29 21 83 27 25 22
leaf_count=396 29 21 83 27 25 22
internal_value=0 -0.000148409 -0.00190348 -0.000479193 0.000370585 3.27374e-05
internal_weight=0 574 131 110 443 418
internal_count=603 574 131 110 443 418
is_linear=0
shrinkage=0.1


Tree=62
num_leaves=8
num_cat=0
split_feature=15 16 19 17 27 18 25
split_gain=0.0251871 0.0324478 0.070644 0.230713 0.104279 0.0588703 0.0357905
threshold=0.98555905529220722 0.63097845537905439 1.0000000180025095e-35 0.11079494266469909 0.52033457159996044 0.19378084166244922 5.5000000000000009
decision_type=2 2 2 2 2 2 2
left_child=1 2 4 -4 -1 -3 -7
right_child=-2 5 3 -5 -6 6 -8
leaf_value=-0.0011268140181495514 -0.0032454885539861967 -0.0046491706286490497 0.0072313640303287565 -0.0013538776242057794 0.0043585606373664808 -0.0012100673285266846 0.0019987539747369667
leaf_weight=224 23 35 58 68 41 101 53
leaf_count=224 23 35 58 68 41 101 53
internal_value=0 0.0001287 0.000648721 0.00259806 -0.000278133 -0.00094711 -0.000105733
internal_weight=0 580 391 126 265 189 154
internal_count=603 580 391 126 265 189 154
is_linear=0
shrinkage=0.1


Tree=63
num_leaves=11
num_cat=0
split_feature=19 19 20 15 14 14 14 17 29 16
split_gain=0.0274165 0.077776 0.264334 0.0832492 0.074335 0.0669501 0.0502384 0.0310809 0.0139118 0.00697516
threshold=0.99999860448640432 0.4345106617800491 0.71690279011073244 0.10366260526717343 0.8266022750179568 0.034286334252124025 0.53156344455335436 0.99999003521543328 0.5708201136505614 0.99999978376328558
decision_type=2 2 2 2 2 2 2 2 2 2
left_child=1 3 -3 4 -1 -5 -2 -4 9 -8
right_child=6 2 7 5 -6 -7 8 -9 -10 -11
leaf_value=-0.007497439912424006 -0.0058628882658446121 0.0098360215961084962 -0.0025308726430431799 0.0053664519269343309 0.0003147551124649389 -0.00022788868350438315 -0.00040841336691907303 0.001219292257583755 -0.0024177441616421162 0.0018903281843615169
leaf_weight=29 21 35 39 23 21 306 33 51 23 22
leaf_count=29 21 35 39 23 21 306 33 51 23 22
internal_value=0 0.000298848 0.00246193 -0.000414568 -0.00421632 0.000163205 -0.00152141 -0.000405779 -0.000352545 0.000511083
internal_weight=0 504 125 379 50 329 99 90 78 55
internal_count=603 504 125 379 50 329 99 90 78 55
is_linear=0
shrinkage=0.1


Tree=64
num_leaves=9
num_cat=0
split_feature=2 19 27 17 29 14 25 23
split_gain=0.0262098 0.0435972 0.0357319 0.119547 0.0612192 0.0227961 0.00936022 0.0126913
threshold=1.0000000180025095e-35 -4.3239969336141169 0.35600894689559942 1.0000000180025095e-35 0.69542327819750183 0.58433390814245445 4.5000000000000009 1.6581339711654468e-24
decision_type=2 2 2 2 2 2 2 2
left_child=1 -1 3 -3 -4 -2 -7 -8
right_child=5 2 4 -5 -6 6 7 -9
leaf_value=0.0047526413463943066 -0.0045034108434629161 -0.00061661269373766486 0.00032285160563068176 0.0039452956908187552 -0.0032042485706457132 0.00074500735375165406 -0.0034945372026413679 -0.00026350267111293734
leaf_weight=21 20 173 151 86 73 28 20 31
leaf_count=21 20 173 151 86 73 28 20 31
internal_value=0 0.000292197 9.82648e-05 0.000898152 -0.000826605 -0.00148755 -0.00072404 -0.00153058
internal_weight=0 504 483 259 224 99 79 51
internal_count=603 504 483 259 224 99 79 51
is_linear=0
shrinkage=0.1


Tree=65
num_leaves=7
num_cat=0
split_feature=22 9 25 12 27 27
split_gain=0.0246582 0.0315172 0.0398472 0.0389236 0.102693 0.0291599
threshold=0.99999987331014928 0.17381855659193154 4.5000000000000009 0.6217782710071893 0.15858601033687594 0.53567370772361766
decision_type=2 2 2 2 2 2
left_child=1 3 -3 4 -1 -5
right_child=-2 2 -4 5 -6 -7
leaf_value=-0.0048835299909114841 -0.0024657786492944551 0.00095060609631521719 -0.0044768215401188262 -0.00013208270339778528 0.0016874859504248134 -0.0033773354212330146
leaf_weight=26 38 24 31 172 279 33
leaf_count=26 38 24 31 172 279 33
internal_value=0 0.00016584 -0.00210849 0.000411111 0.00112733 -0.000654489
internal_weight=0 565 55 510 305 205
internal_count=603 565 55 510 305 205
is_linear=0
shrinkage=0.1


Tree=66
num_leaves=11
num_cat=0
split_feature=19 19 20 15 27 15 14 15 29 16
split_gain=0.0250467 0.0552892 0.215103 0.0694474 0.0663637 0.0572996 0.0402926 0.0282375 0.0107574 0.00475043
threshold=0.99999860448640432 0.4345106617800491 0.71690279011073244 0.10366260526717343 0.21713954210281375 0.22941969735294079 0.53156344455335436 0.42539167609685591 0.5708201136505614 0.99999978376328558
decision_type=2 2 2 2 2 2 2 2 2 2
left_child=1 3 -3 4 -1 -5 -2 -4 9 -8
right_child=6 2 7 5 -6 -7 8 -9 -10 -11
leaf_value=0.00067376168444752702 -0.0053422259211185433 0.0087614505538450831 -0.0027507451355203933 0.0033292609746567907 -0.0067628404404968022 -0.00034683283097544643 -0.00040677214635775964 0.00090268728454248051 -0.0022234161409711386 0.0014902800427411091
leaf_weight=20 21 35 34 50 30 279 33 56 23 22
leaf_count=20 21 35 34 50 30 279 33 56 23 22
internal_value=0 0.00028564 0.00210941 -0.000315866 -0.0037882 0.000211844 -0.00145417 -0.000477498 -0.000407383 0.000352049
internal_weight=0 504 125 379 50 329 99 90 78 55
internal_count=603 504 125 379 50 329 99 90 78 55
is_linear=0
shrinkage=0.1


Tree=67
num_leaves=11
num_cat=0
split_feature=22 18 18 13 29 27 19 15 29 26
split_gain=0.0246947 0.111462 0.0589394 0.069991 0.143143 0.0503127 0.123038 0.0863092 0.0486093 0.0307402
threshold=0.12378189851518155 0.2499925188252686 0.36366001633338291 0.73827766216613211 0.72786447472591609 0.47928099334239965 -1.0154653573478767 0.3629023932816931 0.59911479069402673 0.83974358974358987
decision_type=2 2 2 2 2 2 2 2 2 2
left_child=1 5 8 9 -5 7 -7 -1 -2 -4
right_child=2 -3 3 4 -6 6 -8 -9 -10 -11
leaf_value=-0.0030472636082852964 -0.0007112392346607521 0.0063584566387968767 -0.0064070275452520172 -0.00025941142708675585 0.0087970742490142591 0.0089874945417977876 -0.00014980427723847764 0.00074105551102095994 -0.007599778619727918 -0.00099626621674923682
leaf_weight=96 20 30 21 137 20 20 56 161 21 21
leaf_count=96 20 30 21 137 20 20 56 161 21 21
internal_value=0 0.00052035 -0.00078703 -7.57138e-05 0.000894281 -5.60516e-06 0.00225475 -0.000674036 -0.00423952 -0.00370165
internal_weight=0 363 240 199 157 333 76 257 41 42
internal_count=603 363 240 199 157 333 76 257 41 42
is_linear=0
shrinkage=0.1


Tree=68
num_leaves=11
num_cat=0
split_feature=15 12 12 12 22 16 26 27 7 25
split_gain=0.02712 0.0544491 0.0751213 0.0436723 0.0552035 0.136137 0.0197542 0.0195274 0.0183319 0.00828137
threshold=0.83429289736397172 0.47987117533021645 0.27272727666725888 0.86610644244436719 -1.0348887667743942 -1.0102377651255838 0.80909090909090919 0.53080475330352794 0.97753376992354979 5.5000000000000009
decision_type=2 2 2 2 2 2 2 2 2 2
left_child=3 2 -2 4 6 -6 -1 9 -5 -3
right_child=1 7 -4 8 5 -7 -8 -9 -10 -11
leaf_value=-0.0041696484621542582 -0.00077855762065155438 -0.00019002247900061777 -0.0085911149228923029 -0.0035823852453985535 0.0092300303000956777 0.0007288542699836713 -0.00043199196863438814 -0.0025112663902109489 0.00013536717729688722 0.0019565505992476377
leaf_weight=26 32 32 20 36 20 324 31 20 21 41
leaf_count=26 32 32 20 36 20 324 31 20 21 41
internal_value=0 -0.00119189 -0.00378339 0.000377344 0.000745503 0.00122311 -0.00213689 0.000257124 -0.00221269 0.00101559
internal_weight=0 145 52 458 401 344 57 93 57 73
internal_count=603 145 52 458 401 344 57 93 57 73
is_linear=0
shrinkage=0.1


Tree=69
num_leaves=10
num_cat=0
split_feature=2 21 21 20 12 23 14 21 29
split_gain=0.0246458 0.0385847 0.161242 0.0860493 0.0490896 0.0458801 0.0199119 0.00807229 0.00745242
threshold=1.0000000180025095e-35 0.48355001273930892 0.13705972924692003 0.62874530262891748 0.39248887438390917 0.58990760907859763 0.58433390814245445 0.72477460727138998 0.28068406511856286
decision_type=2 2 2 2 2 2 2 2 2
left_child=1 2 4 -3 -1 -5 -2 8 -8
right_child=6 3 -4 5 -6 -7 7 -9 -10
leaf_value=0.0017120651365783288 -0.0042611047046375462 -0.0057808083091532032 0.0093280393469502183 0.0035199441855850938 -0.00070687481268971936 -0.0010900261023462836 -0.00045182784462148063 0.00056297465945438795 -0.0029438855387048709
leaf_weight=144 20 31 21 30 201 77 28 30 21
leaf_count=144 20 31 21 30 201 77 28 30 21
internal_value=0 0.000283344 0.000820613 -0.00114159 0.00030277 0.000202489 -0.00144248 -0.000728906 -0.00151985
internal_weight=0 504 366 138 345 107 99 79 49
internal_count=603 504 366 138 345 107 99 79 49
is_linear=0
shrinkage=0.1


Tree=70
num_leaves=11
num_cat=0
split_feature=14 11 12 22 18 13 18 12 16 11
split_gain=0.0225143 0.0552049 0.109083 0.0484758 0.150849 0.0723196 0.060094 0.0690858 0.0185067 0.0329504
threshold=0.99999991961381951 0.28571428556122452 0.66666666620370374 0.12378189851518155 0.2499925188252686 0.5237195609313644 0.36366001633338291 0.43164571294482657 0.99999854971210589 0.5070175438017237
decision_type=2 2 2 2 2 2 2 2 2 2
left_child=3 2 -2 4 5 -1 -5 -8 9 -3
right_child=1 8 -4 6 -6 -7 7 -9 -10 -11
leaf_value=-0.0019100598821087797 -0.0094895311235450221 0.0042978573830277176 0.00071462400109422483 -0.0047999725098524133 0.009106775622984226 0.0016453217905447156 -0.0021837082028995564 0.0021389628760516643 -0.0023653828295540406 -0.00035849792617227651
leaf_weight=85 20 21 22 33 22 175 76 72 22 55
leaf_count=85 20 21 22 33 22 175 76 72 22 55
internal_value=0 -0.00111121 -0.0041445 0.000336004 0.00115576 0.000482985 -0.000941191 -8.07871e-05 0.000188767 0.000928127
internal_weight=0 140 42 463 282 260 181 148 98 76
internal_count=603 140 42 463 282 260 181 148 98 76
is_linear=0
shrinkage=0.1


Tree=71
num_leaves=11
num_cat=0
split_feature=13 13 15 29 29 29 29 29 11 15
split_gain=0.0217255 0.0581556 0.118242 0.0899656 0.0673469 0.151436 0.0937946 0.0479581 0.016569 0.0216924
threshold=0.99870338631743749 0.85667526619164402 0.15854551089452093 0.63780970498017775 0.69542327819750183 0.89072575627166961 0.58368844613146564 0.64485796894572245 0.89082848409221438 0.38366570931116201
decision_type=2 2 2 2 2 2 2 2 2 2
left_child=1 4 -3 -4 6 -6 -1 8 9 -2
right_child=7 2 3 -5 5 -7 -8 -9 -10 -11
leaf_value=-0.0003866022951174795 -0.0031390482124362068 0.0085828314292366089 -0.00093862781191192976 0.0048115277137511818 -0.0086576006856971775 0.00056953326313068044 0.0067071977367793969 -0.0039574529653271804 0.0021846885529898659 6.2153239131086085e-06
leaf_weight=122 26 23 90 39 29 46 22 39 27 140
leaf_count=122 26 23 90 39 29 46 22 39 27 140
internal_value=0 0.000474661 0.00197749 0.000799791 -0.000568397 -0.00299829 0.000697173 -0.000759048 -0.000112738 -0.000486416
internal_weight=0 371 152 129 219 75 144 232 193 166
internal_count=603 371 152 129 219 75 144 232 193 166
is_linear=0
shrinkage=0.1


Tree=72
num_leaves=10
num_cat=0
split_feature=10 15 10 15 12 12 12 29 27
split_gain=0.0228312 0.0849044 0.1023 0.099666 0.0611343 0.11225 0.122402 0.0755564 0.00762215
threshold=0.2873707427475663 0.050505049216632826 0.25421738303883529 0.15563461437509959 0.3475506756147681 0.43926448419638536 0.49999999947916668 0.55512403614044226 0.24574041366577151
decision_type=2 2 2 2 2 2 2 2 2
left_child=1 -1 3 -3 7 -6 -7 8 -2
right_child=4 2 -4 -5 5 6 -8 -9 -10
leaf_value=0.0063850260440328089 -0.002339999719887324 -0.0052118766963338628 0.0056776702829540292 0.00042937301773264558 0.0059193925000727184 -0.0080576422654849017 9.5698417916192461e-05 -0.008183243642339395 0.00015911420431131355
leaf_weight=24 23 39 29 159 30 20 232 21 26
leaf_count=24 23 39 29 159 30 20 232 21 26
internal_value=0 0.000728686 0.000130659 -0.000681782 -0.000519603 0.000136989 -0.000551392 -0.00316473 -0.00101394
internal_weight=0 251 227 198 352 282 252 70 49
internal_count=603 251 227 198 352 282 252 70 49
is_linear=0
shrinkage=0.1


Tree=73
num_leaves=11
num_cat=0
split_feature=12 15 15 27 10 29 27 15 11 12
split_gain=0.0222796 0.0348811 0.0683565 0.0684743 0.0392835 0.0525961 0.0335317 0.0202741 0.0130504 0.00204042
threshold=0.86610644244436719 0.79077716831416811 0.70658921402764197 0.15858601033687594 0.35196987510956829 0.54353308220528995 0.53080475330352794 0.47143906081286174 0.45454545423553722 0.96849612399286888
decision_type=2 2 2 2 2 2 2 2 2 2
left_child=1 2 3 -1 5 -3 7 -2 -6 -9
right_child=6 4 -4 -5 8 -7 -8 9 -10 -11
leaf_value=-0.0043510914804885817 -0.0028794018973712812 -0.00087057453961784232 0.0061403339752525259 0.00079545954594854775 0.0026135416264878586 -0.0072665192958083942 -0.0050255946791730828 7.1735596247890501e-05 -0.00051500541456334765 0.0012914910453522075
leaf_weight=28 24 36 22 337 20 20 20 32 40 24
leaf_count=28 24 36 22 337 20 20 20 32 40 24
internal_value=0 0.000271026 0.000726942 0.000400656 -0.00125 -0.00315484 -0.00136326 -0.000447679 0.000527844 0.000594488
internal_weight=0 503 387 365 116 56 100 80 60 56
internal_count=603 503 387 365 116 56 100 80 60 56
is_linear=0
shrinkage=0.1


Tree=74
num_leaves=9
num_cat=0
split_feature=16 16 24 24 20 20 29 12
split_gain=0.0196227 0.0547253 0.0473486 0.0454586 0.0955306 0.0554212 0.0916024 0.044078
threshold=0.63097845537905439 0.41355903620988477 0.22138859097060445 0.017088430609786473 0.99999771676067228 0.99999818729071777 0.63312125075192838 0.40042194071981346
decision_type=2 2 2 2 2 2 2 2
left_child=1 2 7 5 -5 -2 -7 -1
right_child=3 -3 -4 4 -6 6 -8 -9
leaf_value=0.0011428487265948207 0.0037273775122946863 0.0052420752048915765 0.0048543767569935881 -0.0085627832982156961 -7.5909128645434984e-05 0.00049274435356293428 -0.0070552493631839755 -0.0010715283023537013
leaf_weight=155 33 22 20 21 36 82 20 214
leaf_count=155 33 22 20 21 36 82 20 214
internal_value=0 0.000389897 0.000115481 -0.000834623 -0.00320265 0.000165211 -0.000987254 -0.00014137
internal_weight=0 411 389 192 57 135 102 369
internal_count=603 411 389 192 57 135 102 369
is_linear=0
shrinkage=0.1


Tree=75
num_leaves=12
num_cat=0
split_feature=2 25 14 29 11 10 29 10 14 10 29
split_gain=0.0198533 0.0361628 0.0749118 0.125578 0.060708 0.0349712 0.0747612 0.0379409 0.0181299 0.00880323 0.0104596
threshold=1.0000000180025095e-35 3.5000000000000004 0.9749376417991712 0.58368844613146564 0.33333333287037042 0.52406070826801998 0.70425097496719757 0.71372047510673786 0.58433390814245445 0.188793411732467 0.51759784212679461
decision_type=2 2 2 2 2 2 2 2 2 2 2
left_child=1 5 3 -3 -4 6 -1 -7 -2 -10 -11
right_child=8 2 4 -5 -6 7 -8 -9 9 10 -12
leaf_value=-5.3605244708402704e-05 -0.0039842045051045718 0.00010791119007080852 -0.003738072032108903 0.0051981523500170372 0.00046436890605202117 0.0041431159115745686 -0.0058691478321062675 -0.0017993539438716005 0.0011405726612013366 -0.00019915789016522467 -0.0029667898519123398
leaf_weight=60 20 128 50 78 110 22 35 21 21 36 22
leaf_count=60 20 128 50 78 110 22 35 21 21 36 22
internal_value=0 0.000254308 0.000774441 0.00203528 -0.000848894 -0.00112518 -0.00219617 0.00124098 -0.00129466 -0.00061376 -0.00124895
internal_weight=0 504 366 206 160 138 95 43 99 79 58
internal_count=603 504 366 206 160 138 95 43 99 79 58
is_linear=0
shrinkage=0.1


Tree=76
num_leaves=12
num_cat=0
split_feature=19 19 14 29 15 27 15 3 14 29 16
split_gain=0.0185577 0.0456209 0.177669 0.388154 0.0606482 0.0607422 0.0479264 0.03788 0.0285506 0.0086073 0.00502755
threshold=0.99999860448640432 0.4345106617800491 0.95379381744630554 0.58368844613146564 0.10366260526717343 0.21713954210281375 0.22941969735294079 1.0000000180025095e-35 0.53156344455335436 0.5708201136505614 0.99999978376328558
decision_type=2 2 2 2 2 2 2 2 2 2 2
left_child=1 4 3 -3 5 -1 -6 -4 -2 10 -10
right_child=8 2 7 -5 6 -7 -8 -9 9 -11 -12
leaf_value=0.00072337439283728607 -0.0045245658805859942 -0.0010291563498321921 -0.0049876450706506153 0.016458507313456557 0.0030436890907585626 -0.0063912942974517746 -0.00031831495170827831 0.00011991818181792591 -0.00047187556117547286 -0.001994986141242249 0.0014797263254877182
leaf_weight=20 21 30 20 22 50 30 279 53 33 23 22
leaf_count=20 21 30 20 22 50 30 279 53 33 23 22
internal_value=0 0.00024587 0.00190252 0.00636947 -0.000300519 -0.00354543 0.000192628 -0.00127941 -0.0012517 -0.000370546 0.000308765
internal_weight=0 504 125 52 379 50 329 73 99 78 55
internal_count=603 504 125 52 379 50 329 73 99 78 55
is_linear=0
shrinkage=0.1


Tree=77
num_leaves=10
num_cat=0
split_feature=16 15 15 14 14 12 10 11 12
split_gain=0.0179884 0.087883 0.0378259 0.115536 0.102043 0.221406 0.100279 0.0426871 0.00573348
threshold=-1.1106919224252889 0.3629023932816931 0.19004828375834518 0.34117722094856179 0.35409541004183642 0.26315789465027706 0.122908268951563 0.45804195784989493 0.79238505734321862
decision_type=2 2 2 2 2 2 2 2 2
left_child=1 -1 3 -2 5 -4 -5 -6 -3
right_child=2 8 4 6 7 -7 -8 -9 -10
leaf_value=0.0069496380364788436 -0.006329996241746765 -0.001560816178486372 0.010744581433633965 0.0056288029259144428 -0.0015186125520829559 -0.0018390899732837391 -0.0018079706970831576 0.000725918108422098 0.00042886508007151339
leaf_weight=21 38 30 27 25 167 29 66 172 28
leaf_count=21 38 30 27 25 167 29 66 172 28
internal_value=0 0.00140666 -0.000212073 -0.00169881 0.000273468 0.00422804 0.000235099 -0.000379795 -0.00060028
internal_weight=0 79 524 129 395 56 91 339 58
internal_count=603 79 524 129 395 56 91 339 58
is_linear=0
shrinkage=0.1


Tree=78
num_leaves=8
num_cat=0
split_feature=21 29 26 12 14 19 9
split_gain=0.0184568 0.034805 0.1147 0.0892527 0.0526289 0.110995 0.0269922
threshold=0.99999989452268234 0.69542327819750183 0.92261904761904778 0.45190529039263616 0.51125479444703748 1.0000000180025095e-35 0.024448419672019175
decision_type=2 2 2 2 2 2 2
left_child=1 4 3 -3 5 -1 -6
right_child=-2 2 -4 -5 6 -7 -8
leaf_value=-0.0015867238617776073 0.0026062750812763207 -0.0025723660917226542 -0.0072245649062097073 0.0033404582539676795 -0.00045164907126758204 0.0060590692871618414 0.0026318716667329653
leaf_weight=34 26 59 28 45 337 43 31
leaf_count=34 26 59 28 45 337 43 31
internal_value=0 -0.00011744 -0.00154346 -1.39325e-05 0.000305559 0.002683 -0.000191896
internal_weight=0 577 132 104 445 77 368
internal_count=603 577 132 104 445 77 368
is_linear=0
shrinkage=0.1


Tree=79
num_leaves=6
num_cat=0
split_feature=9 25 10 10 10
split_gain=0.018075 0.0355538 0.0345977 0.0457465 0.0755193
threshold=0.17381855659193154 5.5000000000000009 0.019260996434226546 0.056535716097969084 0.10910320098414819
decision_type=2 2 2 2 2
left_child=2 -2 -1 -4 -5
right_child=1 -3 3 4 -6
leaf_value=0.0041601394391840418 0.00044250605672406149 -0.0045252386946231125 -0.0039118423692083787 0.0042994324420717366 -0.00013316058488930195
leaf_weight=21 34 25 28 42 453
leaf_count=21 34 25 28 42 453
internal_value=0 -0.00166247 0.000180305 2.05025e-05 0.000242938
internal_weight=0 59 544 523 495
internal_count=603 59 544 523 495
is_linear=0
shrinkage=0.1


Tree=80
num_leaves=6
num_cat=0
split_feature=22 21 15 24 27
split_gain=0.0177151 0.0221593 0.027149 0.0689589 0.0594658
threshold=0.99999991241497377 0.99999989452268234 0.46400060413259731 0.028571823002379832 0.75152546167373668
decision_type=2 2 2 2 2
left_child=1 2 3 -1 -4
right_child=-2 -3 4 -5 -6
leaf_value=-0.00026825402339173543 -0.0025533732219348449 0.0033854734260239643 -0.00029948936438015637 0.0032370355152585486 -0.0059637054894119508
leaf_weight=207 26 20 253 77 20
leaf_count=207 26 20 253 77 20
internal_value=0 0.000115057 -2.37301e-06 0.000682124 -0.00071445
internal_weight=0 577 557 284 273
internal_count=603 577 557 284 273
is_linear=0
shrinkage=0.1


Tree=81
num_leaves=9
num_cat=0
split_feature=14 27 10 24 10 19 14 17
split_gain=0.018655 0.089144 0.0778274 0.0562751 0.0490894 0.03003 0.12087 0.0700412
threshold=0.27393989654400691 0.37480136752128607 0.26718436759255559 0.20225324200102379 0.11111111094955177 0.53005759834306898 0.59619528131009203 0.13965591667072788
decision_type=2 2 2 2 2 2 2 2
left_child=1 2 -1 5 -3 7 -7 -2
right_child=3 4 -4 -5 -6 6 -8 -9
leaf_value=0.0059587366878986366 4.2234914529206896e-05 -0.0011822514329105616 -0.0024526950310577045 0.0048538816310465336 -0.0081047217051188163 0.0071839187268374696 -6.2786830284704384e-05 -0.0040781662124684277
leaf_weight=22 261 20 22 25 21 27 156 49
leaf_count=22 261 20 22 25 21 27 156 49
internal_value=0 -0.00137307 0.00175302 0.000225311 -0.00472791 -9.40319e-06 0.0010064 -0.000609054
internal_weight=0 85 44 518 41 493 183 310
internal_count=603 85 44 518 41 493 183 310
is_linear=0
shrinkage=0.1


Tree=82
num_leaves=9
num_cat=0
split_feature=27 12 15 25 24 29 12 13
split_gain=0.0167919 0.0438255 0.0260045 0.0709314 0.178837 0.0436077 0.0258636 0.0543204
threshold=0.13226661086082461 0.64191780811107979 0.46400060413259731 3.5000000000000004 0.028571823002379832 0.69542327819750183 0.14096499516298519 0.73244138767255118
decision_type=2 2 2 2 2 2 2 2
left_child=1 -1 3 5 -5 -2 -4 -8
right_child=2 -3 6 4 -6 -7 7 -9
leaf_value=-0.0053039080114831456 7.7561935083189561e-05 0.0012368911927166796 0.0023928572372015982 0.00037024754214488973 0.0079560354622513745 -0.0045159671620856375 -0.00538835032687833 -0.00038464783852614989
leaf_weight=20 62 21 27 153 39 31 24 226
leaf_count=20 62 21 27 153 39 31 24 226
internal_value=0 -0.00195374 0.000142533 0.000813148 0.00191111 -0.00145361 -0.00054745 -0.000865003
internal_weight=0 41 562 285 192 93 277 250
internal_count=603 41 562 285 192 93 277 250
is_linear=0
shrinkage=0.1


Tree=83
num_leaves=12
num_cat=0
split_feature=16 6 27 3 15 27 18 12 11 27 11
split_gain=0.0155861 0.0396696 0.0578605 0.183145 0.139212 0.0388198 0.038761 0.0373093 0.0302195 0.0420901 0.0378718
threshold=0.63097845537905439 0.92388336238443791 0.28500358760356909 1.0000000180025095e-35 0.093399748249404224 0.47928099334239965 0.03451879080675347 0.80405225256940571 0.28464818751005866 0.64766988158226024 0.13087395692592615
decision_type=2 2 2 2 2 2 2 2 2 2 2
left_child=1 2 3 -1 -4 7 -2 -3 10 -10 -8
right_child=6 5 4 -5 -6 -7 8 -9 9 -11 -12
leaf_value=0.0066320552664213515 -0.0045030458907907214 -0.0028422653803274792 -0.0076239402321251959 -0.001001638036298876 0.001070759728624572 0.0030387397633776778 -0.00040196645474198329 0.00072600164777314707 -0.0002513121387417651 -0.0053129408159293236 0.0049228096296164122
leaf_weight=60 24 84 22 66 113 21 34 45 92 20 22
leaf_count=60 24 84 22 66 113 21 34 45 92 20 22
internal_value=0 0.000347488 0.00109228 0.00263345 -0.000346154 -0.000948445 -0.000743842 -0.00159752 -0.000206813 -0.00115517 0.00168991
internal_weight=0 411 261 126 135 150 192 129 168 112 56
internal_count=603 411 261 126 135 150 192 129 168 112 56
is_linear=0
shrinkage=0.1


Tree=84
num_leaves=10
num_cat=0
split_feature=10 12 12 12 29 10 15 15 27
split_gain=0.016346 0.0568197 0.0828484 0.0919428 0.0581507 0.0553729 0.0699492 0.0818447 0.0076328
threshold=0.2873707427475663 0.3475506756147681 0.43926448419638536 0.49999999947916668 0.55512403614044226 0.25421738303883529 0.050505049216632826 0.15457603897127001 0.24574041366577151
decision_type=2 2 2 2 2 2 2 2 2
left_child=5 4 -3 -4 8 6 -1 -8 -2
right_child=1 2 3 -5 -6 -7 7 -9 -10
leaf_value=0.0052892521696934558 -0.0024298593741031767 0.0051610621070722123 -0.0069036570482421669 0.00016277571206454265 -0.0073924108851878417 0.0046478888609757024 -0.004778087836363026 0.00043763020358196427 7.1001368381145704e-05
leaf_weight=23 23 30 20 232 21 30 37 161 26
leaf_count=23 23 30 20 232 21 30 37 161 26
internal_value=0 -0.000439655 0.000193343 -0.000398052 -0.00298973 0.000616568 6.93304e-05 -0.000537024 -0.00110287
internal_weight=0 352 282 252 70 251 221 198 49
internal_count=603 352 282 252 70 251 221 198 49
is_linear=0
shrinkage=0.1


Tree=85
num_leaves=12
num_cat=0
split_feature=12 29 18 18 20 18 11 11 13 3 10
split_gain=0.016395 0.0317539 0.0306123 0.069087 0.226438 0.0432171 0.0414176 0.0647846 0.0438899 0.00619343 0.00173066
threshold=0.85628227176609573 0.64485796894572245 0.95598259001901176 0.2499925188252686 0.55181885895232718 0.010303437651104785 0.33333333300925927 0.11437908488829084 0.75915539578651259 1.0000000180025095e-35 0.83099744538480202
decision_type=2 2 2 2 2 2 2 2 2 2 2
left_child=2 9 3 5 -5 -1 7 -4 -8 -2 -11
right_child=1 -3 6 4 -6 -7 8 -9 -10 10 -12
leaf_value=0.0004829170140208521 -0.0016306908945331261 -0.0042483387831598529 -0.0024309833010192961 0.012216929341749554 -0.00023305491825643309 -0.003255878060257861 -0.0060438129007816324 0.0043715708556971676 -0.00089472799537565614 -0.00027659256423551902 0.00083251721756395834
leaf_weight=265 21 25 28 21 48 35 25 28 49 24 34
leaf_count=265 21 25 28 21 48 35 25 28 49 24 34
internal_value=0 -0.00114217 0.000238047 0.000702944 0.00355607 4.67243e-05 -0.00108154 0.000970294 -0.00263428 -0.000159204 0.000373575
internal_weight=0 104 499 369 69 300 130 56 74 79 58
internal_count=603 104 499 369 69 300 130 56 74 79 58
is_linear=0
shrinkage=0.1


Tree=86
num_leaves=10
num_cat=0
split_feature=29 27 11 12 29 29 20 24 10
split_gain=0.0151781 0.0659357 0.177155 0.158489 0.0757686 0.0474886 0.155068 0.0357534 0.0283155
threshold=0.69542327819750183 0.37153078615665441 0.23076923065088759 0.77525252505669073 0.89072575627166961 0.58368844613146564 0.68451177003134422 0.076021072689762048 0.033997219560298476
decision_type=2 2 2 2 2 2 2 2 2
left_child=5 2 -2 -4 -3 7 -7 8 -1
right_child=1 4 3 -5 -6 6 -8 -9 -10
leaf_value=-0.0039930774539243428 -0.0053821289737243207 -0.0059802156992447685 0.011503147072203103 -0.00093533560400828721 0.0002940940765639473 0.0098303093996253768 -0.00082815422210842377 0.0040071476978482679 -0.00012757707876129106
leaf_weight=20 24 39 21 20 38 21 39 20 361
leaf_count=20 24 39 21 20 38 21 39 20 361
internal_value=0 -0.000903976 0.00144136 0.00543559 -0.0028838 0.000278448 0.00290231 -0.000114149 -0.00033049
internal_weight=0 142 65 41 77 461 60 401 381
internal_count=603 142 65 41 77 461 60 401 381
is_linear=0
shrinkage=0.1


Tree=87
num_leaves=7
num_cat=0
split_feature=27 12 13 14 24 24
split_gain=0.0151095 0.0337783 0.0278981 0.0538958 0.0435366 0.0399601
threshold=0.13226661086082461 0.64191780811107979 0.025123804180181685 0.27393989654400691 0.20225324200102379 0.01789325791573293
decision_type=2 2 2 2 2 2
left_child=1 -1 -2 5 -5 -4
right_child=2 -3 3 4 -6 -7
leaf_value=-0.004794468213804067 0.0029116977663601147 0.00094783750966945214 -0.00072931971101622504 6.5443027298833689e-05 0.0045245561981573706 -0.0064999430617761053
leaf_weight=20 34 21 28 456 23 21
leaf_count=20 34 21 28 456 23 21
internal_value=0 -0.00185329 0.000135204 -4.35851e-05 0.000279555 -0.00320244
internal_weight=0 41 562 528 479 49
internal_count=603 41 562 528 479 49
is_linear=0
shrinkage=0.1


Tree=88
num_leaves=10
num_cat=0
split_feature=10 10 29 29 14 13 4 14 29
split_gain=0.0144488 0.0493064 0.0576737 0.0531793 0.0444503 0.132128 0.067999 0.0567535 0.0260405
threshold=0.2873707427475663 0.35196987510956829 0.91861007588694932 0.64173082192827335 0.93994907493780533 0.86549531501305987 0.52901781111563262 0.98104265907905475 0.54353308220528995
decision_type=2 2 2 2 2 2 2 2 2
left_child=4 -2 3 -3 5 6 -1 -6 -9
right_child=1 2 -4 -5 7 -7 -8 8 -10
leaf_value=0.00222439163493158 -0.0038155044992699439 0.00012248900169828221 0.0044169560178286505 -0.0038499203319541917 -0.0058744247435242869 0.0087906294125291006 -0.0023606534547585432 -0.0010220589634318802 0.0032127442723140125
leaf_weight=83 38 248 27 39 20 22 53 53 20
leaf_count=83 38 248 27 39 20 22 53 53 20
internal_value=0 -0.000413355 -1.62996e-06 -0.000417316 0.000579685 0.00160066 0.000437573 -0.00115487 0.000138161
internal_weight=0 352 314 287 251 158 136 93 73
internal_count=603 352 314 287 251 158 136 93 73
is_linear=0
shrinkage=0.1


Tree=89
num_leaves=10
num_cat=0
split_feature=29 27 11 12 27 29 20 13 27
split_gain=0.017231 0.0551933 0.139429 0.130442 0.0654498 0.0390044 0.123524 0.0299583 0.0274904
threshold=0.69542327819750183 0.37153078615665441 0.23076923065088759 0.77525252505669073 0.78400787711143505 0.58368844613146564 0.68451177003134422 0.035279812683541467 0.48788574337959295
decision_type=2 2 2 2 2 2 2 2 2
left_child=5 2 -2 -4 -3 7 -7 -1 -9
right_child=1 4 3 -5 -6 6 -8 8 -10
leaf_value=0.003713419786654413 -0.0048708681463419147 -0.0056524037204396266 0.010230691340707598 -0.0010536625096574427 0.00017903272038031568 0.0088579566772317604 -0.00065485108586868501 -0.00069507070411146737 0.0013905007827588634
leaf_weight=20 24 39 21 20 38 21 39 301 80
leaf_count=20 24 39 21 20 38 21 39 301 80
internal_value=0 -0.00096317 0.00118262 0.00472613 -0.00277455 0.000296681 0.00267463 -5.91218e-05 -0.000257155
internal_weight=0 142 65 41 77 461 60 401 381
internal_count=603 142 65 41 77 461 60 401 381
is_linear=0
shrinkage=0.1


Tree=90
num_leaves=11
num_cat=0
split_feature=19 19 23 15 27 26 15 14 19 10
split_gain=0.0151137 0.0335392 0.115171 0.0428341 0.041368 0.0381121 0.0367463 0.025577 0.00703708 0.0076491
threshold=0.99999860448640432 0.4345106617800491 0.54407223094901969 0.10366260526717343 0.21713954210281375 0.63961038961038963 0.17596274876879628 0.53156344455335436 0.99999979878775613 0.19642803429345088
decision_type=2 2 2 2 2 2 2 2 2 2
left_child=1 3 -3 4 -1 -4 -5 -2 -9 -10
right_child=7 2 5 6 -6 -7 -8 8 9 -11
leaf_value=0.00054922141134738922 -0.0042273382096373966 0.0070438666983197139 -0.0039421052369289101 0.003333013834939762 -0.0053221790616710986 0.00097090585366822789 -0.00018503396353038181 -0.001913106117863208 -0.0012068602970843629 0.0011599124231401624
leaf_weight=20 21 30 20 33 30 75 296 20 22 36
leaf_count=20 21 30 20 33 30 75 296 20 22 36
internal_value=0 0.000221886 0.00164233 -0.0002466 -0.00297362 -6.34123e-05 0.00016784 -0.0011296 -0.000295592 0.000262171
internal_weight=0 504 125 379 50 95 329 99 78 58
internal_count=603 504 125 379 50 95 329 99 78 58
is_linear=0
shrinkage=0.1


Tree=91
num_leaves=10
num_cat=0
split_feature=10 12 12 12 24 15 15 10 16
split_gain=0.0145238 0.0427912 0.0936774 0.078322 0.0410417 0.0399573 0.0662882 0.0577877 0.00369225
threshold=0.2873707427475663 0.36914203312361271 0.43926448419638536 0.49999999947916668 0.02242788819544651 0.050505049216632826 0.11111110123456885 0.19642803429345088 0.43074224764946378
decision_type=2 2 2 2 2 2 2 2 2
left_child=5 4 -3 -4 8 -1 -7 -8 -2
right_child=1 2 3 -5 -6 6 7 -9 -10
leaf_value=0.004461514388094656 -0.0017132675564581795 0.0062782432033639882 -0.0063930060132406652 0.00012903113868105722 -0.0062681744252109824 -0.0049183480684523995 -0.00034169510690844622 0.0033521264847756055 -3.6024412284383465e-05
leaf_weight=24 35 23 20 232 21 23 144 60 21
leaf_count=24 35 23 20 232 21 23 144 60 21
internal_value=0 -0.000414426 0.000168999 -0.000388591 -0.00249808 0.000581187 0.000170932 0.000744723 -0.0010843
internal_weight=0 352 275 252 77 251 227 204 56
internal_count=603 352 275 252 77 251 227 204 56
is_linear=0
shrinkage=0.1


Tree=92
num_leaves=12
num_cat=0
split_feature=22 17 27 22 25 13 27 15 19 23 27
split_gain=0.01577 0.0495107 0.117805 0.0493489 0.0618493 0.0476537 0.0746223 0.0606242 0.0366812 0.0248412 0.0340092
threshold=0.12378189851518155 1.0000000180025095e-35 0.3051761686801911 0.77404432088089881 9.5000000000000018 0.40999786599713445 0.46045668423175817 0.17596274876879628 0.6544890974100589 0.18981337084949598 0.67585042119026195
decision_type=2 2 2 2 2 2 2 2 2 2 2
left_child=1 5 -3 4 8 6 -1 -7 -2 -5 -11
right_child=3 2 -4 9 -6 7 -8 -9 -10 10 -12
leaf_value=-0.0049011347788321079 -0.0082757437220425355 0.0086491672322154042 -0.00061734766863724775 -0.0030718076503399062 0.0014832710470294669 0.0042790877626504046 0.002371309307359514 -0.00011888745181461608 -0.0024770889524309801 3.89386071976388e-05 0.0041336441975242146
leaf_weight=43 20 23 34 20 21 37 21 205 24 131 24
leaf_count=43 20 23 34 20 21 37 21 205 24 131 24
internal_value=0 0.000415824 0.00312177 -0.000628934 -0.00298179 -8.82254e-05 -0.00251486 0.00055353 -0.00511284 0.000244984 0.000672958
internal_weight=0 363 57 240 65 306 64 242 44 175 155
internal_count=603 363 57 240 65 306 64 242 44 175 155
is_linear=0
shrinkage=0.1


Tree=93
num_leaves=11
num_cat=0
split_feature=16 15 15 14 12 19 19 14 11 15
split_gain=0.0147092 0.0636238 0.0297988 0.0831027 0.151501 0.064972 0.0543037 0.0458487 0.0317725 0.00453975
threshold=-1.1106919224252889 0.3629023932816931 0.19004828375834518 0.35409541004183642 0.26315789465027706 0.32238968157175241 0.91282202834772164 0.8266022750179568 0.45804195784989493 0.85590297958050088
decision_type=2 2 2 2 2 2 2 2 2 2
left_child=1 -1 5 4 -4 7 -7 -2 -5 -3
right_child=2 9 3 8 -6 6 -8 -9 -10 -11
leaf_value=0.0059882926399863904 -0.0054792867807878396 -0.0013836063035004946 0.0091984473548277663 -0.0013328427457756748 -0.0012108432285583997 0.0048675467544605708 -0.0014062203136524438 -0.00013811724632978439 0.00060359326847224859 0.0003900406092138691
leaf_weight=21 45 27 27 167 29 22 37 25 172 31
leaf_count=21 45 27 27 167 29 22 37 25 172 31
internal_value=0 0.001272 -0.000191771 0.000239182 0.00380792 -0.00151136 0.00093315 -0.00357173 -0.000350344 -0.000435623
internal_weight=0 79 524 395 56 129 59 70 339 58
internal_count=603 79 524 395 56 129 59 70 339 58
is_linear=0
shrinkage=0.1


Tree=94
num_leaves=11
num_cat=0
split_feature=2 22 18 27 12 29 29 14 13 23
split_gain=0.013742 0.0283912 0.0824272 0.0487463 0.0458935 0.0713479 0.0618771 0.0162463 0.00822157 0.0109879
threshold=1.0000000180025095e-35 0.12378189851518155 0.2499925188252686 0.52033457159996044 0.2705099776703655 0.8096346163026017 0.57504582165177276 0.92583626188482271 0.9999998269299718 0.9999960033889963
decision_type=2 2 2 2 2 2 2 2 2 2
left_child=1 2 3 -1 6 -6 -3 -2 -9 -10
right_child=7 4 -4 -5 5 -7 -8 8 9 -11
leaf_value=-0.00025236316897739335 -0.0030199006184314691 -0.00050357094883257832 0.0068669369918920673 0.0031378708044380449 -0.00068428724108693688 0.0057314952345041102 -0.0076379169290885333 0.0014761487068608405 -0.0025219592899900266 0.00047862143076669714
leaf_weight=230 30 31 21 52 130 20 20 20 23 26
leaf_count=230 30 31 21 52 130 20 20 20 23 26
internal_value=0 0.000211577 0.000822876 0.000372786 -0.000709933 0.00017115 -0.00330135 -0.00107712 -0.000232434 -0.000929814
internal_weight=0 504 303 282 201 150 51 99 69 49
internal_count=603 504 303 282 201 150 51 99 69 49
is_linear=0
shrinkage=0.1


Tree=95
num_leaves=11
num_cat=0
split_feature=29 10 26 13 14 14 16 18 12 15
split_gain=0.0159673 0.0493253 0.100843 0.0801939 0.0352027 0.0851691 0.0690465 0.0271581 0.0542336 0.0151622
threshold=0.69542327819750183 0.019260996434226546 0.92261904761904778 0.99870338631743749 0.51125479444703748 0.30595338285692764 4.0381602026910424e-20 -1.2304829326394398 0.52941177867860156 0.18870162629270765
decision_type=2 2 2 2 2 2 2 2 2 2
left_child=4 -2 3 -3 5 6 -1 8 -6 -9
right_child=1 2 -4 -5 7 -7 -8 9 -10 -11
leaf_value=-0.0035873793198594028 0.003675977266393602 0.0017291645102425299 -0.0070747007788331418 -0.0046434262784064879 0.0057254195617464252 0.0065185157277075391 0.0038988914023238147 -0.0019317995894743943 -0.0013793103613092431 -0.000117786613649719
leaf_weight=28 20 67 27 28 22 29 22 55 21 284
leaf_count=28 20 67 27 28 22 29 22 55 21 284
internal_value=0 -0.000927178 -0.00168179 -0.000149073 0.000285595 0.00220716 -0.00029342 -0.000111798 0.00225567 -0.000412096
internal_weight=0 142 122 95 461 79 50 382 43 339
internal_count=603 142 122 95 461 79 50 382 43 339
is_linear=0
shrinkage=0.1


Tree=96
num_leaves=6
num_cat=0
split_feature=12 12 10 15 13
split_gain=0.0143511 0.027202 0.143927 0.0251961 0.0278626
threshold=0.038187855780651404 0.14096499516298519 0.11111111094955177 0.98555905529220722 0.47448508159189035
decision_type=2 2 2 2 2
left_child=-1 2 -2 4 -3
right_child=1 3 -4 -5 -6
leaf_value=-0.0019652761919756556 0.0081356211461673447 -0.0015781544182374646 -0.0027240925486414478 -0.0035718533000908791 0.00039133080394341819
leaf_weight=35 23 87 26 20 412
leaf_count=35 23 87 26 20 412
internal_value=0 0.0001211 0.00237332 -9.1538e-05 4.79536e-05
internal_weight=0 568 49 519 499
internal_count=603 568 49 519 499
is_linear=0
shrinkage=0.1


Tree=97
num_leaves=9
num_cat=0
split_feature=29 13 29 18 7 29 10 10
split_gain=0.0131747 0.0505945 0.09329 0.0668131 0.0500401 0.0338374 0.0289822 0.0633887
threshold=0.69542327819750183 0.7209749320024843 0.96622105692215443 0.36366001633338291 1.0000000180025095e-35 0.64744588014727367 0.058334067032974342 0.10910320098414819
decision_type=2 2 2 2 2 2 2 2
left_child=5 2 -2 4 -3 6 -1 -8
right_child=1 3 -4 -5 -6 -7 7 -9
leaf_value=-0.0027322928575278429 -0.007125724079729669 -0.0036177455721532596 0.00076493659927960372 0.0047365112585664197 0.0026860403362661601 0.0041810349751141901 0.0045788473740685735 -5.8378891796131993e-05
leaf_weight=34 29 34 31 28 20 21 32 374
leaf_count=34 29 34 31 28 20 21 32 374
internal_value=0 -0.000842206 -0.00304888 0.000772436 -0.00128301 0.000259421 7.22533e-05 0.000307117
internal_weight=0 142 60 82 54 461 440 406
internal_count=603 142 60 82 54 461 440 406
is_linear=0
shrinkage=0.1


Tree=98
num_leaves=9
num_cat=0
split_feature=9 18 15 24 27 14 25 26
split_gain=0.0142016 0.0265159 0.065262 0.0405048 0.0627319 0.0354426 0.0197537 0.00534551
threshold=0.17381855659193154 -1.0590016081056632 0.45290253898478577 0.081444309213441493 0.89328050613403331 0.58433390814245445 4.5000000000000009 0.83974358974358987
decision_type=2 2 2 2 2 2 2 2
left_child=1 2 -1 5 -5 -3 -2 -4
right_child=6 3 7 4 -6 -7 -8 -9
leaf_value=0.0064827312302606355 0.00051839623117336524 0.0017918795512588783 -0.0013830353212099346 -0.0067790601085024804 0.00047642882070179508 -0.00030563917810976166 -0.0031543689397949496 0.00090131001430563632
leaf_weight=22 27 107 21 22 26 326 32 20
leaf_count=22 27 107 21 22 26 326 32 20
internal_value=0 0.000159822 0.00208893 -9.28471e-05 -0.002849 0.000212685 -0.00147361 -0.000268721
internal_weight=0 544 63 481 48 433 59 41
internal_count=603 544 63 481 48 433 59 41
is_linear=0
shrinkage=0.1


Tree=99
num_leaves=12
num_cat=0
split_feature=16 22 24 27 19 19 14 24 13 14 29
split_gain=0.0122377 0.0347096 0.0383263 0.0354527 0.0344706 0.0999407 0.195595 0.0364155 0.0227304 0.0184706 0.0101369
threshold=0.63097845537905439 0.92607270583177514 0.015176263662001402 0.37726747989654547 0.99999860448640432 0.4345106617800491 0.9643387908084603 0.20225324200102379 0.86829297718037612 0.8266022750179568 0.5708201136505614
decision_type=2 2 2 2 2 2 2 2 2 2 2
left_child=4 2 3 -2 5 7 -7 -1 -3 -6 -10
right_child=1 8 -4 -5 9 6 -8 -9 10 -11 -12
leaf_value=-0.00026989007201455681 0.002029466315938267 0.0034795116392030779 -0.0052044933535008962 -0.0030156532139517366 -0.0046300419035833337 0.011453854993147695 -0.0018946327557343814 0.0040348452596282143 0.00048013817660310976 -0.000332298573339358 -0.0019349633657839149
leaf_weight=306 26 21 28 30 20 23 21 21 63 20 24
leaf_count=306 26 21 28 30 20 23 21 21 63 20 24
internal_value=0 -0.000659114 -0.00218368 -0.000673276 0.000307907 0.000608617 0.00508299 6.56082e-06 0.00052666 -0.00248117 -0.000186097
internal_weight=0 192 84 56 411 371 44 327 108 40 87
internal_count=603 192 84 56 411 371 44 327 108 40 87
is_linear=0
shrinkage=0.1


Tree=100
num_leaves=7
num_cat=0
split_feature=22 9 23 17 29 29
split_gain=0.0129679 0.0165929 0.0203866 0.0771733 0.0612971 0.0185711
threshold=0.99999991241497377 0.17381855659193154 0.58990760907859763 4.0381602026910424e-20 0.69542327819750183 -0.028332286106132382
decision_type=2 2 2 2 2 2
left_child=1 2 3 -1 -4 -3
right_child=-2 5 4 -5 -6 -7
leaf_value=1.8291370071147697e-06 -0.002184629420606563 0.00053477559801346321 0.00017980041284317851 0.0038626644369173847 -0.0049712862095071218 -0.0031704455396280654
leaf_weight=271 26 24 160 64 27 31
leaf_count=271 26 24 160 64 27 31
internal_value=0 9.84408e-05 0.000272509 0.000739422 -0.000563939 -0.00155362
internal_weight=0 577 522 335 187 55
